{"hidden_weights":[[-0.12800525,-0.12890099,-0.036255766,-0.25155458,-0.16925806,0.096390866,0.046750266,-0.36264777,0.11335913,-0.02133998,-0.16345854,0.17953797,-0.07236409,-0.21754393,-0.3218683,-0.17745793,0.20403063,0.19981685,-0.23353502,0.2242099,0.17461754,-0.48815894,0.074553415,0.120277025,0.11884194,0.025726274,-0.3593254,0.18097566,-0.19185397,-0.080557786,-0.2710988,-0.08019027,0.17891105,-0.16214138,0.43675917,0.017171353,0.34223488,-0.36497352,-0.18459362,-0.097477384,-0.41069627],[-0.07743793,-0.24015056,0.13538943,0.34008595,-0.53566194,-0.05970637,0.072415456,-0.063350126,-0.1733033,0.22578879,0.18549336,-0.045892637,-0.08266519,0.006917589,-0.07745574,-0.11400575,-0.20523462,-0.08450292,-0.38360992,0.1277977,-0.26750934,-0.103093415,-0.18028799,-0.26779097,-0.018494777,0.06507869,0.0028973666,0.13642022,0.2054021,0.36643502,-0.06693559,0.080616765,0.3298656,0.39166263,-0.19963364,-0.1467389,-0.12584993,-0.3106806,0.065264724,-0.2305711,-0.2158931],[-0.010563116,-0.017597908,-0.15184942,0.4235854,-0.057733335,-0.02524533,0.045778718,-0.1399883,-0.2826945,0.01327042,-0.110464014,0.4366574,-0.31549242,-0.19202714,-0.17210253,-0.1292533,-0.097199716,-0.13187827,0.36879,0.085331626,-0.0052683596,-0.09864231,-0.09232588,-0.22686386,-0.0138938995,-0.24013881,0.43224964,0.038473293,-0.32002035,-0.1856752,0.010067052,-0.2745946,0.01490437,-0.18313374,0.13747872,-0.07249147,-0.08112632,0.04473654,0.0023817816,0.01897902,-0.049772043],[-0.09350205,0.064070255,0.24259034,0.066116944,-0.31771827,-0.15687166,-0.05784722,-0.24705875,0.15419568,0.14807184,-0.04299981,-0.062435582,0.09949819,0.45583728,0.19460383,-0.17118078,0.15177475,-0.099511735,0.21586134,-0.19755673,0.17619063,-0.18576568,0.16600622,0.22528507,0.024205819,0.1128564,0.117514625,0.010255029,-0.13126323,0.32260603,-0.21170425,-0.36798605,-0.2178527,-0.03625447,-0.110712305,0.11663262,-0.2704919,-0.035830658,-0.11004088,-0.1511726,0.08229916],[0.10794371,0.11851405,-0.108933076,-0.068594135,0.46486527,-0.041285735,-0.0871659,0.13830079,-0.063547604,0.030307682,0.12593526,-0.35781765,0.062791914,-0.040297404,-0.071458094,0.11175757,0.27761385,0.11662486,-0.05189403,0.13499165,0.20930019,0.37535623,0.4359772,0.23368748,0.38646898,0.2103033,0.12991594,-0.047879335,0.21565321,0.38893875,-0.3561146,0.1712028,0.16279067,0.027454836,0.1941061,-0.21054716,-0.056805015,-0.067110166,-0.051982105,-0.030118298,-0.15222849],[0.43667653,-0.27481315,-0.0074407924,0.28527632,0.30211353,-0.21921031,0.036959678,0.10674149,-0.052645355,-0.4073402,-0.02690422,-0.059377007,0.039581917,-0.020434039,-0.14967234,-0.14336911,0.014098699,-0.15456735,-0.13728392,-0.078246444,0.31768432,0.3378333,-0.08274209,0.030932704,0.16043314,0.3134901,0.15507793,-0.551144,-0.20130417,0.20746005,0.27096617,0.14979348,-0.24991272,-0.166967,-0.14459483,-0.13423209,-0.17069168,0.18059018,0.094600596,-0.12121244,0.088490956],[0.021363234,-0.04575422,-0.07351786,-0.11271274,-0.15791614,-0.040567394,0.1206192,-0.122134306,0.31109196,0.09752053,-0.2979672,0.24339747,0.012635226,0.05223639,0.075091735,0.23072122,0.03158927,-0.32741693,-0.1404842,0.070806675,-0.1557225,0.07547445,0.15545782,-0.07393558,0.15092307,-0.10718409,-0.13907942,0.2504052,0.32654473,0.23139864,-0.07011051,0.30914646,-0.29069042,-0.3090123,0.18730569,0.03699011,-0.10949079,-0.010419588,-0.11592522,0.020321077,0.020355482],[0.30987787,0.2905488,0.15689775,0.040299397,-0.00261103,0.20821491,-0.057178702,0.12010373,-0.025786906,0.22069018,-0.0234759,-0.12626722,0.106369644,-0.04881941,0.42001182,0.19588226,-0.46086937,0.108887255,-0.25964335,0.27802926,-0.41458493,0.05600207,-0.20141827,-0.19151904,-0.15688896,-0.049874976,-0.07587754,-0.24171966,-0.09263952,-0.20582616,-0.019441772,-0.33916292,-0.31244585,0.08277101,0.1266947,-0.020133724,-0.15521404,0.25961524,0.53237367,-0.40383667,0.045600254],[0.22395949,0.11042649,0.4576334,-0.25431472,0.29588106,0.14002225,-0.33332345,-0.23614857,-0.13943684,0.031777747,0.02669713,-0.38403848,-0.08050545,0.0049435394,0.2382352,0.10775208,-0.11310945,-0.04495228,-0.56972873,0.040845614,0.005131213,-0.1893822,-0.20930295,-0.03294982,0.07843643,-0.018579178,0.08068016,-0.27179253,0.23117469,-0.104550704,-0.08280786,-0.024548752,-0.007586848,0.11698041,0.15305531,-0.11608328,0.32587743,0.2939345,-0.085618176,0.07355969,-0.1074118],[-0.015139967,0.3149598,-0.077517375,-0.07839595,0.07531176,0.089246124,0.37788188,-0.32029328,0.10361492,-0.20552577,-0.43503118,-0.21509954,0.175587,-0.2046959,0.26582402,-0.014170758,0.013000384,0.058253825,-0.26452422,0.011411707,0.1371419,-0.048108988,-0.08572433,0.005997222,0.29456785,0.09508686,0.018050147,-0.11922025,0.046077944,-0.04697266,0.25103277,0.18409136,-0.2742623,0.32033455,0.12799604,0.13636532,-0.26679385,-0.020706503,0.17277046,-0.056668557,0.20931084]],"hidden_biases":[0.0,0.0,0.0,0.0,0.0,0.0,0.0,0.0,0.0,0.0],"output_weights":[[0.7220617,-0.63161767,-0.23304129,-0.41032788,-0.055952907,-0.51978683,-0.69078374,0.57656616,0.44999713,-0.13962686]],"output_biases":[0.0]}
