{"hidden_weights":[[-0.08267237,0.12118361,0.022107493,-0.19602321,-0.2613825,0.005947451,0.0059914533,0.104053356,-0.215729,0.08705555,0.14145121,0.20998716,-0.12088324,-0.1862551,-0.07566524,0.049436122,0.024777537,-0.012382259,-0.115033366,-0.118929155,-0.16574909,-0.102884315,-0.2561359,-0.16640219,-0.15480891,-0.1780491,-0.09218259,-0.25263765,-0.10469728,-0.018955203,-0.0009255029,0.10528115,0.006793643,0.0090824915,-0.0478995,0.25272042,-0.004345133,0.15907733,0.112185486,0.3133516,0.07747508,-0.032647867,-0.22550212,0.20658001,0.2393324,0.055421725,-0.23472048,-0.09803487,0.01798172,0.10683004,0.045024283,0.0048406315,-0.019515317,0.17712912,-0.27104765,-0.5577749,0.2960402,-0.26738483,-0.015739705,0.28212482,0.06899119,0.26303175],[0.21191661,0.12555167,0.015448532,-0.04406001,-0.18339512,-0.26827365,-0.019887585,0.17764151,0.1235339,0.15070069,0.11402363,-0.07358873,-0.19790883,0.0040026344,-0.11780393,-0.038423687,0.038252585,-0.05555564,-0.059685573,0.0404501,-0.08793653,0.24380264,-0.005350522,0.21518731,0.14674442,-0.08789669,0.11373807,-0.24676053,0.008826184,-0.04103862,0.035274,-0.26921088,0.119037904,-0.13929725,0.054063387,0.029956087,0.10488132,-0.025342751,-0.176982,-0.12450975,0.13184756,0.05303859,-0.13748698,0.1598365,0.20364992,-0.03246832,-0.42159903,0.050939605,-0.015395527,-0.08399393,-0.30473584,-0.11694742,-0.13972771,0.29678485,-0.15199524,-0.02696782,-0.19561982,-0.02234373,0.19337617,-0.22689244,0.104880586,0.15608624],[-0.0139815705,0.05752642,0.049245797,-0.13446465,-0.008319882,0.20730098,-0.064127006,-0.2542149,-0.025902286,0.14209555,0.19112265,-0.04184172,-0.08060556,0.07500986,-0.07934185,0.1387561,-0.24763045,0.044007972,0.073471114,0.009068738,-0.005878334,-0.33881462,-0.044274762,-0.061887678,-0.18359637,0.23126072,-0.032261707,0.2213752,-0.2676964,-0.01585392,-0.122261345,0.041570835,-0.19219753,0.1623489,0.41684133,-0.05690054,-0.11913179,-0.13586625,0.109912194,-0.30920896,0.107367605,0.12646697,0.12762551,-0.20977783,0.06657035,0.060257453,0.046489775,-0.24743734,-0.0931645,-0.2294652,0.1605389,0.25653684,-0.027710544,-0.20811224,0.10721452,0.15982197,-0.028693747,0.06156238,-0.3980719,-0.1360335,-0.16222544,0.1477162],[-0.10553867,-0.18355408,-0.079743825,0.07720405,0.18259798,0.040279992,0.12194289,0.060927283,-0.16492726,0.07440609,-0.22095819,0.1329575,-0.23501864,0.23373513,-0.095907174,0.12358778,-0.12107884,-0.013854293,-0.15712726,0.03532277,0.0010197783,-0.17274481,-0.11056337,-0.14931566,-0.042763423,-0.20036682,-0.046229374,0.32968462,0.13971996,-0.3502024,0.1774501,-0.07612239,0.12220954,-0.09226486,-0.057696577,0.27599388,-0.2792935,0.06434758,-0.20974249,0.16104746,-0.051961135,0.05325534,0.23019573,0.054084267,0.16080087,-0.1562212,-0.02220321,0.3501168,-0.2788086,-0.022091769,-0.11426386,0.07783295,0.006856726,-0.06181143,-0.020435303,0.17658974,-0.20632595,-0.031225719,-0.24903454,0.051180195,0.145369,-0.25315002],[-0.13205715,-0.19103333,0.0192399,0.034370568,0.01819888,0.052836165,-0.33195975,-0.08162302,0.026018735,-0.007821983,-0.11537993,0.1385644,-0.06418978,0.19651122,-0.015876073,0.31431618,0.109673895,0.0068631927,0.12237049,-0.04202147,0.034261152,-0.16314234,-0.22363618,0.12731628,0.020202402,-0.060572002,0.05681191,0.03802902,0.031178085,0.071334116,-0.193119,0.10982606,0.030314535,0.00031347587,-0.12647079,-0.017258732,-0.034266368,0.27742893,0.33372048,-0.20492448,-0.058667786,0.07193256,0.031132873,0.07087317,0.028408453,0.029905338,0.031962324,-0.13169111,0.07819777,-0.2789803,-0.15215524,0.053765334,0.109602556,-0.12946644,-0.18049406,-0.31555423,-0.017419541,-0.22114202,-0.111031905,0.2142422,-0.23626532,-0.0021582767],[-0.069196336,-0.035817284,0.059024166,-0.034982026,0.22971307,-0.16908953,0.045650233,-0.32125562,-0.008022907,-0.08320074,0.029425152,0.032419387,-0.12743707,-0.26723838,0.16555354,-0.0050806524,0.3658357,0.00013322,0.088611774,0.38555685,-0.0023477017,-0.31755778,-0.21620464,0.102444775,0.0039712987,0.18668158,0.1116027,-0.037196033,0.024269795,0.12619597,-0.012130349,0.12706593,-0.1341255,-0.14939618,0.2319362,0.36673212,-0.13885464,-0.122389555,0.003046008,-0.05515004,-0.04044159,0.077778704,0.09651912,0.3487221,-0.24579191,0.22181895,-0.008814329,0.16843642,0.046631373,-0.08918467,-0.1299748,-0.06040185,-0.026433647,-0.13932307,-0.01123091,0.25356758,-0.0025988058,-0.24212869,0.18423112,-0.24911353,-0.2279087,-0.030959694],[-0.47043553,-0.039124563,0.008536671,-0.122945406,-0.10057404,0.0020271994,0.26833722,0.12412717,-0.3203022,0.024906335,0.41815862,0.20700304,0.21697165,0.0022028687,-0.155889,0.036923945,-0.22312629,-0.00013105775,-0.07080381,-0.31106234,-0.5000577,-0.10865567,-0.0900197,0.065146476,0.21242957,0.21959679,-0.010627696,0.07928852,0.2657991,0.16066293,0.09198171,0.030460523,-0.0548469,-0.21152066,-0.16951458,0.19835144,0.07699069,-0.08358286,-0.36091518,0.03714298,0.028613778,0.31586564,-0.13806978,0.35463578,-0.14132674,0.18830076,-0.08014348,-0.2548157,-0.11868038,0.3123298,-0.05132753,-0.1003987,-0.32957304,-0.33328056,0.025017751,-0.24445273,0.02915022,-0.107084714,0.005387135,-0.082290284,0.087609485,0.009848611],[-0.25191787,0.04966985,-0.14852475,0.33925003,-0.13445292,-0.076538555,-0.15498643,-0.113214426,-0.11065052,0.085500464,0.0000019982592,-0.15061836,-0.2667589,-0.059457283,0.29029566,0.269417,-0.008748029,0.17477617,0.08114337,-0.18530728,0.11547269,0.24248886,0.31240082,-0.08627888,-0.09756549,0.117611915,0.15454425,-0.056884322,-0.1649922,-0.13865018,-0.069238655,-0.03986367,0.005170396,-0.261414,0.122284226,0.16327997,0.1599721,0.034255303,-0.079924375,0.2292469,-0.25486255,-0.11495879,-0.093260586,-0.2040055,-0.13673352,0.0011195763,-0.046350446,0.08883727,0.18680903,0.2539661,-0.0797653,-0.124992296,0.27918747,-0.06352616,0.01921967,0.25016993,0.044211708,0.29645622,0.095088065,0.025993818,-0.006969016,-0.017817704],[0.041058697,-0.26017413,-0.16070202,0.40826008,0.14979081,0.05914759,0.04052277,-0.10918204,-0.17322314,-0.09643912,-0.13978276,0.13063817,0.3315113,-0.07848966,0.060235206,-0.18836114,-0.39047423,-0.0966764,-0.0063342317,-0.15408577,0.0370153,0.065724924,-0.2395259,-0.18299334,-0.23900758,-0.44441652,-0.21656314,-0.23900603,0.43492508,0.15347238,0.1407948,0.10438778,-0.001155829,-0.15881707,-0.050245523,-0.028397469,0.3043889,-0.2681986,-0.133219,-0.060058862,-0.21523225,0.23181067,0.23644719,-0.1743012,-0.14634797,-0.04585095,-0.28192458,0.13247783,-0.0086208945,0.11901685,0.12758389,0.22266069,0.2527258,-0.014497652,-0.44495925,0.18757753,-0.04618417,-0.116677895,0.3829881,-0.2803243,-0.41981003,-0.01439025],[0.29500306,-0.037668478,0.031079486,0.31352922,-0.3123987,0.051638387,-0.025011508,-0.116013825,0.08111781,-0.3031687,0.10581496,0.10007956,0.14858736,0.08996339,0.0051414706,0.23829302,0.027727026,0.0114814,-0.22581267,0.15068686,0.13656744,0.04484281,0.004156081,0.262003,0.048104532,-0.01941299,-0.33626497,-0.08884185,0.082974926,0.14819142,0.3518668,-0.08476349,-0.12363528,-0.20863335,0.19492652,0.11604872,-0.35623226,0.1999345,0.3563793,0.061586905,0.11896041,-0.0879044,0.0027531532,-0.22553696,-0.036400873,-0.22526677,0.14557716,-0.09711334,0.17168766,-0.13462035,-0.031247199,-0.014249098,0.02835053,0.123277485,-0.121740595,0.22874583,-0.0013485064,-0.026354427,-0.16094778,-0.20897514,-0.2972845,0.18287286]],"hidden_biases":[0.0,0.0,0.0,0.0,0.0,0.0,0.0,0.0,0.0,0.0],"output_weights":[[0.04871005,0.32393163,-0.0033017397,-0.29357693,0.26109314,-0.5393626,0.23151112,0.20405573,-0.28504813,0.71986943]],"output_biases":[0.0]}
