{"hidden_weights":[[-0.29097685,-0.17356259,0.21076368,0.15109526,0.04702025,0.14713646,-0.16080596,-0.085605554,-0.084563665,0.08863222,0.16937105,0.06553694,-0.14049897,-0.09991848,-0.03429161,0.06566431,-0.12479244,-0.055376954,0.0449528,-0.13282675,0.14233677,-0.26556617,-0.26278105,-0.46983355,0.044598717,-0.15922372,0.09147243,0.021784814,-0.15911195,0.090806894,-0.02410403,-0.116908394,0.1818947,0.06337869,0.07032628,0.055540346,0.16826613,-0.060050346,0.15805528,-0.31174523,0.20311663,-0.26785505,-0.017463766,0.09394656,0.1308431,0.04031573,-0.004096499,0.08229331,-0.11793326,0.10204327,0.24694788,0.014620315,0.08693569,0.14062361,-0.25532755,-0.2128475,-0.104899496,0.045713972,-0.19765368,0.08473518,0.08823238,0.2078842,-0.09678758,-0.053830255,0.1311074,-0.23014379,-0.1751725,-0.075272776,-0.04449559],[-0.015787883,-0.1120548,0.016916156,-0.16587204,0.32790092,-0.04521871,-0.055548564,-0.10271398,-0.10585641,-0.020617073,-0.053097393,-0.0012719238,-0.20707682,0.20555705,0.16095245,-0.31555784,0.14896442,0.049887273,0.056872472,-0.045656584,0.40242788,-0.035607766,-0.10214118,-0.072102524,-0.119657785,-0.023209168,0.31739873,0.013003401,-0.012679236,0.49901092,-0.20969148,-0.275795,-0.069285564,-0.20887214,-0.04422904,0.008609968,0.22291599,0.08862007,0.05719351,-0.049341317,-0.03646081,-0.04733238,0.018214958,-0.13140795,-0.07779541,-0.11817724,0.060730085,-0.16715045,0.1436715,-0.1238124,-0.15551493,-0.13414757,-0.15235628,0.0016927248,0.13230114,-0.004148456,-0.15327737,-0.01792451,-0.4445037,-0.2135455,0.063743725,0.038523342,-0.15083317,-0.12871726,0.31810257,-0.0021781041,-0.100016005,0.16395272,-0.18689133],[0.15506263,0.017263945,0.012901397,0.048582323,-0.21368863,-0.024493305,-0.24324335,0.23931465,0.17020284,0.054788645,-0.0996427,0.119896345,-0.1364202,-0.03602578,-0.086087085,0.11306348,-0.056607377,0.020415101,0.1780875,-0.005580905,-0.14350553,0.07251563,-0.124621086,0.2653104,0.13301566,-0.031420827,-0.18579993,0.1355786,-0.025492834,-0.31705257,0.104481354,-0.16318235,0.20652829,-0.013328158,-0.006367881,0.041549902,-0.03359971,0.01634159,-0.070761494,0.026764613,0.12478538,-0.23514004,0.014078754,0.07273109,0.12809546,0.08835786,-0.3326894,-0.052288942,0.11211802,0.11340353,0.07264907,-0.090617605,-0.32712978,-0.08325408,-0.3068036,-0.053865224,-0.06091885,0.16110045,0.22385639,-0.03610794,-0.09129064,-0.22056748,-0.090519294,0.0063959328,0.00008711319,0.031141011,0.28976935,0.19110326,-0.43046796],[-0.050159406,-0.026411105,0.31790242,-0.056551293,0.032693844,-0.12053115,-0.091050744,-0.17553641,0.06715289,0.015043395,-0.15280667,-0.115014866,0.46196297,-0.21952617,-0.20148085,0.16238949,-0.22535478,0.0034183157,-0.06108352,-0.28685457,-0.1057409,-0.061553292,0.100528546,-0.023757635,-0.15667467,0.28692374,0.15276603,0.5339408,-0.12937099,0.042024966,0.17440511,0.21386997,0.20076716,-0.070570566,-0.22732273,-0.29159492,-0.05912349,0.11432821,-0.028615957,-0.018148161,0.28310925,-0.4215762,-0.06602585,0.14344835,-0.072184995,0.05017085,-0.037357423,0.11560976,0.38753536,0.21999234,0.08152904,0.25959128,0.25921237,-0.104790024,-0.0045892554,0.09468926,0.1569683,-0.19097011,-0.27113715,-0.18812145,0.13390958,-0.17465149,0.115544446,0.042441357,-0.110214286,0.02425002,0.36322895,0.20334323,-0.29265508],[0.080960445,-0.050624687,-0.33053234,-0.029076118,0.20940767,0.21827333,0.15539077,0.08727294,0.07260498,0.021169657,-0.10811812,-0.0027357081,-0.025742617,0.019974178,-0.09588366,-0.0039455513,0.20588695,0.27132252,-0.08161283,-0.14888807,-0.07405207,-0.1437097,-0.26070195,-0.037904818,-0.067998715,0.07669389,-0.18181337,0.05942773,-0.0878612,-0.07525121,0.14792804,-0.0757937,0.12925531,-0.118399076,0.102163464,-0.036131274,-0.004342033,-0.21292798,-0.17504568,0.03469815,-0.11642616,-0.020494614,-0.0073498087,-0.020272218,-0.25300938,0.15395086,0.044882953,0.28724107,-0.12176294,-0.046609987,0.29783183,-0.0008498339,-0.13257493,-0.3621837,0.24121511,-0.08285338,0.2730766,-0.090023234,0.14226367,0.03769173,-0.019690271,0.0350783,-0.23119453,0.21346986,-0.1835032,-0.20017582,-0.19707775,-0.023012223,-0.12582737],[-0.0702794,0.012396175,0.036075804,0.017455203,0.22207294,0.008535662,0.12003962,0.006849656,-0.17400852,-0.17027493,-0.1266515,0.018619103,-0.1482084,0.03960857,0.02863041,0.16108997,0.14208525,0.1486972,0.015372303,0.019456387,0.13151486,0.3066551,0.17283723,0.09612098,-0.09037101,-0.33966866,-0.19161406,0.057071403,-0.2362361,0.1403396,0.23282647,-0.15528312,0.30120865,0.02968591,0.16719495,0.2097359,-0.1305451,0.07407507,-0.31166452,0.22281404,-0.005526958,-0.024865601,0.03899785,-0.06486602,-0.030298537,0.0147579955,-0.23254839,-0.17622872,0.028045598,0.010595803,-0.016358769,-0.0021486103,0.087340236,-0.14001976,-0.1728638,-0.00041223032,-0.09242144,0.20871715,-0.13569085,-0.0244331,-0.16648611,-0.30705324,-0.19411947,-0.13091195,0.09258424,-0.13339825,-0.14860278,0.009196204,-0.24059142],[-0.35525858,0.39352673,-0.3779919,-0.091105044,0.11739521,0.19125025,-0.26139015,-0.2696172,-0.10167868,-0.06634852,-0.080830604,0.12681015,0.07284154,-0.015490332,-0.11360062,0.33313918,0.09215322,0.034204613,-0.21936466,-0.2529553,0.011525165,0.057838254,0.15238237,0.17037478,0.2827,-0.22747011,0.099539004,-0.16214694,0.12677257,-0.12508227,-0.036423486,-0.055710312,-0.05509476,0.0015645773,-0.2364586,0.13180417,-0.31902403,0.21348757,-0.23209631,0.044302925,0.02908234,0.14444324,0.009540045,-0.09119642,-0.04769119,-0.18719344,0.1429126,-0.0033049993,0.1733572,0.1629414,-0.11529552,0.091507986,-0.046231184,-0.21944582,-0.008132526,-0.16170958,-0.117764525,0.06602493,0.031004312,-0.3745664,-0.21867006,0.13571694,0.09512173,-0.15259893,-0.22524211,-0.073839135,0.03595034,0.09753237,-0.24552472],[-0.0031890236,0.14331177,0.124017626,-0.15307781,-0.049259577,-0.20573074,0.2649061,-0.08654351,0.12460665,-0.18248905,-0.25824302,-0.10333525,-0.12651743,0.087780796,-0.10833275,-0.03127482,0.059767254,0.14500155,-0.12506343,-0.010611689,-0.17432968,-0.12694506,0.14312907,-0.10530725,0.024443755,0.18102458,-0.073627494,-0.0142501,0.08381667,-0.08040713,0.013325549,-0.19527756,0.123616256,0.051822815,-0.060887262,0.004975818,0.15218773,-0.076082565,0.34313354,-0.05876896,0.120550625,-0.014125947,-0.116878085,0.120324716,-0.10762953,-0.09454958,0.20712498,0.19128068,-0.06148268,0.15453675,0.16358483,-0.07433086,-0.13370726,0.037378006,-0.13599631,0.12927584,-0.16177303,0.15361561,0.06867581,0.092040785,0.045561634,0.10444926,0.045465175,-0.24044265,0.2108295,0.10574568,0.26309764,0.10859194,-0.08201829],[0.1747087,-0.15588684,-0.046068624,-0.05518898,-0.17730477,0.19507635,0.14021836,0.052597936,0.046028286,0.027554754,0.031009618,-0.046390347,-0.20127395,-0.09372803,0.06830931,0.12488672,0.07737133,-0.041837778,0.1617235,-0.14202467,-0.035417747,-0.25860307,-0.16953596,0.049309675,-0.14962474,0.3325294,-0.27699062,-0.14412265,-0.16857001,-0.12023364,0.14377454,-0.032665677,0.1302325,-0.25015938,-0.27748263,0.1779079,0.15291817,-0.09928098,-0.13893278,-0.249019,-0.05454,-0.18640159,0.15742393,0.26213807,0.09842526,0.024488078,-0.0396986,-0.16355078,-0.068081535,0.126681,0.24326737,0.023872776,-0.04651129,-0.22834192,0.065481275,-0.07706648,0.13347358,0.23357123,-0.19688019,0.07042277,-0.20389305,-0.0349975,-0.068834215,0.060516387,0.32957837,0.18332715,0.01668428,-0.22360548,0.149061],[-0.020874154,-0.05648459,0.14179735,-0.05394914,0.24778989,0.03227775,0.1944559,0.33871353,-0.19609548,-0.30483082,-0.100292854,-0.18078703,0.21845599,-0.07401749,-0.14228094,-0.039387293,-0.090828516,0.07953169,-0.25620428,0.21172585,-0.12538543,-0.10906887,0.17695026,-0.010440621,-0.034042627,0.038262006,0.29432732,0.1433865,-0.14077806,-0.25629386,-0.1450941,0.0095284935,0.034491133,-0.11773333,0.12556493,-0.09191813,-0.006639933,-0.09828614,0.20222215,0.0034956792,-0.046193287,-0.15686393,-0.09616809,0.15803467,-0.13738456,0.10297106,-0.058388527,0.11503649,-0.028420648,0.08194717,-0.026635159,0.0029538462,-0.014014266,-0.14078823,-0.07975077,-0.10184926,0.06379449,0.0040314556,0.11461633,-0.16068715,-0.049282055,0.22311501,-0.4580274,0.17018363,-0.009427268,-0.01036709,0.044582874,-0.15676723,-0.11216433]],"hidden_biases":[0.0,0.0,0.0,0.0,0.0,0.0,0.0,0.0,0.0,0.0],"output_weights":[[-0.6837742,0.29191965,0.6724767,-0.5860896,-0.50431806,0.09434056,0.5671912,0.45234483,-0.6113185,0.7282651]],"output_biases":[0.0]}