{"hidden_weights":[[0.04000219,0.02445209,0.16074327,0.030653624,-0.24661168,0.025351578,0.19512896,-0.011375833,0.290692,0.035977352,-0.23653084,0.092233166,-0.11864257,0.015695415,0.05763253,0.017225752,-0.015792444,-0.14957121,-0.22417577,-0.19107002,0.074817084,-0.009687298,-0.009122862,0.06221191,-0.053987935,0.250061,-0.0516025,-0.06259399,0.17423579,-0.101281784,-0.05363004,-0.11681188,-0.10303552,0.044874936,0.14850907,-0.34875575,-0.08838118,0.086020395,-0.07382044,-0.24467547,0.020577636,0.10770355,0.21041387,0.07185467,0.09219681,0.22106527,0.0025252437,-0.091655344,-0.15767746,-0.0481569,-0.06765349,0.1799112,0.09515296,0.18784946,0.12915647,0.07586253,-0.017899575,0.26939425,0.13498552,0.05597459,-0.2274915,0.23234744,-0.19511835,-0.16552386,-0.41038722,-0.09407164,-0.13593209,0.06300925,-0.10851693,-0.17629436,-0.052420136,0.34368733,0.10677562,-0.006783126,-0.14904225,0.2011253,-0.042132054,0.008498735,-0.07838873],[0.27939633,0.12670705,-0.063404,-0.22049592,-0.14144859,-0.12476258,-0.099258475,-0.18025771,-0.013811423,-0.13685472,-0.033048186,0.1456512,0.0089276275,-0.059505995,0.07163132,0.17137441,-0.162069,-0.057810053,0.037120804,-0.17190433,-0.13350625,0.076917335,0.18142621,0.1042518,0.09584798,0.048828613,-0.037229408,0.15775214,-0.043958478,0.16962688,0.08051648,-0.22142452,-0.093359575,-0.24686736,-0.22131597,0.14076267,-0.0043000304,-0.0748176,0.06249913,0.0722895,-0.059897263,-0.11950536,-0.11707487,0.03124514,0.19898759,-0.026714327,-0.000040770166,-0.14554004,0.029437795,0.20557413,0.02455502,0.1386701,-0.03737158,-0.3062398,-0.1464275,0.16981062,-0.11814723,-0.20741974,0.12501605,0.10483916,-0.13775563,-0.007706068,-0.18927807,-0.17945033,-0.10222931,-0.35169825,-0.21622407,-0.2169333,0.17024481,-0.08871295,-0.051909965,0.24047665,-0.037587956,0.0467643,0.29090548,-0.24539292,0.18583839,0.1646739,-0.1535375],[0.12726423,0.2726488,-0.042704586,-0.13750364,-0.22072726,-0.10286326,0.032914147,0.047397647,0.04611172,0.062177856,-0.19088057,-0.023451276,0.1374007,0.08941872,0.010898577,-0.04126206,-0.12885167,-0.3136261,-0.19055048,0.077859916,0.0014906486,0.1350504,0.09337993,-0.11695086,-0.060090028,-0.016249942,0.10681255,-0.17565726,0.013795122,0.08408211,-0.1402894,-0.13553458,0.0819862,-0.15088086,0.07462559,-0.02156198,0.019628584,0.052835204,-0.0123499995,0.17106137,0.21834804,0.07938597,0.10558018,-0.27039602,-0.062037528,-0.17553857,0.18866059,0.05397788,0.100352265,0.044601385,-0.088049434,0.03136263,-0.04088018,-0.46235782,-0.19676681,0.0602211,-0.15817781,-0.23281758,-0.082872316,0.24635834,0.015755616,0.24035598,-0.15445396,-0.24452108,0.06342199,0.24216907,0.20227021,-0.17828587,0.120775625,0.2119012,0.11672011,0.06168387,-0.25917616,-0.0995051,0.021147192,0.13591935,-0.19018161,-0.20176351,-0.014311457],[-0.25416407,-0.09619575,0.12694432,-0.19033952,0.17545901,-0.15625353,0.12251155,0.13153839,-0.10827307,0.17770246,0.02522409,0.13418153,0.1493265,-0.06601666,-0.44921586,-0.19112551,-0.12303313,0.045834932,0.05170199,-0.47490615,-0.21073394,-0.12075296,0.07422081,0.047849447,-0.14949201,-0.0066831447,0.004072187,0.25668442,-0.232863,-0.19172156,-0.052549202,0.34296355,0.067160055,-0.09808486,-0.25526568,0.02764148,0.26572943,-0.03354934,0.12314466,-0.021410052,0.08915817,0.06723735,-0.22054373,-0.016867114,-0.058631767,0.112446904,0.12691377,-0.10660562,-0.053511444,-0.16702823,0.12616722,0.13470648,0.27811402,-0.096251704,0.25862324,-0.10987446,-0.16048552,-0.015071013,-0.14090888,0.022612844,0.12088538,-0.025435224,0.0650834,-0.027851794,0.025393229,-0.020152716,-0.05875485,-0.21120016,0.25015157,-0.09108116,-0.116318405,0.14601575,0.13239568,0.10604334,0.0683969,-0.119531184,0.08542978,0.25306478,-0.027726613],[-0.04139691,-0.22399479,0.11495317,0.31186756,-0.09090357,0.0060140784,-0.011624086,0.0733609,0.051380698,-0.038612112,0.19639851,0.02431314,-0.050877716,0.03703778,0.11643089,-0.085502,0.107820936,-0.097789064,-0.0885345,-0.30685923,0.15633968,-0.14118929,-0.0666123,-0.06903578,0.2568349,-0.012667028,0.01357408,-0.19641806,0.22608957,-0.03563421,0.4579658,0.024894597,-0.20341563,0.102088295,-0.18529016,-0.16696545,-0.12083759,0.021996232,-0.32902974,-0.2031203,0.07616122,-0.060370754,0.14506312,-0.40702713,0.029998979,-0.11670596,0.1643267,0.24138369,-0.013638437,-0.3059705,0.27996823,-0.19435024,-0.25781476,0.025387114,0.06948592,0.21636377,0.108815156,-0.34355217,-0.12149209,-0.16530238,0.29048404,0.28240392,0.10076376,0.2007055,-0.04974416,0.28991023,0.20641865,-0.15369512,-0.25039753,0.079156406,0.06721199,-0.06121662,0.117741354,0.056565937,-0.26781568,0.29530016,-0.11973639,0.10791611,-0.17079434],[0.16257527,-0.045462135,-0.12551503,0.21663085,0.07392627,0.09363026,-0.07003146,-0.043161064,-0.013591707,-0.36077663,0.25139362,-0.07999201,-0.037269834,-0.0613085,0.19572073,-0.09653563,0.0951107,0.1170327,0.022975536,-0.0015112552,0.02276711,0.04739786,0.16464895,-0.121069446,0.16277795,0.2814113,0.016369794,0.13993238,-0.08203228,-0.18383309,0.08704286,0.13818352,0.059440836,-0.14846128,0.25278884,0.035468705,-0.12666318,-0.015932793,-0.11425083,0.30392393,0.08911508,-0.090309605,0.11371611,-0.1459301,0.19554874,0.10170476,0.22046243,-0.023933655,-0.1538533,0.16691291,0.12896515,-0.03684443,-0.30743447,-0.18282628,-0.23936105,-0.008544597,0.14668123,-0.299558,0.10457874,0.038297307,0.09774597,-0.19781397,-0.13925937,0.1913308,0.1755131,0.18707892,0.11294294,0.13450412,-0.11161174,0.16495675,0.2296977,-0.03656202,0.09164385,0.102639124,-0.028181992,-0.081314184,0.2665184,0.12043805,-0.20555171],[0.03625257,0.035795722,0.0027773466,-0.2963422,0.10180632,-0.14347422,0.119907245,0.31518155,-0.007541366,0.22529592,-0.022702042,0.10970529,-0.0784607,0.06318212,0.12833525,0.3069123,0.17736469,-0.004858974,-0.024285065,0.16530652,-0.15523496,0.19712849,0.013612434,-0.12410514,-0.13647749,0.1308519,-0.00290536,-0.018518807,-0.23882423,-0.012131048,-0.06583763,0.008986969,-0.06545917,0.11942572,-0.1292677,0.113614924,-0.22966899,0.12069635,0.021036763,0.0069515533,-0.19809148,-0.07145247,-0.18221846,0.027687082,-0.10999724,0.17761563,0.2443984,-0.18156432,-0.0077979965,-0.004905389,-0.05586269,-0.13590944,0.2949095,-0.2104834,0.102575995,0.3200394,-0.2536019,-0.11836994,-0.11733833,0.15070714,-0.058194432,0.12576704,0.13445415,-0.008170645,0.11349966,-0.09115866,0.13665517,-0.13136242,-0.24352781,0.20334396,-0.019624082,0.07355675,0.10867195,-0.25914538,0.27272195,0.039026875,-0.11399178,0.07733998,-0.0072328094],[0.005838676,0.041365236,0.14024264,-0.21119933,-0.196158,0.18574312,0.31319728,0.058104295,-0.034986433,0.1579317,0.055274494,0.071528085,0.016423192,0.1779871,-0.34218016,-0.31981167,-0.2912205,0.24259536,0.17074086,-0.35232925,0.050530337,-0.1302902,0.24558857,0.0048843008,-0.17972748,0.57999015,-0.059655633,0.23306249,-0.00048054455,0.07455105,-0.035823915,0.02462298,0.18971923,-0.143975,-0.034181654,-0.07329602,-0.1519362,-0.029218748,-0.08359347,-0.07989181,0.024275366,0.16718818,0.094913796,0.11654614,-0.13363567,0.08574345,0.035302226,0.07550446,0.1900766,0.053435337,-0.004234508,0.09304025,0.034025174,-0.1415513,0.012969858,-0.21900205,-0.18625867,-0.108160965,0.06135479,0.08058643,0.31275037,-0.24670638,0.31245762,-0.27294874,0.11479849,0.22289923,-0.15776712,-0.18647026,-0.094482854,0.2948952,-0.17221127,0.38974848,0.15469825,0.027394973,0.35403135,-0.33435875,-0.19059514,0.13134702,-0.1533069],[-0.21741058,0.20118424,-0.20724818,-0.029797835,0.038763713,0.089489274,0.016008146,0.031397913,0.056476336,0.46524212,0.015445505,-0.21998957,0.076005444,-0.029957408,-0.045652147,0.10520437,-0.06783895,0.12409345,0.20071687,0.15344307,-0.024024496,-0.14674298,0.14510776,0.11278507,-0.2365583,-0.0011335441,0.015376648,-0.16541047,0.18659249,-0.22861215,0.12932698,0.09116439,-0.05492218,0.059038013,0.064366765,0.10283878,0.0490587,-0.2277154,-0.038331695,0.0647111,-0.104762435,0.042271297,0.14002712,0.13568775,-0.0804752,-0.11879427,0.1144751,-0.12477712,-0.23757981,0.104642294,-0.09944522,0.14698383,0.19276214,0.22436096,-0.12138792,0.24677145,0.113520235,-0.20142063,-0.23282996,0.13897963,0.06883855,-0.19167387,0.23173228,0.12231313,0.0090177795,-0.13461865,0.2815348,-0.29181498,-0.12449623,0.060752645,0.25656208,0.013312951,-0.055228222,-0.3869403,0.08620116,0.20155694,0.06279031,-0.098053284,0.16355649],[0.03118496,0.14851072,0.048354264,0.13464874,-0.09589836,-0.099378586,0.09392122,-0.30247614,-0.049021836,0.0216259,0.12980975,-0.14467335,0.009841788,-0.048751913,-0.15444644,-0.0014713515,0.07346064,0.10757995,-0.45629102,-0.08232957,0.03494391,-0.059902314,0.17196411,-0.09549858,-0.20896202,0.1950471,-0.046828944,0.01812101,0.03137076,-0.028801858,-0.11136849,-0.3427464,-0.012269695,0.2528695,-0.0557329,-0.01798892,0.040019233,-0.08373555,0.1852158,0.20143475,0.055673424,-0.080601245,-0.00948419,0.18005514,0.03709253,-0.03794822,-0.048161115,0.03032821,-0.10700152,-0.22446984,-0.26662037,0.031262465,0.102306634,0.22105739,0.07535973,0.20143062,-0.0034031149,-0.2279593,0.15394458,-0.06860028,-0.21418776,-0.061114684,0.16667788,0.17845644,0.2201279,-0.28033328,-0.056402218,-0.08909637,-0.17143339,0.16741163,0.09455183,0.06794695,0.09133356,-0.22970031,-0.18671133,-0.18470517,0.09679691,0.27042612,-0.08094333]],"hidden_biases":[-0.00022105273,-0.0007225021,-0.0005301237,-0.0005046185,0.00005865152,-0.00071293913,0.00042325404,0.00071319524,-0.0007107813,-0.000007790233],"output_weights":[[0.33801922,-0.5522724,0.60720044,0.6867811,0.55393744,-0.47382244,0.3564312,0.4876775,-0.050321326,0.2714447]],"output_biases":[0.0007129577]}