{"hidden_weights":[[-0.064865254,-0.1109935,0.22163893,-0.23543653,0.4220808,-0.3368592,0.13094902,-0.010590224,0.07939129,-0.09521139,0.18001044,-0.095471956,-0.32147563,0.42920285,-0.048627466,0.30657727,-0.49708286,-0.023908002,0.18468952,0.24385744,-0.18181534,0.3834025,0.33862975,0.09111259,0.014688219,-0.042921353,0.11503724,-0.061323006,0.024675297,-0.13775526,-0.035620604,0.40263137,-0.034907024,-0.0062560076,-0.06676765,-0.2817345,0.013173445,-0.055696797,0.34816366,0.20510414,0.090203255],[-0.24677466,-0.35424855,-0.08904931,-0.26086015,-0.3120596,-0.013806287,0.30659112,0.47125876,-0.043448254,-0.22530605,-0.021188227,-0.3197367,-0.0024342246,-0.102897935,0.26370674,0.090779245,0.06589756,-0.23887864,-0.095559396,-0.14165112,0.08603811,-0.3248518,0.22773029,-0.050985962,0.018122958,0.11662924,0.113846816,-0.12802406,0.3192511,-0.40855667,-0.07607837,0.062058315,0.47529563,-0.35561806,-0.07651065,0.00024758553,0.08087006,0.3937814,-0.4452938,0.4002174,0.06721209],[0.042596,0.2427937,-0.086686425,0.021204995,0.19591054,0.11337748,0.2024043,0.32730827,-0.07958045,0.28698394,0.2294526,-0.22984487,0.2007741,-0.1264247,-0.21166514,-0.3298867,0.08611321,0.17684768,-0.20953971,-0.048029996,0.07857856,-0.15487115,-0.08116643,-0.08339105,0.1887768,0.4071405,0.47659102,0.11137651,-0.7549112,0.19089448,0.09876258,0.12903966,-0.15895036,0.098910995,-0.26328093,0.15246843,0.21569236,-0.42559665,0.15917926,0.17540446,0.24741168],[-0.58787864,-0.3760452,0.21806115,0.045558374,-0.12073651,0.13986938,0.05960547,0.0016393842,-0.18056491,0.2334349,-0.24223018,-0.037482228,-0.094307505,-0.2522663,-0.3496645,0.35415486,0.2604926,-0.17005467,-0.24463853,0.19937728,0.09745683,-0.37723127,-0.7192475,0.36318982,-0.31970787,0.26363158,-0.035892803,-0.41151166,-0.03155131,-0.12675047,-0.19765851,0.22822748,-0.0886075,0.20611635,-0.22032802,0.13740559,0.037371982,-0.06390433,0.13098083,0.032735325,0.121434316],[-0.19672754,0.12806183,0.29013258,0.08180955,0.38697895,-0.0565993,-0.063655905,0.27910823,0.037952863,-0.09585117,0.114713594,-0.007039903,-0.2508656,-0.1147157,-0.40573958,0.46012864,0.39476314,0.14809884,-0.11745101,-0.18374215,0.06530088,-0.34105232,0.15656494,0.044079434,0.0293264,0.28386986,-0.25367078,0.037628904,-0.08247909,-0.1019894,-0.15888798,0.18976603,0.11842604,0.40942332,0.43702838,-0.075744994,0.16758367,-0.053462826,-0.08950158,0.029646808,0.015722888],[-0.16075562,0.33882087,0.20462944,0.23148963,-0.46699244,0.005645752,-0.09647374,0.08606649,-0.022327725,0.016039353,0.053009495,-0.13440588,-0.087494455,-0.0871313,0.33162323,-0.09391844,-0.097834505,-0.13153882,0.14469539,-0.094698735,0.0751373,-0.07331673,-0.27550566,0.24635124,-0.21731745,-0.0952493,0.18560192,-0.2714997,-0.33484143,-0.13749732,-0.44843087,0.005704429,0.11902662,-0.058986355,0.11403095,0.33827904,-0.011568248,-0.10115029,-0.042345554,0.050883166,-0.16811402],[0.23738793,0.10172817,0.46597725,0.3648395,-0.013982296,-0.08800422,-0.003456948,0.37428987,-0.016255006,-0.06508232,0.13701512,-0.07836522,0.12444438,-0.24373159,-0.07107787,0.0715642,0.22160058,-0.009990292,-0.26655746,0.22264707,-0.4065562,0.046463743,-0.010683048,-0.10724711,-0.12324139,-0.02906052,-0.11770997,0.2296306,0.12812887,-0.30491063,-0.09040929,-0.3198777,-0.2379556,-0.22702038,-0.18572772,0.17309263,0.05998751,0.05887712,-0.003882764,-0.029067516,-0.059574902],[-0.22899416,-0.06832707,0.15506835,-0.07180363,-0.2790231,-0.030696586,0.06317061,-0.19241609,-0.00743247,-0.12765531,-0.1828174,-0.07828822,-0.18194504,-0.15946598,0.06706563,0.4816179,0.057243057,0.09442664,-0.035633016,-0.28677052,0.3713922,-0.15781523,0.061660793,-0.07590841,0.21675812,-0.082467176,-0.047952138,0.2727125,-0.00816586,-0.0060890527,-0.2351108,0.37200126,-0.055495046,-0.20071523,0.033172645,-0.20090377,0.28961942,-0.28861144,0.07490689,-0.3083694,0.007717376],[0.21439813,0.539993,-0.048254147,0.016754562,0.067501724,0.09901837,0.12662952,-0.0391132,-0.11764074,0.4869033,0.10935332,0.33152106,-0.07759003,-0.2875438,-0.008465403,-0.032726847,-0.08163732,-0.22233456,-0.33396333,-0.22271079,0.19841704,0.039610624,-0.07616458,-0.004978418,0.28039935,0.036333367,0.09170397,-0.015940221,-0.09885931,-0.055013224,-0.22104743,-0.061995216,0.13113503,0.06653303,0.05355446,-0.0153605,-0.21814802,-0.16768439,-0.018742973,-0.35470495,0.02142735],[0.07067251,0.18729606,-0.1344156,0.26155272,-0.4932834,0.270631,0.18876965,0.28290814,0.10912536,-0.122328684,-0.22876967,-0.048118293,-0.049946148,-0.4229511,-0.2050973,0.009383223,-0.19463424,0.015034732,0.026462542,0.2807997,-0.35348752,-0.14567679,-0.04671992,-0.55749273,-0.47134617,-0.103238516,-0.13119934,-0.35460204,0.11698613,0.032958556,0.03121154,-0.21809596,0.06549351,0.0014270813,0.08303006,-0.000475567,0.1107982,0.20799665,0.06650862,0.29652604,0.014757753]],"hidden_biases":[0.0,0.0,0.0,0.0,0.0,0.0,0.0,0.0,0.0,0.0],"output_weights":[[-0.028608143,-0.3162928,-0.2897839,-0.5886849,0.22966856,0.120856166,0.39870125,0.358576,0.72592765,0.15072721]],"output_biases":[0.0]}
