{"hidden_weights":[[-0.024985582,0.26181415,-0.3901848,-0.08528795,0.30524603,0.24562703,-0.13271819,-0.19306862,-0.28750688,0.29643676,-0.07342417,0.34512177,0.17131546,0.08591652,-0.2977758,-0.00017735279,-0.038125847,0.19058187,-0.16629636,-0.033571083,0.3542259,0.13699281,-0.16087121,0.17518242,-0.009165594,0.064962104,0.26455674,0.093027934,-0.32382807,0.22828652,0.27669203,-0.03243611,0.07906927,0.2986479,0.29832545,0.027384708,0.21380167,0.29444724,0.124987274,0.084515736,-0.09398266,0.17613626,0.17084152,0.070462,0.093586564,0.03875342,-0.07749309,0.07028398,-0.012567632,-0.096344,0.07265177,-0.05428151,0.167769,-0.15885155,-0.038218893,0.19480428,0.0774555,-0.008702963,0.27728423,-0.054353006,0.162951,-0.30507746],[0.01057669,-0.13651153,-0.030431068,0.04672813,-0.37800956,-0.22246331,0.06943422,0.052845776,-0.010538865,0.2688564,0.038789358,0.034887828,0.08181547,-0.36258686,-0.35220265,0.3097992,-0.31226388,-0.014123437,-0.20683812,0.06533046,-0.117975466,-0.16976726,0.116603404,0.132798,0.01719089,-0.060501,-0.3029058,-0.21891668,0.020124357,-0.07485881,0.04620533,-0.1523018,0.106776714,0.41427967,0.0006487707,-0.20074444,0.39518616,0.16837487,0.21724865,-0.01314081,0.034997366,-0.043596454,0.19044021,0.04888919,-0.03563051,0.25748566,-0.11004952,-0.052538484,-0.13631345,0.12272384,0.18536429,0.060411416,0.1864929,0.07439705,0.100600995,-0.2553363,0.19657877,-0.5666814,0.13078588,0.31912416,0.15922341,0.13217378],[-0.18359803,-0.12499208,0.34347135,0.15924443,-0.010769686,-0.0122575965,-0.34674215,0.00443675,-0.12568016,0.2865977,0.055397015,-0.15317036,0.2870102,-0.02169856,0.076420635,0.13068342,-0.24956055,0.029584514,0.116139494,-0.04598695,-0.067621395,0.13073874,-0.37722763,0.1532762,0.38751176,-0.019764766,-0.21173097,-0.08778694,0.10663664,-0.049356364,-0.054741036,0.02247262,0.16295813,-0.07500817,-0.4235425,0.40174764,0.22958656,-0.05647669,0.049786337,0.053716872,0.0063294666,-0.08654788,0.14437212,0.43107027,-0.13817851,0.39473268,0.029532079,-0.009697508,0.03340959,0.008084895,0.0003561213,0.13156687,0.07006323,0.33552322,-0.13615781,0.029495483,-0.39549643,0.2715436,-0.058050863,0.23374249,0.017049132,0.14432673],[-0.007857399,-0.068234794,0.27644712,0.014947593,0.11401983,0.08744162,-0.07781287,0.17384687,-0.33000988,-0.17805313,-0.056356907,0.053439148,-0.18920429,-0.16632088,-0.07298318,-0.11420025,-0.039387234,-0.2996845,0.026361307,-0.09789075,0.39915785,-0.10429892,-0.3969062,-0.26340082,0.077488735,-0.19863035,-0.15542023,0.20339723,0.0071701333,-0.005928429,0.083959565,0.06325461,-0.29667956,0.18528025,0.031688508,0.07162742,-0.039355855,-0.059839997,0.21032465,0.009354314,-0.14300735,0.3518716,-0.3715208,0.005179635,0.3108565,-0.17714624,0.25919428,-0.0542718,-0.107540175,0.2596152,-0.013685512,0.0036022835,-0.08316032,0.28903505,-0.06918993,0.08087541,-0.036075257,0.12063571,0.012880267,0.11132454,-0.093517676,0.03148981],[-0.06424539,0.11143099,-0.00875048,-0.31813392,0.023702038,0.26696306,-0.10108393,-0.013944465,0.22715953,-0.29360273,-0.09356195,0.104587406,-0.22216924,0.05763682,0.1572241,0.16426638,-0.37571362,-0.053593826,0.12281052,-0.11036772,-0.23208809,-0.0556924,-0.37719086,-0.03924048,-0.14581707,0.3035161,0.24678886,0.14604472,0.21099588,0.23723266,-0.2461663,0.52143025,-0.10356267,0.14835559,-0.04864296,0.1728447,0.020867601,-0.27964845,0.038644813,0.05894346,0.041072752,-0.0788672,-0.05553876,0.40168548,-0.15887609,0.052117117,0.059998818,-0.34457627,-0.011804871,0.22077568,0.025336716,-0.13589242,0.14555386,0.19848865,-0.20234086,-0.13275516,0.47753474,-0.099785686,0.08078762,0.01234468,-0.11772949,-0.16928877],[0.14588128,-0.17225778,0.1297579,-0.104699574,-0.29071742,-0.001487064,-0.0728993,-0.3461915,0.08363444,0.15379111,-0.1107719,0.027443944,-0.27253368,-0.0067188963,0.05906881,-0.19832553,0.40320632,-0.06361043,-0.16718969,-0.04450466,0.18852733,0.114589036,-0.06125177,0.10202925,-0.6553299,-0.0453691,-0.30239388,0.2774515,0.06640398,-0.067639835,-0.077155374,-0.0803081,0.054462984,0.037355486,0.17133951,0.006470865,0.26489562,0.28028557,-0.033804644,-0.20058323,-0.116591945,-0.20431848,0.10315897,-0.110436425,-0.33399746,-0.0340542,0.28286803,0.1161956,0.031734373,-0.14021978,0.024668546,-0.086135134,0.17565463,0.13960311,0.118058324,-0.24376859,-0.16782628,0.100306384,0.050486267,-0.24651219,0.16209222,0.08836595],[-0.15595542,0.13011743,0.0854785,-0.007032395,0.2765804,-0.19962871,0.041587137,-0.101691395,-0.08230962,-0.29530868,0.22616436,-0.05932981,0.099968,0.06909028,0.14840217,-0.1260128,-0.012783253,-0.019750876,0.02002799,0.03957799,0.1352189,-0.23629475,-0.15705736,-0.18117663,0.11674613,-0.10361261,0.0678165,0.31614286,0.21913695,0.038000066,-0.08274487,0.14925678,0.07012821,0.14605655,0.09083267,-0.072267964,-0.16494216,-0.05521084,-0.21903394,-0.017786048,0.02042717,-0.30552968,-0.023727482,-0.19303565,0.115000054,-0.10366473,0.0014094117,-0.20655832,0.019845916,-0.18388492,0.13050608,0.03709008,-0.29893336,-0.113495685,0.3087685,0.03322691,0.14943604,-0.02414636,0.091374226,-0.17558998,0.25377196,-0.2811839],[0.12544352,0.0033866267,-0.10602867,0.14969686,0.070919536,0.03737539,-0.13312602,0.23334247,0.1944596,-0.2614476,0.034799587,-0.18768913,0.1352332,-0.0069282954,0.12620701,0.29483208,-0.17328286,0.15285735,0.015303628,-0.18857078,0.31371802,0.07486081,-0.19707717,0.04476469,0.3233336,0.28825822,0.30328077,-0.09982803,0.26233923,0.118823044,0.037997626,-0.27613512,-0.050265066,0.13692704,-0.104552954,-0.15723555,0.14066502,0.009900971,-0.030388664,0.36204627,-0.31587294,-0.039669022,0.054655217,-0.17649157,-0.21577238,0.117485054,0.011984191,0.40273762,0.013128206,0.012987722,-0.28473672,0.12629089,-0.07742603,0.21856561,0.2416912,-0.053416487,0.12242472,-0.13087629,0.24969146,0.00973529,-0.15722889,0.01237379],[-0.065437384,-0.008352942,-0.108658336,0.044395566,-0.1954359,0.20295687,0.089678414,-0.09786242,0.07974346,0.026846973,-0.016245218,0.011412458,0.410641,-0.1640366,-0.007479076,-0.040978443,-0.17770667,0.17997016,0.32183304,0.017309487,0.065442055,-0.0073241265,-0.045211647,0.07986396,0.19160569,0.0056036282,-0.28177828,0.047589146,0.10948113,0.095562294,-0.38054034,-0.13326189,-0.14558169,0.007917564,-0.24995698,-0.033954386,-0.01246673,-0.18490075,0.3956116,-0.034103133,0.06415972,0.23962817,0.1799251,0.032661114,-0.18011267,-0.0046918485,0.32568976,-0.2008901,0.051541384,-0.0047639,0.1554828,-0.1392929,0.076798975,-0.11666163,0.17749593,0.05771393,-0.2159132,0.22002834,0.10526061,0.093437664,-0.12513016,0.18518922],[-0.0728527,-0.3120113,0.10561572,0.09156878,-0.004855021,0.1551232,0.11739481,-0.076118164,0.26279888,0.00646354,-0.11806585,-0.074013844,0.19037196,0.1800739,0.20762515,-0.18657787,0.0543712,0.2938292,0.31189638,0.27485633,-0.20176819,-0.073837295,-0.06637957,-0.041170012,-0.03308654,0.1647761,-0.2601824,0.16612329,0.0029082915,0.5847055,-0.10192511,-0.1284453,0.03793679,0.11412348,0.10074748,0.16070804,-0.061601862,0.033465456,0.07289924,0.0100638475,0.012677566,-0.030480053,0.089216895,-0.20013618,-0.026691291,-0.22172646,-0.10566705,0.08718408,0.25991514,-0.18401794,0.30704486,-0.25720292,0.40827078,-0.22653773,-0.20680696,-0.20146814,0.28693035,-0.016026923,0.24304909,-0.06066893,0.1380298,-0.10918372]],"hidden_biases":[0.0,0.0,0.0,0.0,0.0,0.0,0.0,0.0,0.0,0.0],"output_weights":[[0.28099066,0.19868857,0.20873362,0.24084002,0.22845113,-0.55497223,0.17898917,0.67713994,0.18406004,-0.3193903]],"output_biases":[0.0]}
