{"hidden_weights":[[0.00070236187,-0.016990054,-0.19262801,-0.24530427,0.18530385,-0.059141114,-0.066247635,0.012052557,-0.009109787,0.11714105,-0.015467817,0.18958825,0.087797254,-0.24640737,0.03206368,0.079563566,-0.12797776,0.18291181,0.2859041,-0.21075742,-0.049307548,0.14816745,0.059140414,0.021391481,-0.30652,0.070217855,-0.24104361,0.035180375,-0.010822246,-0.041429177,0.082450256,-0.11215438,0.016795393,-0.11393795,0.097673245,-0.017677557,-0.17278562,0.15908442,0.00836921,-0.0101051945,0.18271261,0.36957258,-0.09662233,-0.23787345,0.23205517,0.17993355,0.0075907996,0.018917216,0.4020061,-0.07102608,-0.038654625,0.10753915,0.08012141,0.022765262,0.15517654,0.10997694,0.073676065,-0.009532018,-0.15427446,-0.121793345,-0.13322827,0.039961472,0.037503842,0.13056532,0.09227238,-0.046281938,0.12064446,-0.117952965,-0.0665431,-0.045215793,0.28313747,-0.29380187,-0.14858174,-0.06476113,-0.04683043,0.22858796,-0.19656256,0.24101508,0.031615503,0.11113684,-0.115596,-0.042981744,0.10245812,-0.2918179,-0.23994757],[0.004694024,-0.09947475,0.04929976,-0.25207108,-0.14605854,-0.3093453,0.09442149,-0.07551546,-0.15662086,-0.09164703,-0.18438347,0.03336271,-0.217072,0.021474544,0.0061128717,0.033995204,0.14630279,0.17430015,-0.07703786,0.121919595,-0.2501006,-0.23016825,-0.08167528,0.19720376,0.033070784,0.21764198,0.19250679,-0.08510524,0.10572319,-0.28302673,0.079664394,-0.03351068,-0.004857099,-0.007236135,-0.27080053,0.19871144,0.14386396,0.12523453,0.07676192,-0.13679376,-0.17327711,-0.06268086,0.004511439,0.059764825,-0.0024460799,-0.08360721,-0.11624499,-0.08428456,-0.15743244,0.07478029,0.12671643,-0.11538034,0.047746316,0.11875724,-0.004643219,-0.14375977,-0.061838668,0.16564435,0.13875145,0.063269235,-0.05165103,0.12625958,-0.059592217,-0.05958482,-0.20698227,-0.009878145,0.057655193,0.11894555,-0.138908,0.31960258,-0.10384512,-0.21215607,0.09258142,0.17219898,0.29551047,-0.027152069,-0.07415844,-0.22166346,0.45276144,-0.20995732,-0.26325676,-0.008183382,-0.090309866,0.23665448,0.053646315],[0.49178237,0.18357332,-0.113794185,-0.19989112,-0.12959927,-0.05839709,0.107210465,-0.18224253,-0.1819886,-0.10122094,0.19702873,-0.022145327,-0.032452065,-0.17898136,0.20967172,-0.02251669,-0.10556805,0.109199524,0.120329484,0.30499658,-0.031951204,0.08468913,-0.24662131,0.12152523,0.111561604,0.0803648,0.17219664,0.07133685,-0.15379687,-0.08037976,0.11447171,-0.26293913,-0.064426124,0.09163235,0.2302126,-0.118028216,-0.108865514,-0.13663119,0.043919865,0.11026694,0.18138106,-0.030783394,0.10500811,0.048035774,-0.11416894,0.023308415,0.04814061,-0.0136507265,-0.24979824,0.21650682,0.090283,0.035358634,-0.015609728,-0.028659713,-0.20585185,0.021033248,0.24359138,0.13200872,-0.31566396,0.2289226,0.22028968,-0.16944112,-0.13232954,-0.01933466,-0.025922023,-0.049446154,-0.05575808,-0.12250809,0.0021918248,-0.11175237,-0.075592086,0.071507156,0.055584967,0.069789134,-0.23153187,-0.12927172,0.33261725,0.10196418,0.097674675,0.12547913,-0.07699789,-0.014585747,0.10950425,0.06789594,0.14154968],[-0.16887565,0.0491984,0.2925571,0.054951724,0.2746622,0.020988833,-0.0055155996,-0.14602657,0.1804376,0.13983017,-0.117521994,0.1102643,0.054388262,-0.10920728,0.3196252,-0.07278878,-0.023663066,-0.029103471,-0.11279637,-0.06772618,0.21262917,0.0470608,-0.07894145,-0.21514848,-0.35019195,-0.036308482,-0.166897,0.090045564,-0.11932694,0.162105,-0.065289974,-0.0545942,0.20576794,-0.026739525,-0.015779998,-0.020034518,0.379075,0.08196912,0.21894525,-0.06158363,0.09843818,0.028237859,0.08626465,-0.0044205207,0.21262775,-0.1696831,0.07027493,0.03096615,-0.010952711,-0.13476701,-0.036264718,-0.068090774,0.12094697,-0.042256612,0.02195416,0.14893153,0.3061836,-0.17122936,0.20967917,-0.39630705,-0.16802573,-0.048571505,0.19993922,-0.03395917,-0.07212323,-0.087592155,-0.2288124,0.02416629,0.14097036,-0.2517101,-0.15309514,0.26546773,0.0367745,0.021759577,-0.14891115,0.21710613,0.16771851,-0.16000558,0.15516111,-0.0031037019,0.33262566,-0.093222685,-0.12204716,0.19054887,-0.15411575],[0.09107484,-0.10872672,0.15576278,-0.010149407,0.05447945,0.41215888,0.036942095,0.14480126,-0.03320879,-0.12584695,-0.13748063,0.31354374,0.06461671,0.06916815,0.351005,-0.04069674,-0.16271274,-0.05869129,0.02343386,-0.13495657,-0.055217106,-0.09659271,0.106925525,0.18436,0.038532864,-0.06808316,-0.0023794782,0.08191193,0.06312953,-0.050590433,-0.08250568,-0.003565654,-0.15045916,0.092516705,0.1041582,-0.02344126,-0.06449503,0.054851755,0.08981327,0.009246919,-0.23127435,0.11924911,-0.1803733,-0.2908775,-0.1853684,0.13865456,0.28040075,-0.029240416,0.08257109,0.09822655,0.046539146,-0.06693629,0.014091666,-0.10218663,-0.19989978,-0.027909784,0.023897735,-0.37356558,0.1327775,0.3297132,0.22725391,-0.10328739,0.2558908,-0.23825029,-0.038469676,-0.1765923,-0.041410193,-0.10885656,0.12575175,0.2635119,-0.24891299,-0.14508519,0.121632345,0.100044556,0.11200787,0.14361939,0.035838198,-0.32215363,0.09634256,0.017122567,-0.09037626,-0.009569833,0.23884273,0.1052572,-0.17822076],[0.13473459,0.06476449,0.09510887,-0.004030487,-0.10170975,0.2065307,-0.06817027,-0.09587451,0.09546681,0.17516266,0.12839341,0.05897876,0.10326465,0.15127216,-0.11482981,0.104295276,0.1539187,0.18476336,0.29635158,0.073552765,-0.13377433,-0.06571781,-0.09991204,-0.039799426,0.017113468,0.24423282,-0.059727762,0.15918303,-0.13742276,0.22458586,0.039577797,-0.091449894,0.1288705,0.023065979,-0.055814523,-0.1869359,0.1629263,0.16154027,0.07243053,-0.083015606,-0.09736753,0.051919498,0.16725302,0.064189866,-0.06964076,0.08360848,-0.29521102,-0.14365306,0.18712734,-0.10454731,-0.08518743,0.0037934522,-0.002560766,-0.1511175,0.06196207,0.25281373,-0.05148723,-0.2827253,-0.06812873,-0.3673305,-0.013631805,-0.103126906,0.14056483,-0.10098197,-0.18634373,-0.27103767,0.041428976,-0.31883782,0.02771043,-0.15563604,-0.09434719,-0.13263765,0.19802514,0.06824112,0.037672203,-0.23277394,0.26357985,-0.23280397,0.05272218,0.05176581,-0.28659588,-0.017121442,0.29139888,0.052912287,-0.07065762],[0.0519688,-0.27617776,0.075032,-0.14021657,0.01455593,0.11584331,-0.3215296,0.074993216,-0.2565714,0.0021123453,-0.038468443,-0.0050915144,-0.09167758,0.13367924,-0.2881725,-0.26647216,0.17793262,-0.16349344,-0.18658337,0.17391945,0.13954358,-0.120803535,0.011211924,-0.13978216,-0.06041162,0.0044467496,-0.12811036,0.18441164,0.19745646,0.06310472,-0.23226416,-0.114954785,0.010418667,-0.24185006,0.0647795,0.05289148,-0.15906785,-0.23008154,0.10625139,0.13337418,-0.081656896,-0.02121726,0.17628472,-0.19737491,-0.11126093,-0.22273223,0.22513321,-0.14794886,-0.18504472,-0.23869841,0.063447416,0.093597114,0.16887265,0.103064306,0.014292804,0.11791348,0.11586116,0.16072048,0.2648592,0.23144242,-0.14414194,0.020345043,-0.123643145,-0.04660664,0.27535573,0.22606766,-0.1849522,-0.18461639,0.24464902,-0.04630325,0.1774379,0.14797683,-0.16785064,-0.2703328,0.27502817,-0.048009973,-0.19379124,0.34593043,0.3961156,-0.03819774,-0.13642898,-0.02314659,-0.01273754,0.070360266,-0.08201862],[-0.098455355,0.3167008,-0.15172172,-0.045054045,-0.18855445,0.19779098,0.195602,-0.06375263,-0.25805685,-0.14992802,-0.086267754,0.0045659035,0.09304365,-0.04072054,-0.119344756,0.21808933,0.20378715,0.08530444,0.06550998,0.07362249,-0.09436384,-0.31058016,-0.15286085,0.12708375,0.068215795,-0.2697238,-0.036207817,0.23532791,-0.19128215,0.01741276,0.20094678,0.07316784,0.30913344,-0.020386647,-0.08201201,-0.008728756,0.19070433,-0.0083987955,-0.0332673,-0.23097141,0.13685611,-0.056229435,0.048817072,0.3308099,0.046375908,-0.04461162,0.24636246,0.042303406,-0.062895894,0.025672905,0.04966802,-0.059292268,0.068654284,-0.1554797,0.14996284,-0.067823276,0.054877028,0.10791916,0.09048401,-0.10092004,-0.19209215,-0.048183274,-0.3050687,-0.032533903,0.03647113,0.14039135,-0.36872664,0.06463695,-0.11735988,0.0064731045,0.18767819,-0.19521827,-0.1360986,0.040244393,-0.08940214,0.15318704,-0.19693665,-0.08906548,0.062958315,0.12723702,0.20873755,0.07395689,0.12714855,-0.046215028,-0.3329065],[-0.19154343,-0.12890182,-0.182165,-0.1555744,0.1512224,-0.0429361,0.11492216,-0.11704727,-0.031451598,0.14393625,-0.0822165,-0.053900413,-0.020817243,0.020558784,-0.08691485,-0.08333508,-0.3571447,-0.17181756,-0.086102426,0.14722455,-0.25281924,-0.20799737,-0.22527066,-0.24119228,0.056674827,-0.056653824,0.09719525,-0.21183395,-0.09629421,0.05301627,0.04419182,0.25067726,-0.018174259,0.16252218,-0.059913814,0.09687995,-0.19369343,0.07690283,0.20967285,-0.042137694,0.06885618,0.062081642,0.15437469,-0.024625698,0.31106535,-0.031991903,0.10772857,0.020223651,0.048634302,-0.015947174,0.06900749,0.051753834,0.16886571,0.05561527,0.21600866,-0.28254777,0.23811948,-0.009099835,-0.10288873,-0.26585838,0.09961767,-0.22167893,0.104885526,-0.0831188,-0.31583378,0.2644922,0.08193611,0.1327697,0.002245937,0.016063059,0.050538972,0.04594978,-0.006315253,0.017453423,-0.28554106,-0.111170076,0.036037292,0.49597552,0.1423248,0.20777199,-0.069336325,-0.18257229,0.09972133,-0.006444971,0.11831484],[0.27208102,-0.043531805,-0.039217062,-0.25355765,-0.1016659,0.05136861,0.36641636,0.11264616,-0.24036856,0.049669016,-0.27018255,-0.2754781,0.11164135,-0.024805656,0.11994054,0.19709216,0.08560119,-0.14747497,-0.05049917,0.2510084,0.053976484,-0.14415666,-0.12176124,0.04044678,0.09471328,-0.0072837835,-0.09577307,-0.2661735,-0.061848793,-0.12723348,-0.015027754,0.2806342,-0.05416695,0.09931187,0.16124217,0.08191936,0.14311494,0.016524887,0.21087745,-0.0038657496,-0.09108259,-0.10344778,-0.31722176,0.024929166,-0.06737787,0.18219905,-0.22761248,0.007156893,0.24877739,0.14989786,0.020022934,0.06917602,-0.12823023,0.02427722,-0.18861783,0.18678322,-0.020225449,0.20304869,-0.06490438,-0.23376407,0.23941194,0.058726,-0.05400796,0.0727175,0.20454052,-0.26730257,0.28767547,0.27306014,-0.09749417,0.058545873,-0.0062342053,-0.0652244,0.1696607,0.06774607,0.037573952,0.0041478276,0.10992776,0.11742962,0.09547578,-0.05809568,-0.20179756,0.25003758,0.17307924,-0.050669465,0.06307623]],"hidden_biases":[0.0,0.0,0.0,0.0,0.0,0.0,0.0,0.0,0.0,0.0],"output_weights":[[0.0462991,-0.31234604,0.24767435,-0.38991907,-0.5975211,0.20569772,0.31835812,-0.5514856,0.6376836,-0.25007525]],"output_biases":[0.0]}