{"hidden_weights":[[0.1164161,-0.04381342,0.29650745,-0.32167104,0.00039402887,0.22965416,0.14883432,0.068167955,-0.13575378,0.23335998,0.029239938,-0.06515959,-0.37109327,0.15411782,-0.16649702,-0.18026383,0.082736254,0.082659386,0.058188394,-0.0031126293,0.206245,0.13215868,-0.25931785,0.24587348,-0.32373735,0.03784676,0.10106209,0.05656208,0.037968513,-0.13957198,0.25050458,0.22523937,0.047961924,0.087919444,0.2591431,-0.18216169,0.025443828,0.16028579,0.03669122,-0.19755459,0.36694202,0.26400453,-0.061641198,-0.05639578,-0.07855785,0.33199078,0.053761404,0.03616539,-0.2753069,0.13685596,0.030957121,0.095204234,-0.05218973,-0.053048432,-0.26744303,0.19681582,-0.2790574,0.17649032,-0.0060781226,-0.15660502,-0.16992857,-0.33485004,0.02571361,0.12797879,-0.03398373,0.37045413,0.022787971,0.15270004,0.10413375],[-0.00927894,-0.53787947,-0.31747198,-0.09945285,-0.000027127862,-0.047702197,0.09507613,0.21083197,0.20518121,-0.09489044,0.26310402,-0.0673979,0.038434286,0.03645256,0.27206984,0.1221265,-0.034291428,0.1141118,-0.17713748,0.098979734,-0.5806564,0.0739873,-0.25021446,0.30134794,-0.04051899,-0.24674696,-0.22578315,0.03412414,-0.06819224,0.047618695,0.09710021,-0.15451308,-0.1499504,0.12716414,0.07408379,0.11470672,0.29666352,-0.55794793,-0.13257162,0.18556821,-0.13854632,0.11609558,-0.010643682,0.13997832,0.01659175,0.030655408,-0.030465692,0.22509262,-0.018964447,0.27706927,0.06464634,-0.24685994,-0.029989947,0.118911564,0.13084617,0.2708322,-0.24090794,0.13225628,-0.054230668,-0.030807702,0.3071697,-0.12327828,-0.2382109,-0.2611748,0.09063823,0.020812713,0.13159755,0.14643013,0.049555037],[0.035559207,-0.07202907,-0.06438316,-0.08488923,-0.008788065,-0.25701118,0.0809419,0.005357871,-0.08748283,-0.01600411,0.12405344,0.050004356,0.100247964,0.06651407,0.42968413,-0.1155465,0.064386584,0.36980677,0.16723049,-0.112949476,0.14591748,-0.23397975,-0.2020439,0.20355433,-0.1361535,-0.103263505,-0.052788146,-0.0037108785,-0.34527722,0.2108366,-0.016696488,-0.17328447,-0.058720466,0.043707658,0.10452326,-0.13173518,0.17443387,-0.41758078,-0.12179451,0.06065649,0.16433145,0.03551471,0.3629534,0.019201208,-0.03913866,-0.29028186,-0.09676498,-0.056210738,0.1793182,-0.24360044,0.07718369,-0.09018195,-0.17565267,0.030036809,0.13378662,0.13563159,-0.16246448,0.12385905,0.22597608,-0.06548956,-0.15296575,0.31712264,-0.114653766,0.112032406,0.023203086,0.011220525,-0.2288407,0.36153254,-0.13733602],[0.147291,0.038700335,0.2672704,-0.026162412,0.18908025,0.026045859,-0.06377445,0.15139036,-0.04508228,0.23264062,-0.15646213,-0.07244384,0.21698745,-0.31651133,0.22260745,0.10471019,0.25183272,0.18576193,-0.10015051,0.0050824056,0.036403567,-0.0032659464,-0.019227592,0.06821033,0.11759757,-0.013586216,0.06559251,-0.13077259,-0.3152063,-0.22478615,0.13048421,-0.16581118,0.0058153453,-0.13519728,0.27959347,-0.043512218,0.01950017,-0.0112310825,0.14888172,0.05307186,0.0041167736,0.22968778,0.05176268,-0.055321347,0.13472326,-0.031213121,-0.112361245,0.14166361,0.19804497,0.21266496,0.13757029,-0.018301291,0.05427726,0.07157898,0.09765759,-0.35595003,0.046795055,-0.067980185,-0.33161062,-0.04722339,-0.14645022,0.091743246,-0.0062891417,-0.15849015,-0.025450487,-0.026606997,0.12955756,-0.12864065,0.1344841],[-0.07083649,-0.0037995821,0.20615001,-0.16140404,-0.083633594,0.035154752,0.18809113,-0.092195176,-0.019110613,0.0744792,-0.17578164,0.1883433,0.025341978,-0.08440832,0.30886805,0.09898842,0.031592946,-0.030004025,0.16754311,0.20411746,-0.16240427,-0.1925888,0.19264664,-0.161812,-0.25966546,0.004467639,-0.014581869,0.2677206,-0.2602347,-0.2231502,-0.1520699,-0.22151199,-0.1945418,-0.04262649,-0.05716148,0.0130173955,-0.16944481,-0.09313759,0.10590488,0.015401149,-0.20600943,0.07768338,-0.14825907,0.06335577,0.14657518,-0.09226614,0.39863756,0.16887052,-0.083644494,0.07297972,-0.06990126,0.31587893,0.021689065,0.21803594,-0.040892594,-0.01598808,0.40354857,-0.17346825,0.27950966,-0.3074387,0.05349017,-0.12150864,0.10807665,-0.17486276,-0.33504713,-0.055500392,0.3002656,-0.005267568,-0.2621137],[0.053792078,-0.0066637113,0.42728436,-0.36391243,-0.04024435,0.25946155,-0.1584164,-0.08057344,0.043843977,0.2613861,0.07073622,0.08329726,0.0054770196,-0.15784915,0.24464451,0.061774988,-0.6390682,-0.12119311,-0.05947175,-0.32809994,-0.19706376,0.029330764,0.003330166,-0.28934932,-0.068503745,-0.12919629,0.27394313,0.2626214,-0.09367375,0.019867584,0.06777478,0.10701239,0.11921706,0.057555635,-0.24170275,-0.19256404,-0.18538743,-0.2874728,-0.25419462,0.25944,-0.29248187,-0.11649203,0.3697241,0.26977465,0.011404896,0.076980166,0.021439787,-0.40460068,-0.066208936,0.02645398,0.054510664,0.0124959545,-0.052293483,-0.03552775,0.12736839,0.0058622607,-0.22542396,-0.24063247,-0.21944055,-0.14070982,-0.2658229,0.0038628925,-0.25732586,-0.006015949,0.5653742,-0.12439902,0.07664379,-0.09599208,0.0717035],[0.14299574,0.04407667,-0.03137092,0.056119915,-0.23491596,0.07239205,0.024366226,0.23867258,-0.14886266,0.07303674,0.17186548,0.22827838,0.02376552,0.26406,-0.06545065,0.07850681,-0.100570105,0.004480163,-0.1620037,-0.020465994,0.22536142,0.1716011,-0.072063304,-0.14706677,-0.012086244,0.082045905,0.1455658,-0.04171311,0.115928166,-0.39382777,-0.03985462,-0.061234534,-0.13345844,-0.03551078,0.032198854,0.23767664,0.049902637,0.21273386,0.15400967,-0.047601875,-0.018118186,0.28166363,0.17120844,-0.07739752,0.118192025,-0.05320548,-0.1378011,-0.076003894,0.010376792,-0.039908074,-0.086049,-0.23789303,-0.35382116,0.20920108,0.26213974,0.07810285,-0.18792845,0.118916355,-0.04017846,0.26380622,-0.13828616,-0.23895177,-0.1277597,-0.0062959665,0.25312236,0.2954778,-0.0575715,0.119094655,-0.1821589],[0.08583247,-0.42702615,0.20208618,0.11259509,-0.23838867,-0.15589455,0.25212362,0.004114261,-0.019937519,-0.12393433,-0.02389911,0.15247765,-0.1027188,-0.10951105,0.023705699,-0.19249596,0.038312778,0.22288348,-0.0009113095,0.17451234,-0.33424652,-0.2487925,0.16275522,0.0516299,-0.009956475,-0.23181425,0.016902167,0.3043566,-0.0010026152,0.099513546,-0.105729505,0.16404441,0.16312627,0.026358305,0.12029373,0.20716189,-0.16933131,0.18619427,0.0714737,0.06068034,0.23779678,-0.03902051,-0.083414756,-0.39687777,-0.064366825,0.12937792,0.1300586,0.01223695,-0.2606218,0.007816645,0.24436061,-0.37089616,-0.1971462,-0.013030398,0.09307957,-0.1035318,-0.05570705,0.13723016,-0.104603484,-0.0092583345,-0.35221234,0.3383456,-0.18135057,0.17605297,0.24166858,0.28405073,0.15386368,-0.21844839,-0.014328539],[0.08799764,-0.14865747,-0.069494486,0.06543345,0.033865295,-0.05814732,-0.18091254,0.29773206,0.06890139,0.11066019,0.12143304,0.05656215,-0.053079814,-0.023151394,0.10583445,-0.14242692,-0.07781835,-0.055517863,-0.048367284,0.19110622,-0.21041945,0.26049456,0.30709648,0.10356824,-0.23610125,0.1473248,0.06359108,-0.05208085,-0.07746987,0.08220699,-0.00445258,0.2266414,0.016636588,0.042432796,0.09919522,0.14931005,0.13918938,0.045615174,0.26731503,-0.29754698,-0.29022315,0.051483408,0.05561042,0.28988764,0.035551015,0.2353747,-0.022876797,0.29198796,0.18346861,0.20521064,-0.19644563,0.089949116,0.10830117,-0.13401426,0.100895844,0.010430275,0.17090842,0.26501065,-0.21908978,-0.07248242,-0.050291795,0.26851714,-0.06473613,0.036522105,-0.16541797,-0.047079097,0.1869878,-0.047483396,0.14072192],[0.15079536,-0.29631028,0.14279534,0.33478644,-0.19788113,0.04383303,-0.06765684,-0.09359201,0.19150785,-0.22687466,0.27389073,-0.37981895,-0.038517185,-0.12902325,-0.15276067,0.15197203,-0.0062404154,-0.547407,0.25100532,0.118926354,0.20650163,-0.30554724,-0.062881656,0.15579218,0.33582148,0.1428507,0.048708666,-0.11672842,0.20085827,-0.04928117,-0.23846763,-0.13591167,-0.0033177563,0.04184767,-0.055037476,-0.014676524,-0.06780751,0.100442685,-0.15767919,0.28613803,-0.09531939,0.07640827,-0.102213055,0.14753869,0.21120037,0.08931569,-0.14162552,-0.27329648,-0.118475385,-0.3365368,0.12733522,0.06437366,0.11118965,0.01014231,0.06957121,-0.0532032,-0.027023168,-0.0708221,-0.085466996,0.09355417,-0.06624171,-0.1778617,-0.026654081,-0.2865294,-0.014624323,-0.2770723,0.13125172,0.00039262016,0.054206885]],"hidden_biases":[0.0,0.0,0.0,0.0,0.0,0.0,0.0,0.0,0.0,0.0],"output_weights":[[-0.52225256,-0.64043415,-0.53954697,-0.45273888,0.66376,-0.53430164,0.69317025,-0.39773014,0.10453832,-0.65535533]],"output_biases":[0.0]}