{"hidden_weights":[[-0.03319633,-0.035494808,0.12124198,-0.07544507,0.042805802,0.029155003,0.37838674,-0.39994752,-0.28815314,-0.038413253,-0.05994926,-0.2762062,-0.024238974,0.36909568,-0.58452773,0.11319172,-0.06747254,0.14229958,-0.03801803,-0.21591769,0.26644847,-0.106697515,-0.13297035,0.19240616,-0.10242387,0.08953887,-0.037582655,-0.030169703,-0.18601677,0.16656555,0.13421167,-0.56660587,-0.106808186,0.053280238,-0.139243,0.0898376,-0.11846191],[-0.16189386,-0.0761156,-0.06305547,-0.23681597,0.33383277,-0.27263072,-0.23416938,0.20417024,-0.33710462,-0.40487188,-0.065119125,0.03519351,-0.16853267,0.25867456,0.09428742,-0.09907276,0.19518201,0.12137243,0.23297124,-0.35145754,-0.01998147,0.2806133,-0.01788131,-0.4801674,0.2747806,0.16167523,-0.1639073,-0.254318,-0.08576212,-0.11949785,-0.095870994,-0.17242275,-0.60114825,0.07219444,-0.11659583,-0.25240892,-0.10792339],[0.31321433,0.3212008,-0.3908472,-0.19547519,-0.17265378,-0.219379,0.081879824,-0.22728604,0.122276835,-0.18784605,0.00942218,0.33130458,-0.037683878,-0.1259178,-0.17621471,0.09869012,-0.09523329,0.20119195,0.07223834,0.14291468,-0.05168406,-0.3324379,-0.15753622,-0.37399304,-0.25249398,0.3311857,0.38229963,0.022254938,-0.20817797,-0.2791706,0.07427244,0.1882128,0.2766968,-0.046528134,-0.07319649,0.37080926,0.049171466],[0.24916182,0.24857754,0.14443026,-0.37915707,0.058029376,-0.28889292,0.25466132,-0.18217678,-0.20130114,-0.18024589,0.21166264,-0.31146777,0.021933923,0.10532021,0.48719174,-0.09398743,0.07549388,-0.057075977,-0.023794113,0.23279239,0.065549396,-0.14912263,0.1302701,0.108515844,0.13026959,-0.16465952,0.16009073,0.15797195,0.0046933065,0.104781635,-0.085396945,0.13314953,0.20643508,-0.23264585,0.038394067,0.5238709,0.153003],[-0.30065188,0.12885046,0.14156348,-0.3657653,0.25875035,0.017190829,0.26271704,-0.048545934,0.05518833,0.20753588,-0.16772842,-0.20383032,0.3134945,-0.10496015,-0.14204481,0.30646783,-0.09453155,0.62413716,0.22093001,0.42242625,-0.21666369,0.030446578,0.053281173,-0.06495398,0.0430897,0.08510066,0.08298839,0.35433656,-0.09745911,0.31730747,-0.018793594,-0.12473361,-0.0012900273,0.03484646,0.043767426,0.09456543,-0.24435137],[-0.013165865,0.6114931,-0.16420254,0.3061219,-0.32484984,-0.15436977,-0.17770845,-0.123448245,0.30420062,0.13984258,0.22115138,0.17384118,0.20654844,-0.402719,0.15930124,0.65648144,0.13178529,-0.19242476,-0.12492668,0.28129616,-0.01806969,0.13336371,-0.07641246,0.1914716,-0.28411996,0.06683332,-0.026952162,0.8599931,-0.058032587,-0.007974726,0.46031386,0.0062434506,-0.09089052,0.12287455,-0.04335585,-0.34699574,-0.05800298],[0.004700233,-0.17888257,0.25827235,-0.24449398,0.17237413,0.07775691,-0.16548957,0.23514375,-0.040586427,0.49071306,0.027547374,-0.12797067,-0.10312116,-0.05735874,0.47062105,-0.00043287722,0.028776923,-0.33665097,-0.08192436,-0.1885985,0.28619948,-0.16738936,-0.055013955,0.21213223,-0.08059214,-0.22994696,0.036384404,0.36208615,0.32012162,-0.30135494,0.25447232,-0.2721677,-0.22461836,0.2583639,0.21153094,-0.1035346,-0.0914011],[0.16738555,0.18487759,0.31702942,-0.117208466,-0.082605235,-0.023774983,0.20543806,-0.162953,0.5419699,0.38728765,0.3481075,-0.28418934,-0.35063165,-0.14967424,-0.32110083,0.38083798,-0.035825115,-0.1934333,0.35371882,-0.3205178,-0.22149892,-0.0020948069,0.1353412,0.08420684,-0.25075665,-0.08312421,0.26253977,0.14964518,-0.15659782,-0.4676388,-0.5515857,0.22410928,0.14123651,0.2812072,-0.09145136,-0.28653264,-0.04924006],[-0.014261693,0.37237367,0.123987705,-0.046209913,-0.057245363,0.1788233,0.033334706,-0.25084856,-0.2543103,-0.059789278,-0.35040867,-0.1516033,-0.18967788,-0.25220776,0.15541242,0.27951723,-0.32793912,-0.21054326,-0.27806535,0.08443481,0.17396751,0.24386097,-0.1953113,0.27989203,0.02775851,0.3178167,0.13490044,-0.23719776,0.2454271,-0.46976796,-0.19114292,0.20053074,0.008872181,0.17241871,0.023348296,0.28150436,0.016301451],[0.13750204,-0.14929678,0.16111955,0.28322202,-0.04413446,-0.22250435,-0.29306328,-0.31480166,-0.12770663,0.27371335,-0.024218816,-0.4219327,0.18851314,0.487867,-0.26713002,-0.47621727,0.12346456,-0.20113052,0.04836731,-0.04075604,0.039308812,0.21900734,0.1997169,0.29841006,0.0813226,0.003433692,0.10780012,-0.10456644,0.055538986,-0.01060193,0.4836225,-0.06741411,-0.072611555,-0.33986148,0.19180019,0.15091361,0.14382695]],"hidden_biases":[0.0,0.0,0.0,0.0,0.0,0.0,0.0,0.0,0.0,0.0],"output_weights":[[0.013783634,-0.14323926,0.69366115,-0.0085904,-0.13073039,-0.5829141,-0.3739039,-0.1143828,0.21762866,-0.21656758]],"output_biases":[0.0]}