{"hidden_weights":[[-0.44748282,0.12750284,-0.28686285,-0.43295178,-0.45411482,0.006601076,-0.06334423,0.09268121,-0.13664626,-0.15347068,-0.24316035,0.08822368,0.16137712,0.15519546,-0.022717372,0.16139397,-0.01669353,0.20889376,0.09302148,0.32077658,0.084731475,-0.076526724,-0.11975881,-0.1441715,-0.28415665,-0.35937464,0.14157975,-0.046706583,-0.25286824,-0.24454828,-0.12084407,-0.09730348,0.22278896,0.22855298,-0.23666681,-0.6526474,0.15507105,0.30908412,0.29983857,0.010211573,0.0072381566,-0.13405107,0.18170951,0.094778575,0.170751,-0.039035145,0.007749971,-0.16391984,-0.017128335,0.12796845,0.11289599,0.04088321,0.1352844,0.03568819,-0.03364764,0.087333605,0.20822315,0.2274918,0.2447069,0.14865959,0.15388437,0.08444048,0.20512876,0.31209692,0.057695214,0.17029318,0.11164214,0.03742799,-0.13510405],[-0.08683221,0.5326132,-0.2645537,-0.3758161,-0.10875559,0.18155175,0.053641375,0.16928707,-0.10840027,-0.24501285,0.0015084333,0.18745519,0.13043106,0.05007467,0.08780322,-0.30276412,-0.085406944,-0.014500706,-0.036938097,-0.3352484,0.1435392,0.0440558,-0.14383525,-0.15209672,-0.0119793145,-0.3188534,-0.23498827,0.31728467,-0.08955611,-0.4293994,0.255064,0.11755251,-0.071340054,-0.08585384,0.15961935,-0.58768666,0.20212413,0.21380678,0.583981,-0.11134654,0.036653373,0.03537269,0.17440772,0.13395844,0.023970574,-0.27106556,-0.22838277,-0.16608761,0.026762547,-0.13485953,0.14893107,0.067344755,0.056610018,0.100440495,0.035727475,0.17769994,-0.07478159,0.0047665816,0.030927278,0.36619756,0.104576014,0.08091832,0.2356576,0.5507414,0.1993154,0.13663203,-0.0160778,-0.018605622,0.10966416],[0.029082779,0.39264646,-0.0428132,-0.19369727,-0.0075950497,0.10477992,-0.23025906,-0.2579633,-0.036482926,-0.00068633276,0.03181725,0.05643244,-0.006783901,0.03533827,-0.059609096,-0.021662345,-0.0045409803,-0.012412516,0.027723407,0.041527636,0.3244245,0.36434802,0.25885054,0.10690768,-0.095945224,-0.15333538,-0.009882439,0.0491101,-0.47652277,-0.22747386,-0.3439005,-0.11831819,-0.35594034,-0.018911604,-0.082828656,-0.113436766,0.15402922,0.17108712,0.3851626,0.027827483,-0.03251706,0.044993374,0.08702187,0.14901517,0.2012005,-0.109298155,-0.012513088,-0.15517561,-0.10828449,-0.08719483,-0.10175095,-0.10250063,-0.114239074,-0.08088728,-0.047758207,-0.025424907,-0.012436275,-0.016253946,0.004289909,-0.030792708,-0.07027356,0.068030745,0.42845795,0.37942407,-0.048927676,-0.017872907,0.0438071,-0.3767601,-0.017740387],[0.10578735,-0.36682063,0.19436686,0.15270242,0.20335703,-0.12909009,-0.05593303,-0.06961046,0.010969687,0.03539739,0.116749376,-0.11059025,-0.0056644166,-0.050660595,0.023526948,0.05706334,0.05733362,0.043883298,0.044519894,0.021399757,-0.20734851,-0.06634772,-0.030329447,-0.012142082,0.029303048,0.094694175,-0.014289332,-0.041525617,0.17418513,-0.014984496,-0.010006233,0.008196181,0.0069761933,-0.012686723,0.035130434,-0.375632,-0.0630836,-0.19167195,-0.17811093,0.12137888,0.014545016,0.029159976,-0.039664887,-0.055936787,-0.09307722,0.07085192,0.015489486,0.054878127,0.11262513,0.051516384,0.03115949,-0.029771296,-0.042438455,-0.024101574,0.21321401,0.10632295,0.05209121,-0.093226425,-0.1080192,-0.12320901,-0.22933961,0.006893007,0.80680746,0.6008169,-0.05054894,-0.0403961,-0.026554989,0.014346416,-0.010814749],[0.00048664457,-0.00012591605,0.00025034905,-0.00008627952,0.00034890985,0.0002133721,-0.00041748837,0.00019896353,-5.494055e-7,0.000034940418,-0.000025432071,-0.00003697415,0.000110415014,-0.000061906176,0.000556581,0.000746697,0.00012562642,-0.00001367198,-0.0007444626,0.00025352483,0.0002279327,0.00029593467,0.00008907218,0.00042053688,0.000052416843,-0.0010217471,0.00047058787,0.0008915152,0.000046838286,-0.000030215739,-0.0003607085,0.0000912683,0.0003298381,0.00029926043,-0.00032142294,-0.00003826302,-0.00007236312,0.00023390273,-0.0002888136,-0.000028314562,0.00032665237,0.00015985286,0.000055149736,0.000013012799,-0.0000052635187,0.000043396496,-0.00007928271,0.00009487498,-0.00024269623,-0.00034774712,0.0001615276,-0.00017408407,0.0010349032,-0.0002932043,-0.00017633112,-0.0003400577,-0.00017338809,-0.00042620726,-0.00021137364,0.0010460365,0.0004037233,0.00095428695,-0.00029937204,-0.00006645169,0.0012283676,0.00016888321,-0.0001273377,-0.0003800803,0.00014533834],[0.34938192,-0.30557677,0.09246605,0.37868476,0.591049,-0.16735384,-0.16824526,0.14971285,0.09544208,0.14199992,0.4222848,-0.18454532,-0.1215745,-0.2944727,0.05677508,-0.103779234,0.017414173,0.16686724,0.4540366,0.1348852,0.11110158,0.20478953,0.2130558,0.3262026,0.35127848,0.23810887,-0.15555885,0.34152147,0.21835676,0.1687883,0.380405,0.11744125,0.14811791,-0.06308384,0.2522117,0.16824506,-0.29889542,-0.29298759,-0.13834417,0.35119325,0.019904094,-0.015174781,-0.16137585,-0.118773095,-0.22134803,0.20720041,0.17071307,0.047131963,0.062371157,-0.24843378,0.012396908,-0.19188352,-0.18399002,0.070232734,0.12780538,-0.06583853,0.015366204,-0.2003071,-0.31049562,-0.17549534,-0.05427988,0.11943269,-0.13664453,-0.14174491,-0.15174596,-0.021450074,0.022400644,-0.03548583,-0.24281752],[-0.1705582,0.0954406,0.12601225,0.027102858,0.16726111,0.06269583,-0.052288566,-0.0030785315,0.051907994,0.045095295,0.073072106,-0.040582214,-0.038577627,-0.13450623,0.03050135,-0.008066082,-0.02039686,-0.03740131,-0.035566483,0.011753828,0.06666178,0.075126745,0.08587203,-0.033365604,0.009420694,-0.04968057,-0.06846544,0.071017765,0.7525586,0.5955264,-0.054803267,-0.010461546,0.055371847,-0.053775817,-0.3230955,0.08313564,-0.015498492,-0.18320788,0.16318907,0.052483134,-0.022655724,-0.3351115,-0.114938125,-0.048852373,0.13155542,-0.06897549,-0.015457675,0.045782935,-0.15423775,-0.105821684,-0.08731735,-0.050975583,-0.034727953,-0.06378302,0.3205116,0.13105483,-0.010766038,-0.22895278,-0.41635743,-0.47242868,-0.00573007,0.049049377,-0.30513442,-0.032621894,-0.110757574,-0.017387753,-0.378566,0.045520063,-0.29783788],[-0.059648715,-0.25375837,0.15193439,-0.13927187,-0.13607192,0.19447458,0.06563836,-0.028255217,0.04459819,-0.032032356,-0.05651406,0.084231876,0.006723019,0.09861378,0.22142455,0.124579534,0.0918644,-0.002515293,0.0071832077,0.047584176,0.2782679,0.15055025,0.1482448,-0.10179989,-0.16464484,-0.12489113,-0.10169207,-0.0032937534,0.27643737,0.16531366,-0.048089657,0.01786165,-0.051913515,0.08069372,-0.042948086,-0.08941524,0.21061938,0.091912866,0.21374542,-0.07616065,0.16988277,0.04007119,-0.015433281,0.029783433,0.12091859,-0.06211023,0.09982058,0.042283997,-0.034738787,0.019050125,0.0037278421,0.1196196,0.09540562,-0.005495854,-0.22953115,-0.14558366,-0.13954194,-0.07352517,0.04122195,0.2143256,0.037265975,-0.10208594,0.094754234,0.037498266,-0.01363386,0.08189634,0.007821027,-0.010217847,0.122376256],[-0.06039248,-0.22530013,-0.22153223,-0.14941952,-0.1853573,-0.098848544,-0.014041846,-0.03907965,-0.041047312,-0.055425834,-0.08981966,-0.12224266,-0.04825423,-0.05392358,0.05743694,0.04799883,0.060978685,0.083453655,0.076005444,0.11104441,0.07096897,0.03370051,0.087999314,0.0008337875,-0.0014223842,0.030376405,0.09962749,-0.06761902,-0.9017149,-0.23449756,-0.0020533218,0.08226774,0.009566292,0.35110134,0.025294458,0.4259944,0.010274325,0.122541204,0.14126939,0.040061213,0.21121563,-0.031215202,0.048249125,-0.04377507,0.12646928,0.026127068,0.08095932,0.100001775,-0.064709336,-0.054519776,-0.04943375,-0.034866106,-0.04389026,-0.020254912,0.046557177,0.013376454,-0.03882485,-0.11462686,-0.15951739,-0.19751269,-0.042577792,0.05102294,0.30281517,-0.013614462,0.30424562,0.09740164,0.02068328,0.053525217,-0.06972853],[0.29179016,-0.67577106,0.27907598,0.25077087,0.45061675,-0.19618593,0.021696897,-0.09323808,0.15665336,0.06899122,0.12969783,-0.33622938,-0.17079419,-0.10782298,0.03312207,0.063418575,0.07114596,0.2904556,-0.07681418,-0.014905343,-0.05256519,0.24675268,-0.035938065,0.25857186,0.31970632,0.1534507,-0.08101489,0.063721284,0.24523032,0.011144747,0.059637178,0.03546919,0.051330253,-0.18206276,0.033538304,0.634665,-0.20955943,-0.5400774,-0.42929327,0.16405001,-0.085911736,0.21078868,-0.018906277,-0.18933739,-0.39474997,0.23507681,0.059163388,0.14023396,-0.08854329,0.038470425,0.052545585,-0.028965024,0.023606744,-0.14164293,-0.091199644,-0.0050303447,-0.22954409,-0.20421436,-0.12843081,-0.09625909,0.36462647,0.0088160625,0.1486878,-0.22436185,-0.05101061,0.02857334,0.0035770764,0.058516685,0.16367464]],"hidden_biases":[-0.16265629,-0.09214902,0.024482897,-0.26595607,-0.07090874,0.07731797,0.01622401,-0.07642279,0.05102524,0.019994432],"output_weights":[[-0.45789224,-0.54552263,-0.36130008,-1.3775083,0.0009051458,0.45515332,0.38556525,0.3529856,0.43246686,0.49022454]],"output_biases":[-0.03926412]}