{"hidden_weights":[[-0.0058073835,0.07478007,-0.5686291,0.12692897,-5.0793e-41,0.16409534,0.17983009,-0.007740823,0.14447139,-0.002746458,-0.000035245503,0.36408195,0.104909904,7.1441e-41,0.0478451,0.1492809,0.16824646,-0.00095916254,0.002789663,-2.4466757e-22,-0.0895689,-0.17332947,-0.21803609,-0.0076430077,0.08026757,0.33111605,-0.08013301,-0.039192583,-0.089906275,0.05764081,-0.29321593,-0.02980376,9.435699e-31,0.15184471,0.16923799,0.012359153,0.17504577,-0.2615602,0.004391126,0.17232111,-0.023781303,-0.11866297,-1.2039e-41,0.00003602072,7.758165e-15,0.18042399,-0.1164467,0.4007021,-2.7355e-41,-0.249089,-0.25466204],[0.59670496,0.17638224,-0.15458961,0.21564129,-0.07998306,0.117496714,0.11817695,6.2397e-41,-0.027900217,0.25710657,-8.824149e-12,0.006401852,-0.19917367,1.042285e-24,-0.16996683,-0.072754234,0.5264882,3.3862075e-12,3.0679586e-26,-1.3892e-41,0.04467439,0.20867056,0.06785984,-2.7774e-41,0.13221708,0.16102315,0.2265697,0.08654456,-0.4237261,0.00020276866,-0.059016634,0.2940633,3.8463e-41,-0.036936082,-0.033734903,-1.107e-41,0.074569546,0.12861611,-0.00044486375,-0.16525966,0.049637847,-0.087227926,0.0012490368,4.5466595e-12,-4.5377e-41,-0.004600656,0.098225065,-0.2706937,-0.0022042666,-0.023761952,0.23967245],[-0.25692475,0.12139439,-0.42812362,-0.0068978784,5.3347103e-21,-0.18439326,-0.21253231,-0.008664464,-0.124172255,0.03457993,-0.0024211495,-0.1222584,0.10740942,4.0589643e-10,-0.14983688,-0.46735668,-0.12809384,-0.00093657215,2.5100906e-8,-0.060474418,0.23602061,-0.32739118,0.0076257084,-6.3729355e-19,-0.005861051,-0.15749876,-0.24794832,0.13401997,0.11872009,8.1435747e-10,-0.17871241,-0.07728144,-2.9846336e-12,-0.19599642,0.05881853,1.9540047e-7,-0.066876784,-0.14543097,-0.0000029242628,-0.028881148,-0.12331537,-0.11670563,-2.0589e-41,0.000042819152,-4.9763e-41,-0.5464257,-0.017857736,0.13717061,0.00012944071,0.22932558,0.23511012],[-0.20577589,0.070930585,-0.34324306,0.024020195,1.3536277e-15,0.1144305,-0.061338652,-0.025872521,-0.2081363,-0.12404955,5.2407065e-11,-0.113778755,0.23689248,0.000006743015,-0.34618282,-0.1419069,-0.22578064,-0.0000034186285,-6.417391e-30,3.27315e-7,-0.0753819,0.42664632,-0.28894728,0.00045272862,-0.09742191,-0.2042774,-0.010413845,0.04244146,-0.004771043,-0.000048221682,0.081628345,-0.068422884,7.0267e-41,-0.04916285,0.24198419,-9.497e-42,0.53343,-0.054335203,-0.00042037838,0.5655728,-0.2351812,-0.04460474,-8.446385e-13,-0.012345596,-3.697224e-8,0.09845808,0.76933765,0.24082379,0.0000019882168,-0.22862929,-0.5319152],[-0.0972381,-0.13194253,0.099861674,0.2762647,5.3685766e-15,-0.026828267,-0.04833219,7.5667225e-7,-0.12856098,-0.09098352,4.1094682e-16,0.010506695,0.1121998,0.013848282,-0.19240391,-0.4436709,-0.015880365,-2.5985489e-14,8.258e-42,2.6004e-41,-0.07085404,0.14946482,-0.17662865,-0.07186077,-0.13760869,-0.26544195,0.025032265,-0.08116294,0.13587818,-6.761e-41,0.30854186,-0.18187965,1.6884123e-37,0.029350793,0.079919435,0.026608136,-0.06372967,-0.03203457,3.8851122e-13,-0.09250395,-0.050880305,0.098168135,1.3975623e-16,4.7234724e-22,-7.8045495e-8,0.059776887,-0.28143775,-0.07642046,-4.4483e-41,0.09530887,-0.36523002],[-0.40748122,0.056436837,-0.04086148,-0.47569293,-1.399929e-21,0.06230092,0.007396231,2.3381165e-7,-0.08414394,0.16289295,-2.2686166e-9,0.08056268,-0.111777045,-7.565126e-19,-0.14008929,-0.5169913,0.0940807,5.829152e-8,-0.04554262,-2.3133286e-8,0.13132295,0.2385836,-0.07747427,6.1831e-41,-0.19669694,0.13440831,-0.11798174,0.1305212,0.22701009,7e-41,-0.022542747,0.17730436,-0.00002446234,-0.07149713,0.4476817,0.005385666,-0.0659684,0.11933117,0.0025700603,0.22448671,0.507747,0.27233383,0.0023645463,0.0000012367478,-0.00095285405,-0.22114204,-0.09440629,-0.21212074,-1.8614781e-22,0.18386409,0.21800877],[-0.21701838,-0.016415901,-0.260299,0.009158734,0.000019239207,-0.15085445,0.27688563,2.691951e-7,0.0070952545,-0.14241652,0.058035437,0.17934355,-0.13991748,1.4591728e-13,-0.1283306,0.34960592,-0.29956976,2.835506e-8,-6.688e-41,5.2114826e-11,-0.28169242,0.10484461,0.054347437,2.5784e-41,0.030074948,-0.1347272,-0.102548644,0.33646718,0.2527756,4.8342e-41,-0.19351302,0.01851615,-0.00072772574,0.21993044,-0.18463846,3.8715e-41,-0.15247083,0.074807264,-0.03119451,-0.20481682,0.092750475,-0.022317812,1.4941154e-19,0.00016600505,-0.000033031884,0.26888603,0.10594072,0.040246032,-0.00022440594,0.35586372,0.34688285],[-0.2269344,-0.063175574,-0.10619102,-0.34795615,5.7918464e-32,0.23591696,-0.03805629,0.000002896959,0.000894374,-0.5479668,-0.00909177,0.102836676,0.26848233,-0.006625608,0.06990016,0.1535207,0.37050244,-2.517436e-24,2.4426692e-34,-0.000006304405,-0.08417071,-0.17156896,-0.0039027093,1.7913283e-20,-0.4015538,-0.103973486,0.05778988,0.32661587,0.35669804,-8.9933727e-10,0.16294023,0.09152847,1.6466227e-14,0.27224648,-0.21451256,-0.01130507,-0.23821439,-0.21040644,3.3015162e-14,-0.10912475,-0.4508221,0.23164654,-0.000008161414,0.00011037532,0.05598377,0.13613108,0.52259296,-0.1966148,-4.6704e-41,0.008696301,0.33110082],[-0.1077265,0.15283008,0.27495766,0.23431426,0.03777245,-0.13002174,0.12362159,7.776318e-32,0.079211764,0.29083067,-0.00017848006,0.21237695,-0.051810294,0.0000044822627,-0.066929966,0.29125956,0.21924315,-0.000009712375,4.9703306e-20,-3.311187e-39,0.16789395,0.12876286,-0.11851414,0.00033427912,0.10695169,0.08488412,0.13555136,-0.30804402,-0.56815577,-3.019689e-13,0.22139797,-0.012389606,-5.849252e-7,-0.06592853,0.04212875,1.9845945e-16,0.134996,0.14192678,-0.008793078,-0.1806171,-0.0071514784,-0.07129203,-0.000074565294,-0.0031319621,-2.9049103e-8,0.27668157,-0.0022479086,-0.575047,-5.5242e-41,0.018807247,-0.26567265],[0.08289916,0.18446292,0.25023806,0.38225114,0.005696426,-0.3510485,0.09410672,7.930851e-10,0.16024728,-0.10296993,2.6336e-41,-0.051682234,0.11398695,4.90861e-40,0.45094794,0.39398262,-0.06851321,-1.972e-42,4.6358e-41,-3.4450522e-7,0.13084294,-0.022075703,0.19864585,-0.006499756,0.20024481,0.046293266,0.3498734,0.108543605,0.06528818,0.025266377,0.39210308,-0.07208133,0.002751072,-0.020952158,-0.05283598,-0.000024231233,0.16278467,0.13953541,-0.000065489745,0.17980756,-0.17083459,0.07058288,2.5266726e-20,-7.2322e-41,9.579e-42,0.11698328,0.25365436,0.1911432,-0.0126205105,-0.2411455,-0.3309385]],"hidden_biases":[0.058809876,0.09624055,-0.07738931,-0.07488305,-0.026423128,0.036135446,-0.022625387,-0.083115526,0.06339554,0.06655129],"output_weights":[[-0.44810024,0.72965574,-0.44577155,-0.28323162,-0.34522343,-0.71724916,-0.5801969,-0.26285398,0.35572892,0.55289394]],"output_biases":[0.06865746]}