{"hidden_weights":[[0.229848,-0.37190732,0.36273867,0.49211657,0.49576315,0.09167057,0.14302714,0.05763695,0.07218272,0.029754616,0.23038465,-0.0927126,-0.282969,-0.2091139,-0.10360162,-0.14630687,0.1220874,0.07415569,0.124387644,0.25590447,-0.2836312,-0.15359311,0.08058652,0.07704477,0.057169583,0.28540346,0.34986603,0.19066098,0.24729657,0.11525594,0.036714427,0.20220444,0.035812363,-0.05916169,-0.009104124,0.41962782,-0.14761862,-0.39099878,-0.35690752,0.048243564,-0.08424276,0.12194417,-0.13269901,-0.18841805,-0.014041063,0.34274074,0.22576378,0.22080655,0.019510567,-0.27250817,0.18976022,0.06310456,0.026412819,0.06853471,0.335425,-0.06330011,-0.079207174,-0.08812078,-0.11532194,-0.5612899,-0.12053528,0.21059199,0.09145471,-0.37181216,-0.024655703,-0.15697652,-0.017573057,-0.33608982,0.011605115],[0.07627166,-0.3496443,0.11127244,0.04469088,0.07915666,-0.060888708,-0.100174256,-0.044317674,-0.043683864,0.00278102,-0.00911856,-0.007831046,0.030056035,-0.021823497,-0.019187922,0.0546677,0.04505401,0.061086778,0.037471853,0.028969808,-0.056936137,-0.051718637,-0.074604444,-0.07576026,-0.006945215,0.0012632976,-0.013098951,-0.09287277,-0.017936267,-0.3614986,-0.09164137,-0.07769223,-0.05768123,-0.01336024,0.1059177,-0.24203205,0.07348156,0.027139988,-0.0052583367,0.12366269,-0.011082699,0.051080767,0.026354909,-0.026393762,0.01600408,-0.08502305,-0.054336373,-0.044412088,0.08955272,0.08630429,0.04930477,-0.010075125,-0.034747165,-0.056761574,0.21786907,0.208215,0.09472632,-0.021366535,-0.07586974,-0.12545331,-0.35244048,0.12046124,0.7201517,0.8036423,-0.041873664,0.007330533,-0.024874274,-0.14302659,-0.12429184],[0.01426479,0.0067675672,0.003246496,-0.005951645,-0.013165118,0.0019420973,0.009717961,0.0012742912,0.00083632185,0.0007999704,-0.00042367948,-0.0011755783,0.00437519,-0.00055727514,-0.00037633584,-0.0064536375,-0.035524096,0.0062132133,-0.036065415,-0.010664739,0.0056789536,0.0011111303,-0.0064258473,-0.015755646,-0.011091065,0.001951208,-0.06366213,-0.086197995,0.0024512524,0.00025253487,-0.043719884,-0.008692219,-0.003929208,-0.0032913913,0.0052650063,-0.01015042,0.008276551,0.00475098,0.018803846,-0.03810937,-0.0044371863,-0.0032675776,-0.00027585903,-0.0024637973,0.001447054,0.0017667568,-0.003651697,0.00085313973,0.0018491021,-0.0011223297,0.028874485,-0.006117328,-0.012036442,0.005541204,-0.0018820468,0.0011429458,0.006548547,0.017225577,0.013901054,-0.00005718904,-0.026328115,-0.048194893,0.00123102,0.008278541,-0.007797054,0.006648573,0.0030378655,0.0020565698,-0.0052629733],[0.13014421,-0.040174056,0.22369345,0.056717843,0.20263632,0.09640024,0.010252058,0.04743121,0.09126337,0.021992072,0.06356816,-0.04672047,-0.017655792,-0.0011022436,-0.04291603,-0.044988833,-0.064625904,-0.08276655,-0.107137,-0.10338279,0.087197416,0.10684506,0.09603707,0.048099775,0.03637825,0.01766333,-0.10993014,0.01095097,0.60067517,0.33337292,0.004246472,0.017330969,0.019310279,-0.27950302,-0.09069348,-0.0804078,0.0052299476,-0.06546204,-0.09987192,0.0073962286,-0.19818139,-0.05511519,-0.08575708,0.007111028,0.0011512114,0.07622289,0.040259298,0.044745333,0.064807564,0.07605395,0.057517763,0.09785604,0.085893,0.106220104,0.12831342,0.0404889,-0.061752312,-0.039190885,-0.07597344,-0.08614291,-0.019685311,0.037956454,-0.29882428,0.004807689,-0.27150086,-0.037654568,-0.11209594,-0.018813493,0.041882977],[-0.021649776,-0.14586994,0.030001875,0.09345325,0.0518878,-0.03084963,0.2906882,0.13739869,-0.053458728,-0.01680194,0.007475522,-0.0041195326,0.1681106,0.054492753,-0.017016517,-0.0067445002,-0.001184163,0.08507986,0.13670914,-0.0016751931,-0.0743085,-0.20518377,-0.18123941,-0.10207536,-0.04459264,0.07464025,-0.050836228,-0.04817965,-0.02023114,0.015252618,0.30819607,-0.017418029,0.14932185,0.055093702,0.046606988,-0.28645998,0.01769317,-0.04144784,-0.11033179,0.1027039,0.0086900275,-0.076380804,0.014809365,-0.0011765758,0.001868369,-0.074433446,-0.06492453,-0.03632124,0.16633275,0.04988738,0.059402138,0.06888234,0.0093724495,0.043000452,0.0639181,0.14840893,0.10781905,0.01218691,-0.0009816093,-0.08227144,-0.05654724,0.005246057,0.02213266,0.041846573,-0.052417662,0.121966965,-0.08713739,0.19107358,-0.051419284],[-0.4360661,0.1479818,-0.24276039,-0.37550828,-0.18120573,0.35503143,0.13226402,0.109771974,-0.042766344,-0.14598532,-0.09123655,0.28432214,0.1592871,0.21587726,0.24236794,0.26298928,0.25687212,0.1529217,0.21336731,-0.018176813,0.34217405,0.3414992,0.05475147,-0.23596969,-0.16396463,-0.33455056,0.18250565,-0.110622935,0.05369588,-0.3704201,-0.13643749,0.010883307,-0.11263377,-0.06556064,-0.07431019,-0.3860468,0.48742115,0.36451897,0.4791739,-0.34090602,-0.017995592,-0.04354595,0.24973798,0.12799123,0.25337133,-0.18197241,-0.16928333,-0.15927468,0.029570127,-0.098472215,0.026111053,0.13809998,-0.028118892,-0.061072968,-0.20556706,-0.12747386,0.056372803,0.2275672,0.3446909,0.18778957,-0.20982501,0.18470392,0.13237767,0.6696547,0.047170866,0.0007058683,-0.03360294,0.007894032,0.45523837],[-0.2554248,0.34319633,-0.34042615,-0.43066588,-0.3836714,0.3388002,0.11440361,0.17090201,-0.29197243,-0.2185593,-0.28753173,0.29823342,0.11824052,0.2883277,-0.15666032,-0.10949484,-0.0669156,-0.07648349,-0.25183162,0.072383635,0.353045,-0.20210741,-0.21193619,-0.18676054,-0.34817433,-0.25692546,0.046792384,0.09043601,-0.28637272,-0.34564158,-0.10512635,0.1450073,-0.02137958,0.103697576,-0.15080704,-0.28358468,0.12259775,0.34113434,0.45724013,-0.19590859,-0.1419806,-0.025325257,0.08293811,0.13907069,0.31287342,-0.111849934,-0.08746277,-0.21312058,-0.098016255,-0.15741546,0.10621011,-0.10885335,0.16328827,0.2205517,-0.4066427,-0.21567142,-0.074734904,0.28539798,0.26982558,0.2167965,0.067016326,0.068029344,0.28093982,0.26691386,0.041040815,-0.030180117,0.12642118,-0.35725015,-0.085528344],[0.004866097,0.27978694,-0.021170907,-0.0118352175,-0.034613382,0.011991224,0.011882543,-0.031742923,0.00026723946,0.0009708851,-0.0019171545,0.0004883101,0.009180611,0.0001818862,0.049044285,-0.05155476,-0.00823544,-0.04747766,-0.09507416,-0.051877424,-0.0013246848,-0.033784177,-0.021900259,-0.033263568,-0.045198858,-0.035899468,0.08216068,0.05644443,0.016277406,0.01102892,0.00527675,-0.018035298,-0.00609653,-0.057855338,0.0075247115,0.34245262,-0.0016114253,-0.054309655,0.026267903,-0.036918983,-0.061901946,-0.009079734,0.00090305856,-0.0033089318,0.0038781706,0.0009873435,-0.008163725,-0.00089815166,-0.07055543,-0.06678126,-0.058909044,-0.04089742,-0.06472361,-0.047382917,-0.0030555653,0.0020500012,0.014928704,0.025447905,0.017914522,0.00013171355,-0.17651443,-0.4849047,-0.03321758,-0.019299714,-0.0784602,-0.00024352,-0.04353985,0.0010512776,-0.01118594],[-0.015282968,-0.08525289,0.08904726,-0.03337946,-0.033818856,0.12635441,-0.020572007,-0.03666501,0.03550025,0.009291293,0.0060541914,-0.09935048,-0.040321104,-0.0036430433,0.19852947,0.11439445,0.08498751,0.09370298,0.025517622,0.04754088,0.08387855,0.2077647,0.17419156,0.086030334,0.022633808,-0.08425892,-0.047668967,-0.030091189,0.08741881,0.12702739,-0.036337033,0.036827058,-0.048295997,0.106094874,-0.023192773,0.0077604195,0.07425832,0.023783864,0.08460975,-0.040397953,0.23737669,0.048286397,-0.013439205,-0.038260892,0.010026148,0.043444853,0.10143687,0.039409664,-0.0062722615,0.007456909,0.0058636013,0.08069723,0.09536802,0.015648019,-0.06968668,-0.1469733,-0.12050959,-0.057144757,-0.019732874,0.09440233,0.010788293,-0.097691394,0.036444295,-0.005150755,0.12564866,0.06827405,0.048113067,0.05196138,0.06833534],[-0.3623125,0.15116985,0.07451401,-0.068984315,-0.66818875,0.21931028,-0.09890499,-0.037509233,-0.20533805,-0.18859328,-0.10948393,0.15475115,0.0611899,-0.016616255,0.025394708,-0.29938647,-0.1221088,-0.110536486,0.02704789,0.05288885,0.270716,-0.060409784,0.22042874,-0.25461596,-0.37540817,-0.26056588,0.15146445,0.24842663,-0.023379646,-0.20140043,-0.11728578,-0.19157606,-0.030576173,-0.066485815,-0.20586526,-0.34393823,0.32623616,0.2961954,0.34177536,-0.25409538,0.016074535,-0.12918907,0.18712421,0.09340791,0.14095385,-0.17503761,-0.2377213,-0.18066321,-0.11065272,-0.06867512,0.0063915523,0.16599138,0.028635789,0.04377717,-0.19169016,0.19585866,0.14103283,0.17266028,0.13474284,0.19398564,0.019184936,-0.092838004,0.16267571,0.2156948,0.26245394,0.07089239,0.046209425,-0.037897624,0.06190187]],"hidden_biases":[0.122310445,-0.26438534,-0.124322236,-0.09886411,-0.17111316,0.017945148,-0.124982156,0.44703406,0.07344449,-0.066383325],"output_weights":[[0.37173656,-0.86786455,-0.2974773,0.41863504,-0.20944591,-0.44913033,-0.4612832,-0.63743705,0.31812423,-0.2655515]],"output_biases":[0.12481937]}