{"hidden_weights":[[0.064969555,-0.4810188,0.100273244,0.081928946,0.08214353,-0.078898415,-0.056135464,-0.048623964,-0.023631573,-0.004659061,0.022238461,-0.07611036,-0.060666375,-0.09322743,0.017161999,0.018871412,0.026781652,0.011950165,0.020798463,0.016172752,-0.08027579,-0.060964122,-0.03978431,-0.037043415,-0.016329465,-0.003931671,0.0049488493,-0.0585137,0.08583776,-0.12166324,0.0049555,-0.006425452,0.009015326,-0.014286061,0.029136695,-0.5059822,-0.060228314,-0.11654939,-0.12253216,0.048301492,-0.011894135,0.013484749,-0.017167332,-0.0048068487,-0.072336264,0.029453745,-0.022075916,0.00938872,0.031388957,0.014770228,0.008184387,-0.019294113,-0.026793357,-0.021658286,0.05436358,0.023671014,-0.022268403,-0.0621828,-0.09262,-0.102634534,-0.083536275,0.018253077,1.1536843,0.9162909,-0.023322286,-0.0130179785,-0.014899616,-0.0027398553,0.027209962],[-0.030104646,0.36314768,-0.02046281,-0.07815352,-0.094364055,0.048982337,-0.02297112,0.0075291395,-0.021230023,-0.011201214,-0.047665436,0.0904844,0.028611107,-0.0014766944,0.018897468,0.021768805,0.014550272,-0.015709005,-0.03531363,-0.02938982,0.13815644,0.09381579,0.0015989338,-0.014192951,-0.047828082,-0.077322766,-0.02408055,0.013004259,-0.02510996,0.11083163,0.005311457,-0.01169298,0.04281004,-0.021961456,-0.0073267445,0.17989953,-0.11671959,0.1149741,0.035091694,-0.11051399,-0.025121247,0.0038605994,0.004264692,0.07249834,-0.009883674,-0.0038920294,-0.05077996,-0.048138022,-0.07553427,-0.03474194,-0.018128892,0.011830753,0.039523624,0.047116503,-0.115731135,-0.067427374,-0.008606502,0.02406807,0.06835597,0.07935398,0.03502354,-0.023870835,-0.3275304,-0.49735016,0.032511316,-0.031737752,0.025682732,0.00049897784,-0.014297545],[0.05147973,-0.27218467,0.20165907,0.36692914,0.1944111,-0.40136072,-0.02877191,0.19550167,0.0752443,0.13506779,0.2041287,-0.12940158,-0.12342382,-0.16745795,0.020877058,0.11644949,0.1197122,0.12976502,0.15208235,0.26304755,-0.14506954,0.021640083,0.06787696,0.14059952,-0.024083586,0.3352551,0.11547832,0.23876496,0.35921746,0.25018793,-0.037910875,0.00349745,0.16336381,-0.0622222,0.08993854,0.45033556,-0.27997318,-0.40967906,-0.35206375,0.39221713,-0.11061299,0.047981046,-0.14312628,-0.07591986,-0.13538028,0.16612521,0.11826864,0.06563889,0.05692646,0.015043713,-0.14757982,-0.081489466,-0.05232959,-0.11535682,0.14172542,0.018976102,0.038486857,-0.17251188,-0.21442746,-0.4160539,0.13247618,-0.076780304,-0.31047127,-0.3349966,-0.026998034,-0.024788022,-0.2085411,-0.13321449,-0.134886],[-0.32097962,0.085629426,-0.3320401,-0.281342,-0.32522246,0.12380991,0.18838267,0.24497108,-0.18899505,-0.13382132,-0.18958469,0.25133255,0.14948305,0.19549622,0.045004994,0.11090687,0.18197392,-0.06444902,-0.008595579,-0.07208851,0.19280334,-0.10023863,0.023487473,-0.1897707,-0.15336463,-0.067790665,0.2680305,0.10564137,-0.26999515,-0.35680738,-0.017045062,0.034142535,-0.02871987,0.19002415,-0.04286584,-0.3188545,0.31406602,0.23447344,0.33514535,-0.23556697,0.046423536,-0.13242716,0.17299062,0.20476355,0.16191132,-0.15806569,-0.19926548,-0.23419821,0.0786428,-0.061812002,0.1369842,0.06851558,0.15509327,0.18627088,-0.2601432,-0.036054842,0.11299471,0.07755292,0.25300792,0.19677417,0.16728622,0.069691494,0.24586265,0.2943624,0.08861497,0.04990558,0.0026526237,-0.0022557038,-0.058638953],[0.23379327,-0.3054739,0.21929358,0.27838928,0.49340525,-0.08252997,0.035856918,0.052241005,0.12814966,0.1515603,0.16773032,-0.11042455,-0.20053984,-0.12909679,0.12634522,0.22602737,0.34381798,0.057239857,0.14349064,-0.017218156,-0.27805516,-0.08222775,0.115028255,0.15922615,0.39583945,0.37797138,0.15668494,0.066562034,0.285217,0.24994038,0.05627941,0.10272293,0.010057783,-0.05579677,-0.007118734,0.3345073,-0.13605383,-0.29480967,-0.38989717,-0.040130485,0.02340097,-0.039195318,-0.16448301,-0.05643693,-0.1878538,0.20249425,0.111773066,0.10264727,-0.13920599,-0.2648439,0.057132922,-0.113088846,-0.050860863,0.009952712,0.22203699,-0.09350694,-0.117483266,-0.28334928,-0.121386,-0.25273755,0.17139648,0.13290119,-0.06381772,-0.466167,-0.2614088,-0.080888346,-0.030929755,0.0892616,-0.13652265],[-0.09116566,-0.3135113,0.0012872379,-0.16307679,-0.19954203,0.13318215,0.03098014,-0.0222426,0.07848134,0.04996204,-0.0075503066,-0.114539586,-0.07949244,0.038720734,0.16335645,0.081924655,0.059467524,0.03865963,-0.012109733,-0.008469081,0.114287354,0.1806901,0.11783666,0.0028454498,-0.09789652,-0.096658975,-0.021870056,-0.009683915,0.18833505,0.33775765,-0.03656124,0.078655854,-0.03708466,0.2032879,0.013052855,0.053078476,0.17347291,0.11662129,0.23241667,-0.11536393,0.1775664,0.024489596,-0.04222597,-0.05391612,-0.009687873,0.043366235,0.10225552,0.013845323,0.040087536,0.024259267,0.03969922,0.058988463,0.07580662,0.05238736,-0.16962406,-0.25410017,-0.1263076,-0.10054556,-0.017882807,0.12950593,0.020097014,-0.0909122,0.11839826,-0.17165317,0.18800946,0.006599764,0.056031507,0.053794544,0.07274665],[-0.0061500114,-0.08014884,-0.16349621,0.17168689,-0.02479077,-0.16102543,-0.023836656,-0.037446123,-0.006337798,0.08476835,0.02058108,-0.088836476,-0.09877883,-0.05781657,0.0070606363,0.018855553,0.04523866,0.08648023,0.112003505,0.12927511,-0.0629297,0.047845304,0.08860486,0.100015715,0.165311,0.19843784,0.13711396,-0.07619854,-0.8802111,-0.39923605,0.071734995,-0.053878307,0.0080420915,0.140012,0.015832236,0.3176648,-0.12333138,-0.13716486,-0.08446374,0.06620604,0.21124546,0.12568201,0.00092731253,-0.06342128,-0.09994784,0.16112114,0.08096713,0.050836448,-0.05441231,-0.05196703,-0.073439665,-0.07873805,-0.10916913,-0.09935069,0.09725055,-0.03352817,-0.071648285,-0.1510878,-0.12506855,-0.06926147,-0.02186277,0.05191621,0.35390997,-0.089519575,0.20078038,0.05125827,0.14666933,-0.0057963785,-0.032482672],[-0.035822492,0.029767606,0.041708976,-0.02055457,0.05499994,0.03209746,-0.018404447,-0.059382405,0.018275233,0.010160779,0.0059744543,-0.010672017,-0.0070574647,-0.016380696,0.042753175,-0.0019583937,-0.011584467,-0.041083157,-0.05668122,-0.01444225,0.0069190743,0.01556679,0.059373908,0.0038364297,0.007454717,-0.039490633,0.022999182,0.0034072336,-0.02330719,0.014858181,-0.0013684548,0.03300945,0.042040493,0.05982724,0.009290327,0.06515769,0.019368805,0.087119214,0.029648514,0.061465308,0.09376935,-0.10070843,-0.0157815,-0.0055956733,0.0134334,0.035507817,0.022979796,0.008414565,-0.049787827,-0.071394265,-0.06278527,-0.03500548,0.030977046,0.06984951,0.022229997,0.08324073,0.111034706,0.089963414,-0.004063624,-0.09382994,-0.008651128,0.01315591,0.031269,0.020435916,0.069843136,0.011014485,-0.15622063,-0.025988968,-0.0326771],[-0.0880316,0.068273656,-0.18134812,-0.22762994,-0.2763664,0.0904393,-0.18979098,-0.04880668,-0.044606086,-0.008722053,-0.07148927,0.0554435,-0.0011041763,0.09538923,-0.038867917,-0.024535118,-0.033783715,-0.03440213,-0.057261236,-0.042422716,0.15994242,0.12571982,0.027364466,0.02150556,-0.025407733,-0.12926233,-0.0058241943,0.03767665,-0.21401499,-0.3179068,-0.33998844,-0.09378626,-0.11054556,-0.0076813735,-0.13453698,-0.29016998,0.2112819,0.18325362,0.30927855,-0.06913277,-0.0390271,0.0045047845,0.10163537,0.034558404,0.14273427,-0.090029545,-0.015708774,-0.10296735,-0.08470742,-0.048589464,-0.043082934,-0.03159046,-0.005828668,-0.020031398,-0.15434492,-0.09594847,-0.04983234,0.07844678,0.07077638,0.04498984,-0.049623817,0.09594513,0.40075973,0.4465087,0.0027970339,0.03252789,0.0063133617,-0.37636045,0.13521066],[-0.061301436,-0.06971975,-0.052621923,-0.13642977,-0.07981668,-0.029749017,-0.057563383,0.11591823,0.00305553,-0.021273762,-0.101968236,0.02524664,0.00935554,-0.004645226,0.036055382,0.04171486,0.024903152,0.033324946,-0.014650147,-0.036541328,-0.027964825,-0.18978384,-0.19162714,-0.1688529,-0.038427256,0.09830785,0.02720243,-0.019014895,0.046489473,-0.07990011,-0.047865223,-0.031425618,0.18183334,0.004082296,0.050924513,-0.16531326,-0.022884479,0.06362536,-0.05085768,-0.04021243,0.020078478,0.021317,0.0172876,0.018475406,0.022375025,-0.057384204,-0.025737014,-0.029567396,-0.032963075,0.0036382668,0.0056571253,0.02486816,0.053280722,0.028269581,-0.056492615,0.012522435,-0.003931859,0.049025044,0.025863474,0.042297855,0.008376643,-0.014088036,-0.04884399,0.05110162,0.013222231,-0.01632528,-0.03630608,-0.086992376,0.033050124]],"hidden_biases":[-0.47517878,0.099793114,0.12327776,-0.123684965,0.052640513,-0.09404387,0.0863712,-0.0327698,-0.16778678,-0.1092915],"output_weights":[[-2.1468582,-0.55509216,0.29088467,-0.58908385,0.46472695,0.36143532,0.32885185,0.20474002,-0.3792569,-0.29580453]],"output_biases":[0.034755196]}