{"hidden_weights":[[0.10077131,-0.0010951043,0.07538602,-0.08797417,-0.052527998,-0.15588345,0.02761735,0.21723531,0.096440725,0.13627,0.19206686,-0.23454335,-0.006972462,-0.0847489,-0.3360333,0.08395842,-0.1682279,0.09680684,0.20928617,0.0063097794,0.3409048,-0.033260446,0.23076409,-0.33056715,-0.030153388,0.031355534,0.16954234,0.13164239,0.22189684,0.12884516,0.080227405,-0.032707974,0.11024773,0.2378533,-0.006465268,0.035329882,0.025492415,-0.011842005,-0.2025135,0.21338809,-0.17533794,-0.19759308,0.23504265,0.31734324,0.012886135,-0.13945949,0.07605922,-0.10630847,0.13406701,-0.03934547,0.12589775,0.06411651,-0.33804673,-0.08767098,-0.14531723,0.07295224,0.035380088,0.18135591,0.16328414,-0.29901686,-0.20427608,-0.08653111,0.38557348],[-0.051640794,-0.079767115,0.04221319,0.046539072,0.24603172,0.2249937,-0.09534723,-0.09367758,0.078939974,-0.022092069,0.042359404,-0.40286297,0.09482092,0.03505847,0.17229633,-0.22788902,0.008629229,-0.16016099,-0.2096086,0.0043650446,-0.13777253,-0.46397918,0.30368233,-0.022841347,-0.03648735,-0.005797678,-0.31253436,-0.37002233,0.11247757,-0.0689143,-0.066942275,-0.1716595,-0.25713128,-0.2449175,-0.038974695,0.22345237,0.07516977,0.11665492,-0.093088776,-0.1759858,0.215074,0.2620779,0.044770923,0.08178092,0.10511521,-0.07378297,-0.031193817,0.09964721,0.0526627,0.038319204,0.022075566,0.058686174,0.052272994,0.07303143,0.12057216,0.2213178,-0.14410603,-0.35477453,0.09259113,-0.20581476,-0.16191019,-0.05023102,0.0045385696],[0.12227861,-0.2018624,-0.03536679,-0.1730477,0.02738105,0.2448114,-0.27466467,0.30413994,0.10610973,0.021233605,0.20408253,-0.004822622,-0.015749685,0.031168168,-0.02275566,0.1096497,-0.07997817,0.05126044,0.109818816,0.09759908,0.06388476,-0.35392827,-0.041973963,-0.30707347,-0.009794563,-0.17140898,-0.12413283,0.16475022,-0.0021408806,0.13138567,0.059080593,0.24350406,-0.14004882,0.058986124,-0.2904428,-0.25517777,0.009694166,-0.13902628,0.37347016,0.34109327,0.19488363,-0.0675444,0.20335819,-0.05076125,-0.061406802,0.052464314,0.05693827,0.23972695,0.10719454,0.0032542672,-0.2745022,-0.13095152,0.0145408595,-0.3678133,0.22346506,-0.27882147,-0.28113046,0.35814184,0.19600949,0.3295607,0.45512983,-0.021786222,0.18514797],[0.04541755,-0.22498028,0.5211859,-0.24991785,0.08196693,0.005409311,0.102924615,-0.3149885,0.1604147,-0.33070064,-0.27042285,0.28787148,-0.11954616,0.07630625,-0.3589406,0.14132555,0.21804996,0.11969334,0.086416446,0.19841558,-0.12323048,-0.020289503,0.096569724,0.23182748,0.11648961,0.028716436,-0.19933115,0.0880834,-0.30719152,0.1585273,0.12965563,-0.027204389,-0.2230385,0.08260498,-0.00807849,-0.13397217,-0.052113824,0.13070665,-0.13024771,-0.020175342,-0.0018454397,-0.020608192,-0.0745875,-0.013895212,-0.08775832,-0.089877605,-0.014646116,0.1719341,0.03522349,0.011880036,-0.095804416,-0.045415476,0.042061087,-0.12185438,0.23771867,-0.022300635,-0.22370963,-0.19066301,-0.22215097,-0.06485369,0.05323707,-0.2090569,0.09040161],[0.13604136,0.13540919,0.22483878,0.0067570987,-0.17362466,0.12881625,-0.26412898,0.030200467,0.07235005,-0.014761149,-0.02118273,0.205338,0.082194604,0.10246883,0.022182455,-0.057781853,-0.09989635,-0.02019142,-0.09645773,-0.14167678,-0.015299815,0.28467318,-0.13619953,0.22369635,-0.054190494,0.1549172,0.05471983,0.019529974,-0.013491793,-0.05661612,0.20383121,0.20219171,0.016247898,0.14619665,-0.06152745,0.36008376,-0.01939197,-0.15921336,0.18451886,0.10881597,0.24821104,0.05180782,-0.054341387,-0.12597609,-0.014130006,0.057426397,0.10747687,0.21447383,0.19838105,-0.20418164,0.0073609403,0.16526365,0.078011885,-0.0033431528,0.035481453,0.12234045,0.12180267,-0.18149106,-0.04788182,0.12615773,-0.017187258,0.15261118,-0.12109627],[-0.080045134,-0.3130295,0.032824997,0.11415759,0.10523049,0.044629265,-0.20701256,-0.093590036,-0.2197731,0.1699411,0.14285854,-0.14527677,0.06604645,0.031201905,-0.3352591,-0.08250487,-0.0575836,-0.078308985,-0.11535304,0.22097605,-0.10695476,-0.106804326,-0.12282715,0.16511272,-0.21134238,-0.002334433,-0.084578745,-0.13187693,0.11759864,-0.103060305,-0.31298625,0.1747966,0.33596396,0.1212097,0.08131413,-0.031224651,0.016231107,-0.014075814,-0.16103606,0.035571236,0.17060126,-0.11529169,-0.035814185,-0.2505333,-0.21082875,0.108393356,0.098386094,-0.06454247,0.06663004,-0.011055396,0.05935074,0.034443963,0.093302876,0.24371698,0.08031393,0.051551133,-0.09665301,-0.2719065,-0.087877825,0.10752123,0.3667878,-0.109245025,0.044453498],[0.008211772,-0.12738168,0.13250783,-0.12646198,-0.22975145,-0.2736951,-0.05669037,0.09000051,0.12140772,0.0077347606,-0.23524392,-0.11310996,0.030701216,0.35862803,0.114213124,-0.018328503,-0.15606476,0.030322373,0.08479028,0.031649698,-0.26360238,0.22397809,-0.27997,0.017182225,-0.3418459,-0.21295345,0.38323328,-0.16331382,0.013123729,0.09239691,0.11630601,-0.052976716,0.21555881,-0.23036684,-0.023537029,-0.16704038,0.38270319,-0.35569012,0.12103387,-0.22862172,-0.12895267,0.055824578,0.07622132,-0.08525199,-0.03842046,0.013033232,0.34273773,0.16278377,-0.020598454,0.090288095,0.16940404,-0.038912244,0.22224122,0.3036222,-0.011388357,0.057048764,-0.1322458,0.20292552,0.0571954,-0.081057794,0.0018315759,0.040928338,-0.037389304],[-0.018616429,-0.26829928,0.13990293,0.076969855,-0.43329707,-0.11930358,-0.080474064,0.1843276,-0.089628585,-0.111538365,-0.057793196,0.23951304,-0.14503816,0.034376215,0.22653717,0.18517557,0.1757014,0.41869652,-0.05584752,0.42347386,-0.12567887,-0.1591474,-0.23844734,0.012122321,0.21383114,-0.04619072,-0.15233238,0.2189319,0.023333857,-0.008591437,-0.018242842,0.13575922,0.12760557,-0.07864974,0.41040972,-0.17243192,-0.15966041,-0.38035396,0.20363054,0.044633925,0.34738776,-0.016120724,-0.1879367,0.049776535,-0.2096067,-0.12589146,0.04474782,-0.011664737,0.00020761669,0.098247655,0.16501908,-0.2294916,-0.24195798,0.21141851,-0.0655548,0.206468,-0.1104394,0.23601158,-0.15364408,0.098816894,0.004508062,-0.040114887,-0.12951867],[0.0006459852,-0.056935433,-0.25357872,-0.18442711,0.13104892,-0.24667375,-0.25176802,-0.09612036,0.084937185,-0.13455014,-0.06297824,0.042111948,0.026825247,0.19067165,0.033839997,0.02491831,-0.25166312,-0.28076053,-0.15733522,-0.10815385,-0.2343819,-0.061067697,0.20029257,0.020066991,0.28113472,-0.36888677,-0.0032542176,0.09233203,0.049170207,-0.110921845,-0.007260937,-0.19479148,0.3344916,0.16327056,0.006480793,0.21600723,0.0044728927,-0.10395128,0.2982757,0.22185875,0.10282055,0.17657277,-0.071948126,-0.08936952,-0.22993648,0.31565225,-0.19465455,-0.093403056,-0.19350658,0.20841378,0.1182549,0.12672591,-0.20985292,-0.13523763,0.060449775,-0.30019704,0.24032253,-0.012673191,0.08804916,0.009887868,0.22375871,-0.03897827,0.029779501],[0.34919372,0.23042665,0.061776277,-0.34001666,-0.13884328,0.05152023,0.20277087,-0.13387805,0.2852088,-0.10250324,-0.1207246,0.1039946,-0.09502801,-0.17414778,0.09481974,-0.048910223,-0.31075943,0.0564665,0.03836696,-0.26992744,0.15862687,0.24757653,0.102755666,0.30855396,0.26546207,-0.22211863,0.29107785,-0.15903492,0.19441795,-0.1470979,-0.010830527,-0.34171456,0.20385017,-0.006701415,0.13841496,-0.17731613,0.12165382,0.026956692,-0.16365428,0.11438442,0.085538186,0.07022835,-0.24283674,0.24758083,0.053599652,-0.18243545,0.06376079,0.031147556,0.19347195,0.21659079,0.009951256,0.012514528,-0.46002457,-0.1291581,-0.26084623,0.25281578,0.18587847,-0.29026416,-0.024269657,0.23684892,0.2522946,0.35139623,0.01579195]],"hidden_biases":[0.00077415525,-0.000642392,-0.0007760799,-0.0003135923,-0.0007738531,-0.00074912846,-0.0007845459,0.0007644822,0.0007732192,0.00065540266],"output_weights":[[-0.2894049,0.5608659,0.38204825,0.6439232,0.14332849,-0.60203284,0.21112841,-0.19089197,-0.4245821,-0.10200544]],"output_biases":[-0.0007720787]}