{"hidden_weights":[[0.10246675,-0.20819417,-0.119504474,-0.16145033,-0.26780725,0.65016955,0.33776516,0.28015563,0.16202675,-0.33213377,0.105809845,0.007917825,-0.2804699,0.117870815,-0.19699626,-0.013933071,-0.1571968,-0.18418033,0.12742616,0.14843524,0.38723925,0.1253889,0.12486845,-0.4612064,-0.15639232,0.12509948,0.32468444,0.36966,-0.15258898,0.1945208,-0.04459523,-0.0857243,0.07522743,-0.035992716,-0.11240979,-0.19316709,0.26545018],[-0.5045111,0.15158415,-0.24700516,-0.072625816,0.3904824,0.7172409,0.10195994,-0.08343384,0.070628375,-0.14034635,-0.5014224,-0.07364171,-0.02996607,0.30366567,-0.21755086,0.14823523,-0.06942809,0.044184253,-0.315003,0.13839689,-0.0071766074,0.48446354,0.18008052,0.1049408,-0.006856959,-0.20830055,0.23014094,0.017664144,0.36043465,0.48561734,-0.53698504,-0.51259834,0.02713213,-0.5241003,-0.061362054,-0.27042884,-0.12826],[0.29001275,-0.15245178,-0.32070974,-0.181327,-0.06772252,-0.13869238,-0.3129413,0.21966738,-0.4344728,0.039927337,-0.10327481,0.12054946,0.03408731,0.0044251103,-0.010924147,0.08155878,0.09748512,-0.0842499,-0.17336003,-0.48294201,-0.024550468,-0.114413954,0.052072402,-0.07906527,-0.08337309,0.12705971,-0.22975998,-0.16228609,0.2127563,0.18141328,0.028830543,0.028769068,-0.051018436,0.6394421,-0.057982832,0.1559885,0.16819935],[0.23814707,0.26235828,-0.17147626,-0.39811087,0.34500822,-0.23351014,0.41734618,0.052934982,-0.050962288,0.07890551,0.08764452,-0.12101159,-0.05613424,-0.39248517,0.18518199,-0.03281642,0.07932464,-0.1686297,0.09731795,0.1377717,0.14965264,0.09326491,-0.17300826,0.03403782,-0.2795884,-0.18499435,-0.06818877,0.06078349,0.05365237,0.2514154,-0.45058405,-0.26584756,-0.28414622,-0.16246767,0.5154877,-0.06209979,-0.40183377],[0.013455759,0.009166038,0.27602956,0.12247011,-0.011722981,0.40306696,-0.12297452,-0.2837554,-0.23866743,0.36557508,0.363567,0.024290062,-0.028281415,-0.011071535,-0.4017076,-0.2259172,-0.16168535,-0.24477501,-0.40388718,0.3165524,-0.33110523,0.025537368,0.004754749,-0.12698616,0.56957495,0.24397126,-0.05510214,-0.22166786,-0.14359705,0.13298814,-0.33555275,-0.0935339,-0.1769859,-0.35718817,-0.093909115,0.019938346,0.22830464],[-0.114156224,-0.17315039,0.015293899,-0.033949785,0.14160329,-0.26271158,0.0803114,-0.09367006,0.2855796,0.01334095,-0.30612585,0.44244045,-0.094940834,-0.14788541,-0.074280374,0.26929155,-0.23388219,-0.38708845,0.12008919,0.097655654,-0.035545245,0.1883088,-0.5078148,-0.28788134,0.014093844,0.027479256,0.14019825,0.09534982,-0.15534952,-0.14713827,-0.40529045,0.10256797,0.28648052,-0.2144544,-0.21979341,0.23936889,0.28230342],[0.24925895,-0.0742588,-0.20911646,-0.16657835,0.011435193,-0.26753885,0.11312398,-0.25735453,-0.27837756,-0.2536186,-0.2664742,0.3298842,0.0855598,0.05378575,0.108440116,-0.01435036,-0.17356841,0.04056542,-0.11541878,0.25031298,0.29802117,0.21970585,-0.08068441,-0.007054905,-0.09052248,-0.31998235,0.07049206,-0.3682741,0.084966406,0.41317603,-0.32080537,-0.26414225,-0.3483133,0.19992085,-0.17320088,0.44620818,-0.28876483],[0.10452293,0.50832313,-0.14471626,0.045202687,-0.0711474,0.35045332,0.1475777,0.08570145,-0.056035727,-0.04717681,-0.5109,0.6696421,-0.034680728,-0.076908424,-0.1779497,-0.2852779,-0.094237134,-0.24955592,-0.19223471,0.06278305,-0.4858347,-0.2686068,-0.030780816,-0.26427403,0.14463143,-0.33346468,0.09877846,-0.16805212,-0.2715824,0.10405608,0.31585836,0.18584059,-0.18748793,0.21064669,0.30536783,-0.03859491,0.3842968],[-0.35405415,-0.07051896,0.46415156,-0.13901994,0.2262473,0.058681257,-0.20662317,0.28075638,-0.100226626,0.22782418,-0.2375584,0.3850145,0.6578824,0.1727886,0.2272447,0.28059208,-0.31852204,0.21238486,-0.27365127,-0.007126484,0.09495597,0.08401393,0.25796863,0.105945736,0.6615995,-0.30081448,-0.1447633,0.009917152,-0.27763176,0.14037313,0.04959251,0.26399797,-0.20604107,-0.20613876,0.1243141,-0.2708165,0.19814987],[-0.31478274,0.25886536,0.020109793,-0.16421148,-0.17937595,-0.0737002,-0.17856133,0.16203058,0.5154361,0.4466108,-0.61904895,0.26879546,-0.1335324,0.1530091,0.058930364,0.26739007,0.363356,0.11868812,-0.076566644,-0.23984694,-0.46532187,-0.10771022,-0.08097376,0.26632684,0.51925546,-0.013311499,-0.25607395,-0.00067811314,0.06920926,-0.570829,0.1097723,0.34394732,0.21511209,-0.07610474,0.08732303,-0.22070706,-0.11991071]],"hidden_biases":[0.0,0.0,0.0,0.0,0.0,0.0,0.0,0.0,0.0,0.0],"output_weights":[[0.30707902,0.19632041,-0.4233336,0.18545443,0.7215813,0.3145458,-0.2526114,-0.43175867,-0.60958374,-0.5016231]],"output_biases":[0.0]}