{"hidden_weights":[[-0.78263736,-0.08738492,-0.26091176,0.30556926,0.21053593,0.028986456,-0.09978495,-0.108396195,-0.15139446,-0.112708956,-0.120546944,-0.037798397,0.112912044,0.116751164,0.05561495,0.11650005,0.09780569,0.19484587,-0.11539062,-0.091951355,-0.18832485,-0.1475131,-0.16269511,0.012141165,0.042784315,0.014185395,-0.13341752,-0.002484645,0.12453891,0.036678806,-0.12771612,0.00058825087,-0.27951878,-0.058499612,0.007746183,0.14218071,0.014343979,4.383e-42,-0.3001517,-0.13166735,-8.423e-41,0.138797,-0.34502015,-0.3330229,-0.35121778,-0.35260433,-0.6585563,0.027458817,0.17480968,-0.27237645],[-0.60897464,0.10085779,0.22348525,-0.30098236,-0.18735826,-0.03815318,0.104008034,0.107477106,0.13925701,0.11247863,0.12334865,-0.020773016,-0.13327426,-0.111925386,-0.009312841,-0.08156726,-0.11392361,-0.17090054,0.108778276,0.06433573,0.1751449,0.18499649,0.14010502,0.0039985697,0.016639471,-0.034859102,0.112808116,-0.009508614,-0.13714081,-0.016389413,0.09399118,0.030222047,0.27919978,0.040266152,0.030895645,-0.1425924,0.015239072,8.93e-43,0.4121558,0.052314952,-1.59213e-40,-0.18370678,0.29069614,0.35344565,0.48115066,0.25395107,0.53551495,0.005078999,-0.10288032,0.40125567],[-0.26576594,-0.015737327,0.049730904,0.018800264,0.045866843,-0.1215111,-0.05789118,-0.04380489,0.0444465,0.08120759,0.06673728,-0.043258183,0.01918034,0.03649952,-0.08365892,-0.010668886,0.015998615,-0.032256838,-0.048799936,0.0024253377,-0.020008624,-0.060073853,0.07442782,-0.042245217,-0.001352232,-0.07580972,0.08834775,0.014193333,0.099706694,0.012212025,0.04249551,-0.002517423,0.0063222814,0.02299178,0.008000566,-0.053249992,-0.014832858,1.08546e-40,-0.070210434,0.0035485611,8.626e-41,-0.11944473,-0.025525251,-0.14323747,-0.20211767,-0.046275716,-0.13994056,-0.014757145,-0.114325054,-0.62758505],[0.24175587,0.81631655,-0.5718098,0.8370039,0.58664334,-0.24586587,-0.107683904,-0.16381222,-0.13970305,-0.20867734,-0.23583218,0.14254254,-0.00030186004,0.011729699,-0.12149178,-0.16069363,-0.17771564,0.090391405,-0.032827787,-0.072478786,-0.21300444,-0.27881822,-0.4635732,0.02140792,-0.11349332,-0.02954428,-0.036281127,0.16119702,0.20606299,-0.032898743,0.02727938,-0.061497573,-0.25462428,0.07392014,-0.2064278,-0.091745555,-0.111202605,6.4112e-41,-0.3094704,-0.01221651,-4.9316e-41,-0.10990597,-0.28278053,-0.26239303,-0.32162955,-0.3464074,-0.79167753,-0.04317833,0.17089829,-0.34787086],[-0.78910214,-0.44145268,0.037929583,-0.21307759,-0.07081509,-0.0027166065,0.012147181,-0.037959263,-0.0017274304,-0.015394566,-0.021829914,-0.019174626,0.025158681,0.01529646,-0.013587144,0.038963363,0.035231028,0.0064132256,-0.043287005,0.02089239,-0.0025500532,0.028148364,-0.0052066515,-0.018001778,-0.023136528,-0.0120173525,-0.018775187,-0.0494423,-0.028705934,-0.007449884,0.058618374,0.0006577885,0.052241493,-0.006653314,-0.0043674535,0.021319635,-0.0010791059,-7.8993e-41,0.052515175,-0.036874577,8.707e-41,0.08717936,0.09847225,0.15267928,0.085655965,0.066345625,0.14583427,0.16227673,-0.0047871633,-0.22344004],[0.3048495,-0.45232213,0.27398217,-0.41680002,-0.3424167,0.059967324,0.05722312,0.12089872,0.12702551,0.16653676,0.17634279,-0.049716007,-0.009760039,-0.0037749566,0.07119317,0.062114984,0.0463281,-0.07328434,0.035698373,0.08417533,0.15900847,0.11227109,0.2746086,-0.07904403,0.020850318,-0.037519004,-0.016664697,0.009513949,0.020492952,0.004890101,-0.028104678,0.046585653,0.029482204,-0.032153808,0.010898703,-0.06378843,0.07011577,-6.6004e-41,0.11590209,0.120975226,-4.4305e-41,0.03536041,0.18476672,0.3523853,0.079654,0.15207604,0.616959,0.007311461,-0.28315315,1.0262402],[-0.39766064,0.011539703,0.016108626,0.03507108,0.13182814,0.064084455,0.028681112,-0.009420256,-0.09247473,-0.004431204,-0.061717927,-0.012956711,-0.071917005,-0.12985113,-0.014341861,0.15038791,0.05519204,0.002385222,0.0083986055,-0.03247063,0.029992545,0.02246284,-0.19694918,-0.055913933,0.037571028,0.07322406,-0.061817735,-0.20676166,-0.00857576,0.061334584,0.08085593,0.013110406,0.07768891,-0.011662737,0.120754,0.09502315,0.01513759,-2.0187e-41,-0.07235005,-0.12283647,9.7731e-41,0.041185208,0.10451944,-0.016711967,0.10003395,-0.12408027,0.07306214,0.014293201,-0.0979142,0.09618842],[-0.13776597,-0.032885626,0.09425743,0.012320927,-0.04871972,0.08294197,0.00047552516,0.018306756,-0.029884286,0.0055473987,-0.009682229,0.080468975,0.024772655,0.07820682,0.066056155,0.04902005,0.00016125568,-0.0038175702,-0.009032922,0.05281575,0.013694349,0.011754505,0.0031527847,-0.002523995,0.0024870227,-0.022218654,-0.03259756,0.02055215,0.0039712135,-0.006689639,-0.03998616,0.06484995,-0.005426645,-0.05043531,-0.030257165,0.03915949,0.06673985,-1.31904e-40,0.013576665,0.02325785,9.6471e-41,-0.004251093,-0.052248806,0.024338463,-0.024537738,-0.020027634,-0.05974876,-0.039087363,-0.0225366,1.6575236],[-0.0074190735,0.0047021564,0.0019012151,-0.002513463,-0.0012202195,0.0011064467,0.0029996561,-0.004815822,0.002173341,0.0026831434,-0.002290199,-0.0003246004,0.0011158327,0.00085218356,-0.0014453448,-0.0008119142,0.0009677501,-0.0012858628,-0.0009155421,-0.0011039103,0.0030928887,-0.00021316724,-0.0003041747,0.0012653322,-0.00018896227,0.004823217,0.0007515014,0.0049203485,0.0019477545,-0.00037047543,0.0007916655,-0.000532384,-0.0018040315,0.0003428073,-0.000065083594,0.0012061958,-0.0003945891,-1.48505e-40,-0.0005318728,-0.0003627617,5e-41,0.0014850782,-0.0037546013,-0.0013656962,0.0009950734,0.0000075849002,-0.00026041525,0.0045791557,0.00033501396,-0.0004507493],[-0.010318316,-0.374995,0.3371065,-0.50824046,-0.0914977,0.16094862,-0.017256593,0.038164604,0.032098122,0.09858059,0.08389622,0.07871657,-0.01676677,-0.022407627,0.0091870865,0.031845275,0.0728882,-0.11687999,-0.03186437,-0.07138092,-0.022925755,0.124107644,0.22662772,0.039201647,0.027377002,0.065916955,0.12310071,-0.11280269,-0.084637925,-0.007782964,-0.011229546,0.026267333,0.17492712,-0.0318745,0.06351566,0.15528026,0.011520896,5.4752e-41,0.123385906,-0.017256007,1.03674e-40,0.07562167,0.15362695,0.03187065,0.07782088,0.22619422,0.41747692,-0.047750402,-0.032988343,0.4059465]],"hidden_biases":[1.8062376,1.9769528,-1.0901248,0.34268525,0.4094766,1.0737773,0.273599,-0.13900468,-0.7155443,-0.9650535],"output_weights":[[-0.14700174,0.1348504,-0.22120388,-0.12481503,-0.7146713,0.070901744,-0.080098666,1.1304238,-0.0010657941,0.16535701]],"output_biases":[0.2359715]}