{"hidden_weights":[[-0.0362947,-0.03963994,0.046917897,0.055913474,0.06484283,-0.01708372,0.094774544,-0.011365778,-0.00704781,-0.014866328,0.024486784,-0.00018088127,0.015930075,0.030430192,0.01774993,-0.0075157434,-0.00040402287,0.004635454,0.028849257,0.028783996,-0.01641628,-0.07100362,-0.0070801303,-0.027173331,-0.011774549,0.035876956,-0.021167353,-0.011031825,0.14337233,-0.014512201,0.050540227,0.026252061,-0.069183536,-0.0123495795,-0.014618263,-0.048588183,0.028599571,0.0080858525,-0.017522683,-0.0013704223,-0.002984838,-0.0037036638,-0.0013482694,0.00089415116,0.017284662,0.07695723,0.06908258,0.026341535,0.00848137,-0.034635462,-0.021732513,0.049976557,0.06673477,0.04292765,0.0067177736,-0.010250471,-0.05327645,-0.042592093,0.001393148,-0.00045039534,-0.012082855,0.097703554,0.078030944],[0.011300838,0.006419374,0.0043675257,0.0011801411,-0.0031367696,-0.00025486245,-0.000060407467,-0.009964918,0.00000563411,-0.0005389687,-0.0006392037,0.00022658629,0.00007125813,-0.0001254586,0.010248515,-0.0018625912,-0.0005478872,-0.0016362339,-0.005608721,0.00021390416,0.0022327802,-0.00020323884,0.0006865421,-0.002210055,0.0011175573,0.0011534137,-0.006948113,-0.037292186,-0.012467475,-0.012281541,-0.0034059915,-0.00031768106,-0.0006974304,0.00045704553,-0.0016903905,0.0054886136,0.009235254,-0.0044189673,0.006025737,0.00012789162,0.00085534866,0.0011324841,0.00015487522,0.000039467286,-0.00004733391,-0.010971632,-0.00097652385,-0.000754537,0.00065319746,-0.0036146033,0.00026324298,-0.0015051477,0.001210903,0.00039678553,0.0015532348,-0.0008672059,-0.0024031438,-0.0167778,-0.056145262,-0.0046128067,0.00050613744,0.0071094334,0.0019665596],[-0.4102341,0.04621408,-0.20358482,-0.5185456,-0.6060773,0.26959938,0.02157557,0.22116518,-0.10248555,-0.106794596,-0.105912894,0.12435489,0.16182108,0.27655658,-0.25361788,0.22593293,0.21874717,-0.032973964,-0.05179149,-0.0618345,0.3653963,0.14620212,0.04799802,-0.3796665,0.00036474285,-0.2280777,-0.0784316,-0.0033785051,-0.027939083,-0.11228805,-0.44654828,-0.36655006,-0.41031057,0.4123521,0.5089535,0.4311786,-0.13105851,-0.069378935,-0.08012346,0.25793874,0.12543224,0.34579292,-0.26288608,-0.14306538,-0.16785248,-0.2594585,0.15484536,-0.005975637,-0.092437506,-0.035614565,-0.03812675,-0.38627225,-0.09757065,-0.069373555,0.0006781291,0.22377379,0.4575183,0.12483281,0.23261712,0.055137377,0.2452921,0.2596317,0.49481162],[0.00020208726,-0.05644389,0.051422954,0.03204537,0.06949022,0.02165776,0.006337919,0.039547175,0.050286308,0.030848015,0.024560856,-0.0038575376,-0.03230612,-0.021086022,-0.057163972,-0.032322228,0.0012730405,0.02352329,0.022722423,0.011598627,-0.035303485,0.012272263,-0.0065595,0.059377354,0.036738593,0.062761605,-0.0181621,-0.0323216,0.0119475,0.05661166,-0.021911828,0.012397887,0.030714301,-0.018428443,-0.10933662,-0.046653744,0.0009337716,-0.2497598,0.04220361,-0.008319933,0.0008312973,-0.07585567,0.03592087,-0.0010597231,-0.022691619,0.01634868,0.013931801,0.023530958,-0.008328181,-0.021127177,-0.04426766,0.026778642,-0.06073572,-0.0841231,-0.035537075,0.044409797,0.059473544,0.02728696,0.056217678,-0.4140467,0.071900636,-0.09190224,-0.09152601],[-0.37384894,0.2025974,-0.19734131,-0.38268933,-0.37997496,0.14798422,0.05216984,-0.063507475,-0.068121165,-0.1324308,-0.09469465,0.17825526,0.2042663,0.18172292,-0.14588965,0.17016454,-0.2895073,-0.20852944,-0.36849096,0.27388343,0.29382917,0.16074376,-0.06364446,-0.053600352,-0.17651121,-0.26991642,0.14110078,0.154127,-0.04744604,-0.06383075,0.046583403,-0.21928786,-0.37473693,0.3839943,0.45182195,0.33544928,-0.031366985,0.15417823,0.11767707,0.09046486,0.10107362,0.15579012,-0.13266002,-0.22126128,-0.15696703,0.020145997,0.1216873,0.26526922,-0.12943342,-0.12472084,0.11101794,-0.2224698,0.024948895,0.016266854,0.12135624,0.1368175,0.15760356,-0.086027935,0.09968752,-0.0055442555,0.15935701,0.32098982,0.47283968],[-0.008112314,-0.06288774,0.13046138,-0.016182534,0.025798514,0.11901009,-0.0008454811,-0.0012009022,0.05946328,0.016365208,-0.011013502,-0.028795004,-0.013977403,-0.03206679,0.045829836,0.038401805,0.03310702,-0.0030676618,-0.059052687,0.01255659,0.007815779,0.056240678,0.06354575,0.008607909,-0.03567664,-0.08747541,-0.07435064,0.018503843,-0.01396305,0.03785274,0.32406437,0.21159399,0.010706085,0.038222034,0.028058428,0.059359655,0.013460269,0.008035222,-0.1141147,-0.054074753,0.0027006143,0.06770576,0.0023209204,0.025649175,0.065060616,-0.0095232,-0.034783702,-0.018334324,0.017847953,0.026049163,0.03989092,0.11691419,0.0991813,0.09853714,0.03675491,-0.027674092,-0.054029107,0.034507588,0.0076191383,-0.15697728,-0.2630541,-0.116682574,-0.010636212],[-0.17834239,0.33562556,-0.18800576,-0.33377907,-0.13245815,0.2964131,0.1257348,0.18319488,-0.16146326,-0.14987348,-0.29183763,0.20619814,0.086540624,0.12415671,0.24230474,-0.35062078,-0.14117415,0.039101038,0.110588305,-0.029346272,0.38387305,0.09032165,-0.009686087,-0.09982498,-0.08161518,-0.2733467,-0.10403584,-0.027986262,-0.16261835,0.012528541,-0.08254381,-0.2897533,-0.42613643,0.37730396,0.28711852,0.3929853,-0.1379587,-0.037263144,0.044534273,0.15391964,0.10185259,0.13420805,-0.1844362,-0.21058246,-0.26698703,0.34795517,0.1175744,0.19705267,0.18077324,0.3683762,0.17193894,-0.27908722,-0.0058867815,0.15427133,0.3063135,0.20031285,0.20788506,-0.027361276,0.04461784,0.25727022,-0.00018359006,0.19455054,0.55795777],[0.009058336,-0.17442,-0.131426,0.003869563,-0.106539994,-0.024024129,-0.029735012,-0.054099638,0.036791325,0.05233773,-0.002321506,-0.051021695,-0.050834864,0.0061298343,0.034298275,-0.012356278,-0.008433212,0.015917668,-0.019779285,-0.00633415,-0.0047662146,0.12446933,0.092268005,0.037211124,0.00031190453,0.0030002615,0.06944903,-0.104267225,0.05609638,0.040545978,-0.48373896,-0.1592133,0.0499054,0.0909374,0.08067755,0.1606349,-0.008837772,0.21224517,0.058095723,-0.013097169,-0.08395253,-0.017796144,0.093033075,0.12227741,0.044992756,0.015332746,-0.026876787,-0.009653045,-0.00020751278,0.002206108,-0.034199987,-0.0059237764,-0.17015786,-0.10262711,-0.06266561,-0.03795877,0.03823292,-0.04164287,0.12435807,0.28374577,0.10539648,0.07537766,-0.085041694],[-0.013938716,0.040697157,-0.017021643,0.005497104,-0.049600456,0.0046363533,0.06271082,0.076822974,0.00953453,-0.04429039,-0.04945931,0.040388472,0.0003038389,-0.0018177787,0.029355291,0.01160669,0.011357898,-0.007454717,-0.04316529,-0.052884236,-0.019423261,-0.10064671,-0.12844408,-0.050923306,-0.019354131,0.026789263,-0.002730693,-0.0025749188,0.14671454,0.1998869,0.04505029,0.0007321209,-0.050849084,-0.1475546,0.020734029,-0.0040526637,-0.13851744,-0.008747148,-0.028564649,-0.012701742,0.04072595,0.0019527811,-0.003131718,-0.0003260566,-0.003175508,-0.06566379,-0.057093278,-0.043743074,0.012135293,0.0536171,0.0050125136,-0.07493267,-0.015399942,-0.05313955,0.0047032903,0.0050415653,0.08038565,0.11447564,-0.01143086,0.031437732,0.0028799318,-0.3514463,-0.1527794],[0.24850766,-0.3524624,0.39464444,0.3488662,0.57230544,-0.20430304,0.003840859,0.118985526,0.2790494,0.27513778,0.28378466,-0.27815095,-0.3688305,-0.22207844,-0.1652366,0.024746137,-0.023158614,0.071517095,0.117176674,0.2559631,-0.4539277,0.028887808,-0.035589747,0.1452835,0.55825543,0.49949488,-0.12523688,0.1260365,0.27539834,0.11236458,0.40861943,0.49874663,0.24322371,-0.09490124,-0.35989568,-0.6057822,0.41922092,0.12692648,0.25529525,-0.2279798,-0.30652675,-0.20397133,0.19435889,0.21231112,0.17960617,0.13597772,0.23540826,0.19924472,-0.19133577,-0.03424507,-0.039480902,0.40110803,0.060887963,-0.004136025,-0.26310524,-0.28255355,-0.3563776,0.15373863,0.18596458,-0.11172778,0.1488161,-0.2514454,-0.509256]],"hidden_biases":[-0.046248484,-0.040767293,-0.23908155,-0.15977688,-0.12191666,-0.04211003,-0.061649077,-0.105567046,-0.0961181,0.08048479],"output_weights":[[-0.18787952,-0.11244832,-0.34306982,0.23612215,-0.22894956,0.39898428,-0.36071724,0.27913365,-0.42928132,0.42516312]],"output_biases":[0.07027974]}