{"hidden_weights":[[-0.07582912,0.27386263,0.09256135,0.18442655,-0.023737652,-0.07547455,0.09135558,-0.038266655,-0.014546327,0.12334716,-0.106325425,-0.109595805,-0.09286473,-0.07273774,0.087119445,-0.32637215,-0.031489577,-0.0060871285,0.003415006,-0.24876946,-0.054707225,-0.027686395,0.06742224,-0.062942445,0.032683846,0.04393861,-0.33032578,0.1260376,0.130154,0.05998803,0.07754142,0.097488984,0.25968644,-0.28980875,0.12514749,-0.3280194,-0.21435778,-0.133213,-0.25191602,-0.5783707,-0.04852813,0.2406976,-0.00064779224,-0.1759106,-0.03447839,-0.14013618,0.18055081,0.11814332,0.0018625427,-0.015915975,-0.12954284],[0.029886605,0.31495538,-0.21539645,0.21985006,0.07344073,-0.08041982,-0.20120724,0.08521162,0.19386566,0.05866827,0.15902793,-0.27993476,0.018720403,-0.23234113,-0.17131504,-0.13908933,-0.38360032,-0.0016057802,0.13352829,0.14025083,0.11265452,-0.06858228,-0.25821465,0.09493459,0.109942146,0.082392566,-0.10372282,0.24966136,-0.35455814,-0.2400208,0.11074696,-0.13882452,-0.23152569,0.014566907,0.07569853,-0.18979412,0.25164002,-0.14098793,0.20559196,-0.09837254,-0.3450575,-0.13082233,-0.30268043,-0.00008725845,-0.0014439683,-0.06940224,0.16551091,-0.21449171,0.29513386,0.53724444,-0.098171644],[-0.08444546,0.12196525,-0.06499562,-0.20159268,0.016899008,0.1134144,0.068327636,-0.032055102,0.24500935,0.24112861,0.24695182,-0.0017720857,-0.20377842,0.21542054,-0.22381969,-0.06356969,-0.25616142,0.29649207,-0.20614776,-0.1414234,-0.106246516,-0.043406587,-0.005411749,0.025071345,0.047098037,-0.101808585,0.26706553,-0.01746355,-0.11811764,-0.12934281,-0.11938767,-0.050600328,0.009468789,0.4845865,0.295493,-0.20565446,0.41488278,0.10569353,0.18489699,0.15009299,-0.13357149,0.09676566,0.029985044,0.032404035,0.29532245,-0.24814633,-0.36016843,0.08439691,-0.3770792,0.10141028,-0.204308],[0.0028445548,-0.2851345,0.042979673,-0.0363998,0.021710152,0.039291114,0.19181713,0.16185303,-0.13805652,0.067067966,0.0038474966,0.14752567,-0.11081547,-0.20916907,0.18087739,0.042287927,-0.16195077,-0.00062091724,-0.00089036865,-0.01814672,0.25119,-0.082037255,-0.28918764,0.007941634,-0.19356528,0.0019753715,0.07095276,-0.02209671,-0.31041738,0.24872552,0.09344737,-0.06431873,-0.33284134,-0.27223173,-0.115742095,0.1184291,-0.037792835,-0.2547734,-0.057481922,-0.020567488,-0.22248468,-0.28003484,0.013877188,0.031331252,0.10945533,-0.05663328,0.15235786,0.1254205,0.05903918,0.24236365,-0.13368192],[-0.17597301,0.1500197,-0.05074731,0.21922714,-0.0036043043,-0.37512767,-0.17685586,0.054619186,-0.16144061,-0.30143726,0.15454724,-0.0477603,0.11788607,-0.020416398,0.31304404,0.1836384,0.40649623,0.14707261,0.34453014,-0.0060192733,-0.06384207,-0.29166502,0.03888575,0.070647515,0.074577756,-0.27071944,-0.12320588,0.042339347,0.17368276,0.07626807,-0.08836362,-0.17248611,-0.13758372,-0.012871016,-0.08422666,0.10295382,-0.09952106,0.569102,-0.2611121,-0.018097736,0.13228592,-0.4551563,0.30545864,-0.040637527,0.08308894,0.050986294,0.024040414,0.14339072,0.12100744,-0.3140298,-0.02464227],[0.2435555,0.26526532,0.4052764,-0.07296008,-0.25030112,-0.20179787,-0.123066865,0.3710659,-0.17396782,0.2900901,-0.14039972,-0.25265715,0.055740286,-0.065597415,-0.33240923,-0.053179715,0.1178509,0.00238861,0.37412864,0.2131735,0.071647756,0.19037987,-0.05801752,-0.0034521632,0.23164667,0.033055767,-0.13590267,-0.037534125,-0.23147778,0.13856065,0.081436545,0.08157052,0.42341778,-0.039727345,0.103923656,0.4335416,-0.12605856,0.08018666,0.0024622395,-0.1146462,-0.057415966,-0.06779406,0.111284696,-0.1357066,0.11727703,-0.26602235,0.24521473,-0.08050704,-0.0794549,-0.052391943,-0.036363605],[0.09707327,0.30605915,-0.022914164,-0.6102063,0.17643154,-0.047735035,-0.07647038,-0.09806194,-0.08307305,-0.031058338,-0.110821545,-0.1521463,-0.057961155,-0.17629923,-0.019736852,-0.41737446,0.1997759,-0.037993144,0.07064771,0.00043834824,-0.076981954,0.007879397,-0.27145693,-0.10409159,0.025436606,-0.4897446,-0.0006576447,0.538944,0.39464787,-0.14409877,0.036615554,-0.016717952,0.0815374,0.27385253,0.0050804513,-0.09281976,0.07510215,0.007369277,-0.38668662,0.1598538,0.0373364,0.33032942,-0.23838691,0.3092312,0.006659212,-0.3770726,-0.22671859,0.3221839,-0.13760029,-0.22664997,-0.2950323],[0.1877774,-0.23414329,0.073293425,-0.21684462,0.17394474,-0.24500428,-0.15990776,0.22114693,0.06077969,0.42479008,0.029951677,-0.12678446,-0.27143985,5.861804e-13,-0.054357115,0.050397657,0.092766106,-0.08510342,-0.11735814,0.13030235,0.15965968,0.18780774,-0.047008682,0.27294126,-0.16349068,-0.056088675,0.25190845,-0.15898885,0.1863174,0.17851946,-0.0740729,0.0045001158,-0.12087542,-0.05427192,-0.014346437,-0.22245446,-0.045749154,-0.012650808,0.068149455,-0.17265227,-0.20056896,0.008076973,0.08860726,-0.098804146,-0.0045669293,-0.149892,-0.07679248,-0.14209597,-0.0017943679,0.28380257,0.29935893],[-0.009977963,-0.021764843,-0.036344193,-0.15803333,-0.0026007094,0.17305467,0.06695411,-0.13739793,0.015911194,-0.24774785,-0.31143758,0.08479042,0.19345742,0.03423253,0.11754993,0.33073792,-0.36101365,0.18643226,-0.30912077,0.07558709,0.14448597,-0.413816,0.5024203,-0.022549711,0.05007372,0.022250844,0.04563764,-0.059552163,0.13306934,-0.168438,0.011960194,0.10585296,-0.35980898,-0.045680847,0.173132,0.07927054,0.092784345,-0.037969273,-0.039957616,-0.035558637,-0.15518346,-0.38347238,-0.25425145,0.056345142,0.0014716566,-0.0599309,-0.023778122,-0.0036823675,-0.028436579,0.012420826,0.22647011],[0.09041241,0.15145732,-0.44484153,-0.03172819,-0.17874156,-0.08071085,0.14964752,-0.10516745,0.14344715,0.0036370887,0.1910259,0.52726305,-0.052175384,-0.12883675,0.10487115,-0.08694505,0.15818228,0.005050144,-0.17127664,-0.23766755,-0.061226323,0.086285,0.02821933,0.032403093,-0.14995593,0.34246153,0.25803515,-0.13239233,0.123961546,-0.49208385,-0.027702011,-0.034274787,0.0632036,0.0123678055,0.16191548,0.19702698,0.17427857,-0.28394932,0.039758496,0.3798288,-0.013325451,-0.15249547,-0.048054114,-0.14326005,0.057047598,-0.021719515,0.19231103,0.2899311,-0.0010845454,0.08893523,0.20435922]],"hidden_biases":[-0.031663273,-0.02787114,-0.026802558,-0.0262316,-0.022083186,-0.02091749,-0.008958107,-0.0026573066,-0.030566445,0.03135729],"output_weights":[[0.25837958,0.17486499,0.39357716,0.49236068,0.02907796,0.2749833,0.112345815,-0.31382877,0.5184456,-0.21834381]],"output_biases":[-0.0309504]}