{"hidden_weights":[[0.014103578,0.20890418,0.332204,0.14228164,0.108730756,0.051693715,0.08128293,-0.3202357,0.23315775,0.2931619,0.08004339,-0.23160909,-0.2197326,-0.22291677,0.03955869,0.13229026,-0.105685115,-0.022640828,-0.033205386,-0.007031108,0.20560144,-0.08942216,0.081709675,0.31836793,-0.1384859,0.2914321,0.05561777,0.140392,-0.10003733,-0.097536065,-0.5234732,-0.16242258,0.065002374,0.108630374,-0.12890482,-0.05919261,-0.075127535,-0.2732943,0.07762302,-0.06662586,0.00813806,0.095246464,0.18363516,0.05588693,0.026426608,-0.32426617,0.041518856,-0.3414592,-0.15940548,0.04104734],[0.21595529,0.27193516,-0.016853219,-0.082640335,-0.07440354,-0.1541851,-0.013147071,-0.36877424,-0.04364126,-0.4526878,0.25350827,0.11920457,0.19144607,-0.41167593,-0.24931371,-0.22833245,0.16715562,0.051387664,-0.023974715,-0.2716946,0.11517038,-0.03278974,-0.16421746,-0.099535674,0.079884805,-0.21371947,-0.31448388,-0.2481387,0.34973705,0.012734912,0.47649273,0.10863568,0.068756536,0.10274501,-0.05966671,0.21351719,-0.33138052,-0.014478047,0.1253821,-0.20490852,0.27245313,0.07713102,0.025159527,0.13286956,0.017142277,-0.19015692,0.28142422,-0.17169009,0.051208287,-0.19190522],[0.1330739,-0.359784,-0.15310636,-0.07351191,0.28248066,0.37148246,-0.06362225,-0.18777709,-0.06530171,0.11582755,0.16271655,0.17299108,0.27213898,-0.10502918,0.014037107,-0.25952336,-0.09430463,0.044082727,0.36582765,0.09867514,0.17451058,0.023336368,0.3140463,0.04513074,-0.10930749,0.10095107,-0.05190131,-0.1316665,0.11530286,-0.0028715988,0.056595694,-0.34618303,-0.1700304,0.16422191,0.24675687,-0.00897495,0.12371427,-0.13398306,0.20856288,-0.14662692,0.27813336,-0.07478313,-0.11836971,0.06724912,-0.29042223,0.10563215,-0.16588116,0.2825402,0.08842514,0.15350354],[0.024716904,-0.0386789,0.023281503,0.24839906,0.43047872,-0.017536849,0.18188442,-0.03010307,-0.3968489,-0.13561462,0.08922145,0.041391242,-0.017150572,-0.12962542,0.11726015,-0.5404567,-0.10023989,-0.2002069,0.09437348,-0.37222037,-0.15163024,-0.028734583,0.53965086,-0.06605593,-0.21221188,0.2534138,0.27683973,-0.40310192,0.27529094,-0.11912586,-0.30857834,0.015122394,0.32722658,0.32282677,-0.029282754,-0.116568826,-0.10346806,0.05374838,0.14832714,-0.08697521,0.3938432,-0.043033637,0.087697886,-0.42484614,-0.16749915,0.4150996,-0.16272517,0.054282505,-0.11302715,0.14198646],[-0.09890478,-0.11625153,-0.43497053,0.2810435,-0.3516377,-0.20293732,0.048911896,-0.13261525,-0.13143218,0.040032376,-0.012295728,0.100921,-0.09232589,0.30976185,0.24717651,0.04792997,0.44681522,0.058713425,-0.44065267,-0.38447842,0.13592559,0.016134413,-0.29388753,0.46766067,0.19367541,0.12777357,0.10855933,0.05897335,0.1894392,0.29845077,-0.16102411,-0.15258665,0.029467745,0.31299946,-0.06517978,-0.14798151,-0.2819825,-0.19558345,0.25594658,-0.09247387,-0.18001395,0.044413887,0.13342747,0.026347911,0.003034019,0.15274094,-0.1400479,-0.16355877,-0.055357326,0.04904854],[-0.28169736,-0.1419377,-0.4972318,-0.115780294,0.343811,-0.016967658,-0.17959371,0.03278799,0.10287271,-0.48483703,-0.119120434,-0.17801534,0.17049743,0.006848278,0.35898829,0.09408846,-0.06120344,-0.2239682,-0.35704142,-0.2083879,0.06534339,-0.18727389,0.0064590336,-0.09400739,-0.11469003,0.08493508,-0.16428249,-0.3113563,-0.27423784,0.05636255,-0.3393132,0.062890254,0.02624162,0.17799185,0.066607796,0.16829646,0.10345217,-0.28517643,-0.004456066,-0.16695882,0.0073464946,0.09671872,-0.31549722,0.2606844,-0.16573171,0.22698808,0.27718398,0.25359535,0.17505592,0.2708018],[-0.037943143,-0.21152599,-0.013814238,0.08248624,0.07464531,-0.2950316,-0.0034715552,0.46657386,-0.2748542,-0.15864392,0.24314402,-0.04341278,-0.07142982,-0.15723465,-0.19562344,0.10647515,-0.13727243,0.33276019,0.26141807,-0.088077046,0.028193448,0.17989914,0.07320714,-0.12401753,-0.032403335,-0.018509826,-0.5228652,0.06765362,-0.17379478,0.07950633,-0.09290144,-0.039304394,0.04762305,0.12362027,-0.022304999,0.6103679,-0.15233634,0.105058014,0.013073399,0.2981712,0.5016667,-0.22816733,0.004501192,0.21911581,0.00077995163,-0.010075792,-0.15095828,0.21729635,-0.07877159,0.016532889],[0.20509188,-0.052506756,0.05365562,-0.2742496,-0.25865778,-0.33426654,0.14335926,-0.26312932,0.063381694,0.19205935,0.050604213,0.13176085,0.2123202,0.22824447,-0.0032908984,-0.0048524095,0.01597019,-0.017557807,0.25700203,0.070862845,-0.123097636,-0.04910932,-0.24449359,-0.013583983,0.15891393,0.11263677,-0.3325155,0.060282286,0.20061491,-0.2627667,-0.11191324,0.41659257,0.11260891,-0.05759223,0.17769147,0.05883458,0.06413575,0.21403027,0.011891938,-0.23158868,0.003988971,0.09080654,0.12134756,-0.035861515,0.36094135,-0.048967354,0.17328775,0.030131767,-0.4098527,0.10019144],[-0.2035661,0.2573326,0.07936902,-0.07953065,0.2885963,-0.14826366,-0.1518347,-0.041376345,0.22481318,0.37021083,-0.009148038,0.16982882,-0.34843883,-0.09372168,0.21603289,0.23296581,-0.20165996,0.055504885,0.36311692,0.20764656,-0.10801589,0.13572545,-0.6547195,0.05383542,-0.056658536,0.31529146,0.0142134,0.09976389,0.025365695,-0.027384061,-0.4290146,-0.10664483,-0.05733365,0.16236988,-0.14099903,-0.006267561,-0.04024465,-0.23194428,0.37591013,-0.0028134384,0.23418827,0.5267308,0.07366913,0.05847438,-0.05847575,0.087497436,0.24805152,0.07764659,0.11795163,0.070189826],[0.04890527,-0.24605976,0.08548215,0.019670345,0.0710714,-0.31996235,-0.17274016,-0.12510155,-0.11025083,-0.30809787,-0.24596353,0.05251933,-0.113917865,0.0058677006,-0.2308557,-0.07314466,-0.1739692,0.11985971,-0.31424803,-0.3012772,0.024114167,-0.14400923,-0.23722295,0.167011,0.40699777,0.05878658,-0.37172908,0.053356495,0.18969163,0.24092357,0.18128327,-0.08136197,-0.2582711,-0.15418528,-0.18266319,0.030708421,-0.012368415,-0.17818409,-0.009998226,0.1878459,0.038261604,0.14880662,-0.002944476,0.06076863,-0.34752417,0.068617694,-0.056888647,-0.15380836,0.14553031,-0.43902215]],"hidden_biases":[0.0,0.0,0.0,0.0,0.0,0.0,0.0,0.0,0.0,0.0],"output_weights":[[0.33526582,0.22373575,-0.30505353,0.25700647,-0.7030355,0.26181012,-0.70283103,-0.26551884,-0.24664003,-0.2614832]],"output_biases":[0.0]}
