{"hidden_weights":[[0.07367817,0.026368,-0.014674115,-0.23072445,-0.01702062,0.21186392,-0.11532764,0.120592594,-0.08957044,0.10163468,0.14358632,0.2553969,0.012652484,0.019126363,-0.13093373,-0.18428673,-0.22381458,-0.12587981,0.12590212,-0.08541603,0.257132,-0.21720237,-0.06038244,0.06960669,-0.08712592,-0.091033846,0.2396557,-0.48073202,0.13562855,0.16978686,0.27149206,-0.2691583,-0.3014928,0.2703848,-0.2728256,-0.25863156,-0.049425382,0.17279957,0.13466655,0.11884447,0.07640199,-0.047313735,0.13083464,0.051099624,0.08902438,-0.0063016503,0.016721033,0.09969694,-0.107896,0.1029452,-0.120289735,0.09930158,-0.13735133,-0.0026335681,0.21151717,0.0514382,0.024152368,-0.18576866,0.09928537,-0.037761364,0.17473719,0.25089443,-0.14505951,-0.099471115,-0.012791204,0.25470915,-0.20420533,-0.0361692,-0.18882436,0.14813039,0.044136126,-0.016380373,0.1546358,-0.3517704,0.029835684,0.085435495,-0.068746194,-0.21534714,0.14602947,0.09555309,0.048358,0.077904664,0.049502224,-0.17946976,-0.23126523],[0.05203691,-0.10143021,-0.1423571,0.1262994,0.012198864,-0.15665297,0.16943288,-0.06898558,0.07376031,-0.1326158,0.11145864,0.38405687,0.15834557,0.21815903,-0.300003,-0.15518445,-0.10776936,-0.18485674,0.009311393,0.14095134,0.07267664,0.07372848,-0.13289525,0.1318714,-0.05006196,0.035266712,-0.46527493,-0.014770133,-0.026234122,0.056082755,0.11296809,0.049886387,0.17919509,0.042911608,-0.0053079855,-0.03306342,-0.11085536,0.024071664,0.024845188,-0.07826435,-0.03834972,0.24022153,0.02254478,-0.07799112,0.018452734,0.09468829,0.22264443,-0.049800992,-0.18289874,-0.15818629,0.13910477,0.17310299,-0.07190153,0.35703957,-0.062107667,-0.09868123,0.1379903,0.104642674,-0.043749917,-0.19494846,0.03343969,0.22521575,-0.22039153,-0.033952642,-0.03334534,0.028951474,-0.074901894,0.11017734,-0.023883143,0.110829525,-0.24115984,0.03685708,-0.07138493,0.18760955,-0.20086254,0.09436884,0.034628734,0.089913875,-0.09756099,-0.14130493,-0.14306329,0.09399068,-0.020441031,-0.11714102,-0.016269414],[-0.040058322,0.04634933,0.0016881876,-0.1625708,-0.22909456,0.17167428,-0.28305337,-0.03806626,0.0022732273,0.12697671,0.064981915,-0.15447636,-0.13307649,-0.093397126,-0.05132471,-0.04843605,-0.2123554,-0.11662439,0.14671256,-0.12135238,0.12015629,-0.22594285,-0.0700143,-0.16628385,-0.03244196,-0.1428245,-0.0054775486,0.35257727,-0.09977066,0.0488647,-0.15544525,0.21701518,-0.21670957,-0.10639542,0.027541041,-0.093357936,0.16727379,0.1483172,-0.12273181,0.22682677,0.18997048,0.11361279,0.04207974,0.014269593,0.0026632296,0.06791926,-0.022974985,0.3408928,-0.19248144,0.17167039,0.2860554,0.028771415,0.24525149,-0.018664792,-0.021933973,-0.1582914,0.031957045,0.20298308,0.41123024,0.015443087,-0.12659976,-0.15581946,-0.07250705,0.1028594,0.20169385,0.14818949,-0.17936058,-0.10990496,0.11636793,0.19939363,-0.007594238,0.24233803,-0.29222122,0.11694551,0.099293366,0.051672854,-0.042274505,-0.13158737,0.3712336,-0.052539654,0.25285208,-0.11848787,0.00059269986,-0.06925368,0.06250019],[0.15910892,0.3106616,-0.13186383,0.073081665,0.20097071,0.26009336,0.047515742,-0.025874685,0.13867536,-0.03378963,-0.09088642,0.23949012,0.056732215,-0.25223306,-0.073879056,0.23894043,0.06499445,0.16319837,0.24033828,0.035182208,-0.34360605,0.03928833,0.00016672756,-0.017381713,-0.119968615,0.1783286,-0.1612185,0.21049973,-0.22719133,-0.050429735,-0.09014809,-0.05796414,0.1005654,-0.0703971,0.13117738,0.15970238,-0.04459453,-0.15836604,0.18521236,-0.009467931,-0.19900517,0.13657968,-0.13467707,0.11421472,0.009117538,0.026501333,-0.002998419,0.29361206,-0.09995237,0.073061176,0.09143337,-0.066303805,0.16535331,0.17175663,0.018703327,0.03125992,0.37279186,-0.07543752,0.055621546,-0.14937711,-0.16647789,-0.22350937,0.1838926,-0.16097997,-0.09913133,-0.0402111,-0.017074598,-0.053353332,-0.09084931,0.0605257,0.45633593,0.094516166,-0.13448368,-0.16006237,0.2550059,0.2324894,-0.015281552,0.045758247,0.024600018,-0.07972266,-0.1114172,-0.024472488,-0.078888394,0.065828964,0.24163277],[0.20890674,0.3060482,-0.06597202,-0.1407772,-0.31991494,0.037074815,-0.0619052,0.12871966,-0.09265714,-0.039712932,0.15146142,-0.05493965,0.16667098,0.118595056,0.06440216,-0.114622384,-0.071551226,-0.15250905,-0.09750483,0.15205203,-0.09784205,-0.13787398,-0.23200719,-0.046801858,0.013578774,-0.24964276,-0.049006183,0.08970057,0.017515525,0.08165942,0.057569724,0.21830589,0.018248808,0.057784658,-0.0108520165,-0.18099283,0.16872616,-0.15442257,-0.043998666,0.06359674,0.28845143,-0.09244698,-0.1341015,0.029202836,0.180065,0.15585026,-0.074406795,-0.062465526,0.09134124,-0.17549624,0.15135561,0.120824106,-0.16185868,-0.06067046,-0.112431996,-0.1318973,-0.15015998,-0.10724736,0.1143804,-0.10439121,0.11775591,0.017096097,0.056950305,-0.094995454,-0.04635329,-0.06815828,-0.0032623634,-0.04984815,-0.034002893,0.15390645,0.23080523,-0.022152074,0.024330454,0.0103633525,0.085012674,0.023764342,-0.18724716,-0.102319695,-0.029929455,-0.21275043,0.06184094,-0.10569178,0.15278156,-0.16214684,-0.1838044],[-0.06582141,0.16964808,0.2380656,0.2771397,-0.49915174,-0.030457845,-0.23606044,0.08122303,0.12241829,0.07618791,-0.07537676,0.19828388,-0.22191025,-0.03453524,0.021390317,0.09608375,-0.053244274,-0.29933417,-0.028367886,0.032791708,-0.09663775,0.14780423,0.18505298,0.023001045,-0.13138817,-0.1162243,0.29662737,0.019095907,-0.03324649,0.37251338,0.058858234,-0.17819181,0.14251412,-0.27327457,-0.22686267,0.23356368,-0.013274386,0.035350356,0.08581998,0.014318783,-0.010974784,0.080177404,0.020629497,0.11038965,0.349081,-0.17601182,0.111436546,-0.01462338,0.1320962,-0.020969203,0.07167992,0.031014895,0.22965166,0.021852015,-0.06438505,-0.30593792,-0.01257842,0.012353547,0.33324596,-0.03295415,-0.06661187,0.103436105,0.10161676,0.3100014,0.15432595,-0.07075624,0.104667485,0.0237201,0.005761627,0.1034421,0.10997411,0.10847853,0.2599016,0.004286528,0.06577542,-0.23217838,-0.2036338,-0.1495502,-0.32689443,0.14820102,0.1788487,0.025570307,-0.07161512,-0.17166325,-0.04456262],[0.09219518,-0.01349897,-0.014543794,0.020889744,0.11212143,0.18603511,0.08630003,0.045675598,0.046424247,-0.17501593,-0.31978366,0.041312333,0.1442116,-0.3088733,0.051521905,0.053339757,0.054808088,0.037829664,0.023937449,0.15796831,-0.12956901,0.16006407,-0.016450712,0.04119355,-0.15369964,0.079705596,0.13548023,0.0154568935,-0.113391966,0.1198518,0.12782735,0.1518855,0.1604575,-0.018651402,0.23326406,-0.043578047,-0.084652886,-0.044714022,-0.08950467,0.22952251,-0.2925382,0.30594543,0.07602992,-0.05300161,-0.14299749,-0.23364162,0.0020108803,-0.14087325,-0.034505975,-0.15635046,0.028265037,0.17422125,0.029446958,0.02592773,0.08923506,0.20852028,-0.11189229,0.08619483,0.024537573,-0.014114258,-0.09043127,-0.09091864,-0.026085475,-0.048274625,0.102288514,-0.1161474,-0.09589062,-0.12271275,-0.0007451127,-0.11993151,-0.00741757,-0.1270991,0.12349025,0.28716263,0.30931717,0.17376746,-0.12411206,0.2443,-0.09543565,0.11459798,0.16950656,-0.12706237,-0.0230802,0.08741409,0.01572685],[0.0069009895,-0.15323749,-0.20705941,0.24307348,0.24372281,0.15922707,-0.35671484,0.17479703,0.059296127,-0.14187403,-0.42814848,-0.07856031,-0.15372549,-0.06490275,0.0447197,-0.096592896,0.499597,-0.1378097,0.20558642,-0.1743362,0.055409286,0.047758188,0.13938788,0.025138984,-0.13974567,0.013732278,-0.11898757,-0.16849738,0.08639794,-0.020712556,0.035081234,-0.18712062,0.08004664,0.070625976,-0.31571925,-0.12386969,0.10689072,-0.21021828,-0.27032623,0.034900334,0.12127396,-0.010837124,-0.23765385,-0.01527067,0.153282,-0.24651334,-0.12279612,-0.20732592,-0.24785727,-0.111015506,-0.13609843,-0.13709001,0.115704484,0.082403876,-0.11473891,-0.025838241,-0.031585924,-0.001880204,0.09778853,-0.054253004,-0.105954476,-0.06744715,-0.087572545,0.028470809,-0.012065945,0.14703672,-0.03282039,0.08548223,-0.19941413,0.14213876,0.12225727,-0.018581798,-0.028106194,-0.066679426,-0.09326897,0.06155753,-0.07143188,-0.086292654,-0.092492975,0.18835549,-0.045617785,0.13433057,-0.16466004,-0.01707149,-0.08612742],[-0.07227008,0.08021414,0.06853893,0.012740305,-0.014379458,0.043973427,-0.14851251,0.15235421,0.113978155,-0.2880367,0.094548985,0.06911828,0.046155956,0.26210195,-0.16853592,0.24536213,-0.2150809,-0.07357678,0.12148051,-0.17929624,-0.2129253,0.18083297,-0.13598947,-0.23653041,0.011338453,-0.25872496,0.117213055,-0.10965113,-0.013119045,0.10372625,-0.20494387,0.12155076,-0.14481607,-0.014543961,-0.056782816,0.08939161,-0.024179256,0.07740973,0.05771942,-0.046486124,0.29460797,-0.10714166,0.056271795,0.090624236,-0.017035242,-0.08178573,-0.14177856,0.03941218,0.07519077,0.0770313,-0.0022455554,-0.0784049,0.17398323,-0.16158311,0.13060121,0.09481638,-0.09217905,-0.05755488,-0.024540985,0.07109906,-0.132491,0.21951,0.17735286,0.024984583,0.019431313,0.000007174937,-0.12156999,-0.15535213,0.017324012,-0.05085337,-0.15127742,-0.21877569,-0.082707696,-0.13262309,0.28947586,-0.19787881,-0.030520078,0.075069465,-0.15612334,-0.24420439,-0.34954086,-0.18643816,-0.0011818678,0.007517058,-0.114804536],[0.08124474,-0.038926803,0.15716565,0.046352822,-0.03942241,0.048049483,-0.22418915,0.034815103,0.0495143,-0.03169199,0.11193489,0.25409088,0.13149074,0.054969396,0.11842126,-0.10139227,0.121233664,-0.2012567,-0.015270063,0.03538733,0.0837084,0.020338746,-0.007817382,-0.037716787,0.20403202,0.12455236,0.17422158,-0.024910245,-0.12242278,-0.27846077,-0.24468309,0.2112278,0.01665329,-0.2120759,-0.12452337,0.24858099,0.18466659,0.040160555,0.08479889,0.30586758,0.17205931,-0.18364435,-0.06742,-0.034341104,-0.23042583,0.057558395,0.19632725,0.13659164,0.13141471,0.10413489,0.05191365,0.106705636,0.12934315,0.04084255,0.077304475,-0.28892177,-0.06661403,0.04792841,-0.02321297,-0.26167938,-0.2468251,0.12201042,0.03220414,0.13312966,0.004356267,0.11690296,0.09819913,-0.13347581,-0.1535839,-0.013899225,0.06553145,-0.18289527,-0.088007785,-0.019618675,-0.15597075,0.33101523,0.06060388,0.010037481,-0.10017147,-0.26756513,0.046032652,-0.29968184,-0.11350375,-0.14701827,0.08537245]],"hidden_biases":[0.0,0.0,0.0,0.0,0.0,0.0,0.0,0.0,0.0,0.0],"output_weights":[[0.16905135,0.39599365,0.2940418,0.27772182,0.37525457,-0.15136516,0.6309779,0.48438781,-0.50449026,-0.56623423]],"output_biases":[0.0]}