{"hidden_weights":[[-0.07401504,0.08905741,0.23966871,-0.046140764,0.11644698,-0.26071444,-0.022658095,0.49165162,0.08380026,0.065193765,-0.08056425,-0.099936076,0.026919687,0.3836661,0.13847484,-0.10714468,-0.034654893,0.24386168,0.01057275,0.010302667,0.24508408,0.075672545,0.021425545,0.09392604,0.03136328,-0.026662664,0.032123946,0.08538087,0.07569486,-0.043285184,0.13866642,0.3697635,0.09305924,-0.027631333,0.030916717,-0.12954623,0.13631177,0.11808956,-0.21149102,0.061154254,0.2333137,0.05572832,-0.06960195,-0.29808763,0.14826272,0.056808557,0.007182791,-0.12966341,0.2242133,0.06723207,0.14616583,0.036244024,-0.025699748,-0.100282595,-0.1361201,0.20259221,0.12338588,0.04690548,0.05733896,0.05385543,-0.17767638,-0.005383497,0.09691683,-0.1635735,-0.01865094,0.33960715,0.102942914,0.0012506959,-0.014666041,-0.27870697,0.117380165,0.2652393,-0.022236248,0.01882675,-0.13023779,0.1004653,-0.016721657,0.12959479,0.16550533],[-0.03177855,0.078526594,0.14695519,-0.04225735,-0.041091967,-0.1573557,-0.16193642,0.0070558637,-0.038814645,0.01938639,-0.06849298,-0.17622578,0.06481979,0.16073795,0.030795079,-0.079486005,0.037854653,-0.08459248,0.18331021,0.18103437,-0.052805696,-0.07981222,0.21786664,-0.16410428,-0.092824146,-0.26633632,-0.024990011,-0.20886116,-0.26615542,0.10941805,0.27189904,-0.32132578,0.029862465,-0.15239812,0.10104527,-0.07102715,-0.19271259,-0.19063933,-0.09214425,-0.048654433,0.15601718,-0.016950674,-0.10676989,-0.12929516,-0.06317473,0.03058052,-0.10605342,-0.064116806,0.13578887,0.09937954,0.28885865,0.07411165,0.34326673,0.22122605,0.13500063,-0.08114135,0.059272412,-0.22012031,0.16804107,0.35104704,-0.17638212,-0.15321495,-0.012533265,0.15370785,0.03257799,0.052964687,0.06661415,0.051817592,-0.051914264,0.039187584,0.096561976,0.4261957,0.09134508,0.110800445,-0.045586284,0.116855726,-0.26724827,0.17028907,0.032797556],[0.039532892,0.016046995,0.24204187,-0.32409418,0.003729087,-0.058586594,0.015230327,0.119475625,-0.14520977,0.013950963,-0.17815253,-0.017067038,-0.0057588527,0.2275344,-0.037331406,0.3075215,0.09775856,-0.10386884,-0.19353719,0.15519585,-0.1175649,-0.034628123,0.21459861,-0.040529694,0.20422086,0.15693411,-0.354687,0.23684072,-0.15693194,0.027085628,-0.27653295,-0.25452864,-0.21387503,-0.22255322,0.19778065,-0.30661607,0.31632072,-0.12941188,-0.14541791,0.09269003,0.13941237,0.13150191,0.28127426,-0.2849219,0.1389421,-0.10041783,0.14743938,-0.09386465,-0.09736824,-0.3442224,0.18455571,0.083560914,-0.022652663,0.016911687,0.066667214,-0.27630237,0.16926071,-0.022087997,-0.13943537,-0.04290708,-0.071899146,-0.19557978,0.15327193,-0.03164007,-0.19712566,-0.06268815,0.16559958,-0.07437938,0.03073502,-0.2777536,0.30795783,0.113227785,-0.07969919,0.009381663,-0.058521993,0.05527086,0.15109631,0.15590182,0.12602869],[-0.089927144,0.10774052,-0.17372212,0.05920059,-0.2579209,0.15018131,0.02859659,-0.0026303392,-0.15002811,0.0707095,0.11896371,-0.058873776,0.010349176,-0.1730393,-0.41197172,0.0072182775,0.0770727,-0.08587174,-0.06894455,0.021200899,-0.15298574,0.031727288,0.009885184,0.21906021,-0.0310402,-0.10289025,0.28565732,0.33216268,0.43787464,0.29766428,-0.053091947,-0.040475227,-0.06907773,-0.28557694,0.060115714,-0.07696785,0.16157077,-0.049747985,-0.2960463,0.14924642,0.03250908,0.2801872,-0.30675542,-0.07935294,-0.16159618,0.24648869,0.19584511,-0.35435447,0.03741484,0.03231849,0.063148506,-0.0017915611,0.16013306,-0.08922915,0.067951545,-0.117212325,-0.22106665,0.08287705,0.22992049,0.23961568,-0.06336896,-0.17622189,-0.239845,0.24011582,-0.118551075,0.1045593,-0.2261248,-0.074070394,-0.081854686,-0.07321444,0.0102082975,-0.14445245,0.0044614645,-0.08904748,-0.110799074,-0.038040526,-0.07439027,0.14794241,0.14188388],[0.010089028,0.29564276,0.08924609,-0.043298014,0.33337763,-0.10452969,-0.16655809,-0.2779077,0.3342326,-0.16371605,0.268257,0.026346965,0.05869026,-0.049182147,0.22421028,-0.31243148,0.028611124,-0.120330684,0.21056475,-0.0038747333,0.092292175,0.025183057,-0.121799685,0.1337183,0.12470121,0.043496665,0.22227852,-0.23026757,-0.03175988,-0.09541534,0.084695175,0.21897273,0.067433596,-0.28257036,0.15776932,0.22226366,0.20175205,-0.17943384,-0.012107489,-0.31784213,-0.042239875,-0.24683344,-0.26008075,-0.20511244,0.030327557,-0.19494312,-0.10916969,-0.15281223,-0.008015927,-0.01417792,-0.22156365,0.08921106,0.034440648,0.1405037,0.106973216,-0.10497383,0.09657156,0.029135026,-0.053169824,-0.1836893,0.01867714,0.1722271,-0.02303705,-0.09815038,0.013766994,0.29662228,0.25751477,-0.16012782,-0.07828977,0.14027445,0.07591984,0.13366243,-0.2733937,0.08039082,0.13576041,-0.038509388,0.10941405,0.23502511,0.037793152],[-0.13125406,0.06716805,0.09242375,-0.12887113,-0.13308875,0.18491222,-0.044239186,0.19189377,0.0021214108,0.10615081,0.17999275,0.32255688,0.15525405,-0.095146075,0.051518384,-0.109070696,-0.206477,-0.054302655,0.08915479,0.039452944,0.21834198,-0.0027946567,0.032462712,0.19560188,0.017737012,0.010776652,-0.17033309,0.12077904,0.032457672,-0.09801875,0.039764978,-0.09203786,-0.31988963,-0.18310113,0.123706676,-0.036989853,-0.025081383,0.046339374,-0.08383901,0.07394776,0.049872413,0.1144878,0.14733425,0.06608941,-0.2701996,0.13371563,-0.13082235,0.15974033,0.037775014,0.13958804,-0.15486749,-0.037262697,-0.058606036,0.07002149,-0.28986284,0.14916918,-0.29455662,-0.28268486,-0.3660134,0.0054430915,-0.31348255,-0.015411177,-0.046085,0.34329265,-0.39228058,-0.004208406,0.029225016,-0.17011373,0.20905751,-0.3791106,0.27384153,-0.14231251,-0.17608236,-0.055603582,0.07593201,0.11788972,-0.19459422,-0.20570248,-0.15070468],[-0.084216125,-0.120429955,-0.11973632,-0.17082748,0.06554416,0.123059005,-0.08676237,0.10746083,0.055342205,0.035602983,0.111505724,-0.104523316,-0.24609615,-0.33517525,-0.092496224,-0.010876535,-0.1519352,0.1603931,0.07556833,0.09527244,-0.110430926,-0.119788006,-0.061859414,-0.19444191,-0.20771635,0.25862342,0.099963866,-0.067106485,-0.37661764,-0.10969752,0.30824542,0.27197027,0.1678348,0.058649153,0.15960266,0.20068116,-0.20125677,-0.025891367,0.15896603,0.02606507,0.2789836,-0.060799208,-0.1348256,-0.109653346,-0.16125873,-0.012606241,-0.1945521,-0.1629556,-0.029778492,0.07544266,-0.1221431,0.17772248,-0.095417194,-0.07255149,0.019638214,0.11673214,0.21503659,-0.028641962,0.074217364,0.14968221,-0.18616247,0.06740136,-0.041149627,0.10794859,-0.03334502,-0.24355255,-0.16394433,0.08272144,-0.11371748,-0.15161195,-0.005432905,0.1192001,-0.118644275,-0.031065665,0.09141465,0.20441753,-0.41543028,-0.26269606,-0.19567673],[0.102949455,0.119929224,-0.056754477,0.16302343,0.13724133,-0.05439611,0.12275513,0.023619799,0.063853584,-0.038851753,-0.13002467,-0.13736574,-0.03735746,0.014856602,-0.0053860205,0.28361902,0.07609301,-0.23587959,-0.21466906,0.17721345,-0.037913226,0.025460977,-0.12871385,-0.11259117,-0.112430945,-0.1176157,0.22154912,-0.025033688,-0.04070449,-0.27470258,-0.052611735,-0.09263114,-0.058304895,0.09963037,0.016386364,-0.17936492,-0.34161764,-0.17351142,0.028875278,0.14075746,0.17169853,0.31101173,-0.014145819,-0.032891575,-0.13901375,0.19413394,-0.043483768,-0.2771602,0.073368736,0.010129124,0.23925196,0.068803415,0.31694973,0.10301934,0.059739634,0.083795734,0.0140433395,0.22977395,-0.061752237,0.2874994,-0.10130748,0.2006056,0.21514152,0.28883827,0.30702502,-0.038262304,-0.09292294,-0.030112198,0.27416617,-0.20472178,0.08105382,0.030948037,-0.06893207,0.22634126,-0.17644909,0.050683636,-0.008622319,0.3208828,-0.24533431],[0.1918623,-0.108344905,0.109653085,-0.06808523,0.00056137907,-0.018863294,-0.06952035,-0.25098965,-0.12353924,0.012529836,-0.055808216,0.06303147,-0.026805775,0.050329324,-0.21561514,-0.34843644,0.15327281,0.0064670476,0.24347468,-0.18611778,-0.075217195,0.092163816,0.1791496,-0.034896143,-0.11661838,0.09606728,-0.00289813,0.18165064,0.066750854,0.022868821,0.20086275,0.12314996,0.14965414,0.13551983,-0.113155246,0.15741608,0.22048098,-0.056099463,-0.008490804,0.020938475,-0.07129854,-0.19239469,0.05742785,-0.093336135,-0.042795125,0.3117592,-0.018036744,-0.09343115,-0.080478095,0.27398008,-0.14499524,-0.15944378,-0.18053465,0.112547636,0.15892296,-0.21706149,-0.26829594,-0.20839828,-0.040943272,-0.26809976,0.049636245,0.13807705,0.012706325,-0.25188863,0.10285753,-0.17017062,-0.08300235,0.10761154,0.008817585,-0.053950768,-0.10121578,0.03228416,0.04241495,-0.117289975,0.05914798,0.11771807,-0.29579377,0.14530808,0.349689],[-0.34645006,-0.05843165,-0.043898407,-0.29605314,-0.13465679,0.043114465,-0.13816273,0.0030254023,-0.066438325,0.029339356,0.0060717585,0.017035514,-0.02710099,-0.41797164,-0.046491332,-0.019426964,-0.114735015,-0.2926322,-0.13991903,0.030535595,-0.0037680166,-0.31995472,0.14449058,0.28832307,-0.0095230555,-0.10944046,0.08462434,0.07919135,-0.16007558,-0.10546009,0.14500596,0.17871562,0.15875547,0.17572373,-0.21616769,0.1042385,0.11972149,0.37818006,-0.014795405,0.10561606,-0.11604108,-0.13816866,0.03098176,-0.2916395,0.055890985,0.022555899,-0.22632352,-0.15401277,-0.19108948,-0.09231321,-0.019270156,0.07433191,0.19112499,-0.047668435,-0.20650545,-0.34967744,-0.2617579,0.11289061,-0.15834612,-0.019245435,-0.0953377,-0.17140701,0.17266023,-0.21282345,0.062012427,-0.0147614805,0.20269692,-0.43808854,-0.03709873,-0.0036647231,-0.10597436,0.16428807,0.117790826,-0.11463981,0.18044594,-0.015302066,-0.09341692,0.049791798,0.37148878]],"hidden_biases":[0.0005830382,0.0006116211,0.00026013542,-0.0005987079,-0.00079461583,0.00058177067,-0.0007673518,-0.0007595264,0.00078749604,0.00054637704],"output_weights":[[0.49572608,0.022401916,0.3312228,-0.60888714,-0.5041799,0.6040354,-0.64171267,-0.46036696,0.09724099,0.28953445]],"output_biases":[0.0007839472]}