{"hidden_weights":[[-0.03439833,0.27298617,0.34511665,-0.00840659,0.005954593,-0.027442275,-0.2901596,0.1255046,0.06602924,-0.10466533,0.0052305423,0.18839249,0.3577454,-0.4045125,0.2638125,0.054812815,-0.16789505,0.0332537,-0.010438119,0.43746653,-0.25664434,0.20156153,0.21704745,-0.10722379,-0.4031252,0.06000734,-0.027741909,0.15741809,0.07936011,0.18713157,-0.03756161,0.14469297,-0.11022031,0.004094255,0.054687764,0.22285795,0.0605733,-0.31656533,-0.32746658,0.107392624,-0.3081412,-0.24822323,0.07243304,-0.36378074,-0.30796146,0.067818895,-0.1725087,-0.037309904,-0.19076537,0.35269958],[0.05958884,-0.11063969,-0.04890161,-0.17986277,-0.12294485,-0.050493743,-0.13424222,0.23942125,0.18176985,0.22938661,0.15205549,0.07858302,0.0135150505,0.002869515,-0.13783467,0.043376103,0.021688385,-0.061089236,-0.027881904,-0.19477479,-0.061680038,0.31872383,0.20150366,-0.4899796,-0.23545611,0.09707738,-0.04146343,0.22961564,0.21292229,0.048649773,-0.27724287,-0.19186056,-0.18679737,-0.3843113,0.06661897,-0.19219862,-0.08611947,0.2866281,0.26797363,0.06231923,0.38693133,0.032105673,-0.23430489,0.16270007,-0.04028752,-0.008845327,-0.033335846,-0.20786595,-0.18811588,-0.013689426],[-0.07899787,-0.23954566,-0.2621745,0.045339007,-0.14313875,-0.18807963,-0.0132990675,0.22111009,-0.05927198,-0.2742368,0.120823026,0.19865017,0.02561002,0.10568793,0.1581715,-0.08123792,-0.0808439,-0.15684636,0.08967135,0.2687508,-0.13107714,-0.5157325,-0.29498178,-0.20817645,-0.22689317,-0.085086584,-0.37417826,0.17545857,0.07314959,-0.007808453,-0.15848908,0.2868766,-0.13598715,-0.09333283,0.39557108,0.17629187,0.04477661,-0.037548073,-0.30599973,0.30925018,0.18857925,0.24212597,-0.016954973,-0.23450716,-0.47513318,0.26637867,0.5248488,-0.16310643,-0.041167084,0.16711366],[-0.15508746,-0.40815678,0.39509425,-0.2169121,-0.3574625,-0.39135495,0.220474,0.025223736,0.21467519,0.061151672,-0.066059835,0.12819146,0.16336411,-0.027132405,0.02926511,0.15172955,-0.066455096,0.1777686,0.24294923,0.06772436,0.18152927,0.25757954,-0.29141954,-0.29664168,0.08743137,-0.20412754,0.110106505,-0.4254573,-0.14713657,0.22822689,0.0078089545,0.0033529836,-0.08383886,-0.16953509,0.17722769,-0.008369608,0.05678857,-0.084299535,0.1633151,-0.27944922,0.10898055,-0.0026615285,0.0935893,-0.16633032,-0.24531598,-0.27393052,-0.17335911,0.3004693,0.11211079,-0.09390653],[0.122143425,-0.13013585,0.26222426,-0.0061154994,-0.005591044,0.031799965,0.24714518,0.087001,0.086856745,-0.7335686,0.34060052,0.11925753,0.051066972,0.09979561,-0.21445839,-0.21724038,0.30654567,-0.24795616,0.13446638,-0.16475563,0.067590915,0.116405666,0.12745608,0.22344087,0.1894884,-0.17791829,0.25932682,-0.11667148,-0.05225224,-0.089853324,0.23550081,0.026937107,-0.1057923,-0.06992501,-0.28091457,0.3214002,-0.33327922,-0.15852937,-0.36067557,0.07264493,-0.10401975,-0.34550086,-0.34070596,0.012561619,-0.21139966,-0.1797544,0.1706283,0.23164456,-0.26670942,-0.316918],[-0.2116301,0.014336402,-0.3168292,0.18242629,0.21491134,0.122463465,-0.12897363,0.23606955,0.107860066,-0.32302848,0.3295656,-0.093363754,0.41489026,-0.10143005,-0.1951171,-0.10390991,-0.15497188,0.15223502,0.14365998,0.028806498,0.1879609,-0.13659215,-0.22822133,-0.07308279,0.1500936,0.08294577,0.10248508,0.27850068,-0.14281498,0.03963178,0.0065195444,0.06623297,-0.052140664,0.011600153,-0.07731085,0.33584464,-0.05189673,0.094105504,-0.3152145,0.22007811,0.006441505,-0.21375184,0.077925675,-0.097365804,-0.18181185,0.13499661,0.2077189,-0.5526981,-0.13333277,-0.19084452],[-0.027759079,-0.23336966,0.35471654,0.16827886,0.15048365,-0.020764835,0.0038888962,0.108799554,0.09348343,-0.6053098,-0.049034394,0.36842558,0.20243144,0.107662015,-0.07458872,-0.27516812,0.32521036,0.16147362,-0.34591222,0.03982851,0.2149966,0.055205047,0.001296716,0.48560515,-0.090792395,0.23316972,0.08146872,0.32625744,0.076484054,-0.1021932,-0.12271086,0.079359315,0.19434598,-0.021641247,0.31926155,-0.111140214,-0.017362598,0.5254521,0.10900976,-0.2573664,-0.08177264,0.1633889,-0.2337668,-0.1703987,-0.07587002,-0.3456581,-0.61356384,-0.13030319,-0.08489025,0.13586776],[-0.3367368,0.06760161,-0.06899952,0.10783326,-0.05316163,0.16662423,0.101901166,0.15291111,0.19212478,-0.16301623,-0.14712904,0.023936165,0.046112504,-0.0065870145,-0.08199208,0.05005675,0.5624482,0.04311339,-0.08388021,-0.0083752675,0.3596297,-0.036073394,0.17740677,0.24116881,0.09469799,-0.19450223,-0.052582502,0.18829994,-0.05520351,-0.122376695,0.07863521,-0.62586343,-0.3445129,0.1273492,-0.23554336,0.09215583,-0.2790261,-0.09199818,0.121608354,-0.20186627,-0.037088014,0.0751779,0.14236961,-0.067043714,-0.07204483,0.1804528,0.15994637,-0.010471311,-0.018656194,-0.01102738],[0.035395835,-0.007887039,-0.23651026,0.03844429,-0.13901569,0.22933698,0.3153953,0.1173953,-0.12601624,0.035768062,-0.4314189,-0.17767768,0.14034617,0.007439097,-0.004357316,0.0698344,0.15217032,-0.30337363,-0.14657559,0.19257359,0.06803435,0.08836081,-0.43221146,0.035719793,-0.14737308,0.19723818,0.068142004,-0.02980568,0.02301847,0.15251283,0.2401794,0.33858055,-0.121744014,0.05044219,-0.17355542,-0.01794108,-0.24452078,-0.16595793,0.0724275,0.09165187,0.08092122,0.33897248,0.25801775,0.22634612,0.4051168,0.0008831868,-0.10409387,0.28976244,0.012278337,0.058612563],[0.0169891,-0.12033472,-0.33472964,0.07676908,-0.17711435,0.23155478,-0.02551413,0.12269664,0.17385276,-0.12380791,-0.12930259,0.1873955,0.09601761,-0.11907482,0.07676277,0.1363313,-0.14339343,-0.0694161,0.21235047,-0.0408147,-0.017022587,0.5482233,0.2230515,0.17396474,-0.21232562,-0.49217555,0.059153408,0.11124299,0.116971985,-0.006183746,0.34139618,-0.25600946,0.15046732,0.100982726,0.50895184,-0.02654658,0.076980256,0.0897766,0.054676533,0.18297125,0.022987362,0.07670441,-0.078967154,0.07898776,-0.21547571,0.14851615,0.026522016,0.41163144,0.05030894,-0.29606494]],"hidden_biases":[0.0,0.0,0.0,0.0,0.0,0.0,0.0,0.0,0.0,0.0],"output_weights":[[-0.3820039,-0.3855661,0.41021663,-0.22578132,-0.59032565,-0.57850623,0.70911604,0.50140244,0.6568406,0.09911227]],"output_biases":[0.0]}
